7 1000
나는 -0.00035390645 0.0003038751 3.3119802e-06 -6.836115e-05 -0.00011551542 0.0002183287 -0.0002328853 -0.0002623146 -0.00026598945 -7.52124e-05 -8.72775e-05 0.00048989226 -0.00035137753 0.00010777527 0.00046656752 -0.00035439656 0.00040216953 -5.45757e-05 8.5116786e-05 0.00020810659 -0.00013328367 0.00030117683 0.00049013435 -0.00021047062 0.00030614214 0.00042294268 -0.00034116593 0.00028217075 0.00025126318 -0.00038414428 0.00033949886 0.00045882651 0.00047641178 0.00020270595 -0.00011116936 0.00015521077 0.00024871042 -0.00024182776 0.00012311626 0.00020190515 0.00036233838 -0.0003918252 -3.3493532e-06 0.00015752952 -0.00021071054 -0.00038438383 1.7007686e-06 -5.1703173e-05 -0.0003666488 -0.0003901045 -0.00041170025 -4.217667e-06 0.00044504818 0.00016337511 -8.298761e-05 0.00022171014 0.00013811344 0.00042259443 0.0004789384 2.3367652e-06 0.0002525836 -0.00016820272 -0.00022431924 0.00027339425 0.00026026642 0.0001518292 1.0988994e-05 -0.00041482784 0.00013576528 -0.00037190985 -8.918703e-05 -0.0004348434 -0.000101001 -0.0004231079 -0.00033382868 0.00049348525 0.0003539032 -0.00018841826 -0.00025651723 0.00027555315 -0.0004445984 -0.0002876465 0.00031634967 -1.3603934e-05 0.00017257914 -4.11762e-05 -0.0003163901 -0.0002393971 0.00031599193 -0.0002114382 0.00020897645 0.00012720967 0.00013992342 -0.00040010954 -0.00040470716 0.0004451151 -0.0001969018 -0.00041020275 0.00044744852 -0.00028411916 -5.085269e-05 -0.0001693083 -0.00023172874 -0.00046193757 -0.00019325063 -0.00037267784 -0.00041279252 0.00035089074 -9.4363975e-05 -0.00028588297 -0.000429986 0.00035179837 -0.00014565549 -1.6800452e-05 8.66635e-05 -0.0003742312 -0.00021834059 -0.00016666707 0.00031658402 -0.00012165336 1.3409142e-05 -0.00037165458 -0.00023176924 -0.00041185902 -0.0003819447 0.0004764367 7.912319e-05 3.7466634e-05 -0.00029628474 -1.3864478e-05 -0.00025072042 -0.00030397135 6.553561e-05 -0.00019486551 -8.0718884e-05 0.00030467333 -4.150696e-05 2.1272916e-05 0.00015881514 -0.0004418951 0.00046408302 0.00036885127 0.00031179166 0.00027366288 0.00019445959 4.9007696e-05 6.633805e-05 -3.7726873e-05 0.00027560725 -0.00025254572 7.769388e-05 -0.00027617146 -0.0001280027 0.00024862486 0.00022808155 0.00020831174 -0.00013212365 -3.977911e-05 0.00018624136 -0.00049582677 -0.00044567292 4.568191e-05 -5.754726e-05 6.0926373e-05 0.00015455572 0.0004897441 0.0001754518 -0.00021690039 0.00041256245 0.00035261066 0.0002176067 -0.000269734 -0.00037300622 0.0002038628 -0.00032411615 -0.0004178887 0.00029149192 -0.00012003433 -0.00028904833 0.00010237978 -0.00037459892 -0.00038478826 0.0002449819 -0.00015590564 0.00016628751 0.0004803228 -0.0003108442 0.00035310304 -1.1510493e-05 0.00047443176 -4.53301e-05 0.00027980254 0.00036711877 -0.00011073109 -2.4535953e-05 0.0001210223 4.3644166e-05 0.00011785939 -1.6585871e-05 7.8703684e-05 -0.00017333013 0.0003910207 -0.0002898906 0.00044102527 0.00027240676 -0.00046195544 0.00048897526 -0.00016024667 -4.9365255e-05 -0.0003266555 -0.00026725687 0.00040550277 0.000106993495 0.00041317148 0.00025895546 -4.472473e-05 0.00010815242 8.855499e-05 -7.176491e-05 0.00036114492 -0.0002907986 -0.00032281893 0.00031167877 -8.152696e-05 0.00034983183 -0.00048287597 0.0001629488 -0.00045053373 0.00016939847 0.0002955579 0.00034145993 -3.7443493e-05 -0.00041413563 0.00033003496 9.308915e-06 -0.00014042662 0.00037727592 -7.270149e-05 8.7784705e-05 0.00022242924 0.00020264825 0.00037731975 -0.0002468312 0.00011779774 0.00047661748 -0.00012270645 0.00024304318 0.00019421878 -0.00049835443 0.00025666234 -0.0003314657 -0.00021375822 0.00042238928 0.00036151425 0.00036225453 0.00014194881 -0.0003179809 0.00015329999 0.0003876461 -0.00019691739 -0.00028222823 0.0001049693 -0.00046140418 -0.0004645905 0.00040595638 -0.00034906846 -0.00024102912 0.00043657748 0.00044699342 0.00047438662 0.0001470351 -0.00021502873 0.00014684755 -0.00038434096 0.00022403058 -0.00021892264 0.0003641894 0.00026900746 -0.00033478223 -0.0004954669 -0.00041951422 0.00045252877 0.00045518478 -0.00020839735 -0.00021478554 0.00023872446 0.00043844577 3.431772e-05 0.0003088527 -5.4181855e-06 0.0003667536 0.00021946222 0.000451043 0.00012209042 8.358495e-05 -0.00011966444 -0.0003649733 0.0002890266 -0.0002072766 -0.00025049807 0.0001161621 0.0004926971 -0.0002877947 -1.40801385e-05 0.00022661348 -3.8331564e-05 0.00017464526 0.0001714977 0.00017616307 -0.00046229534 -7.090489e-05 0.00041840726 0.00022051834 -0.00026204475 -0.00037255345 0.00030813512 -6.394972e-06 0.00031497743 -0.00013821728 4.3949185e-05 -0.0001709485 -0.00015773774 -0.0004506501 -0.00015021556 4.640513e-05 -8.854483e-06 9.277156e-05 0.00038032464 0.00023769133 -0.00019288962 -0.0003817373 0.00038542834 0.00023728787 -0.00043763625 0.00040921418 -1.8968874e-05 -0.00016508532 -0.0002432922 -0.00024187779 -0.00044949198 -0.00043599927 0.00045553755 -0.000154575 -8.726421e-05 0.00016236927 -0.00033190817 0.0004928935 -2.8692486e-05 -0.0004886016 -1.6861026e-05 -0.00025406477 -0.000316644 0.00033678734 0.0003395879 -9.812147e-06 -0.00024190769 -0.00011310676 -0.0003481069 0.00011056679 -3.9350667e-05 -0.00028654656 -0.0002591613 0.00031243474 -0.00046633848 -9.9410776e-05 -0.0004786158 -0.00016865191 0.00035950297 -0.00039231352 -0.00020914878 0.0004981454 -0.00014343858 0.00029830122 -0.00016977836 0.00033720874 -1.34604525e-05 0.00016581087 -6.7918045e-05 0.00033395897 0.000333535 -0.00030820887 0.00011910045 -0.000317418 0.00027785572 -0.00037683322 0.00019093837 -0.0004914766 0.0001420612 -0.0004253008 -6.833976e-05 -0.00046145832 0.00041117752 0.0002527125 6.473052e-06 -8.353596e-07 -7.413221e-05 -0.00027895102 0.0004987015 0.00039247202 -0.00044309825 -0.0004472571 0.0004921764 -3.2795087e-05 0.0002538284 -0.00023395724 -9.3238836e-05 0.00013390183 0.00016974114 0.00049380504 0.00025567057 4.8111277e-05 0.00010918083 -0.00024021475 -6.217953e-05 -0.00010064742 0.00032055224 0.000255084 0.00031130284 0.00036010492 -0.00049622543 -7.3378544e-07 0.0002475972 -0.00013488048 0.00038093075 -0.00030405002 -0.0002657811 -0.00049649045 -1.4120841e-05 -0.000116297786 -0.00022055363 -0.00048278464 -0.00035376757 -0.00037022607 -0.00026470717 0.00021332887 0.00010373345 -6.238509e-05 0.00030349832 0.00037312103 -0.00014095905 -0.00032277356 -0.00023920425 0.00024350209 -9.5910036e-05 0.00021419888 7.434587e-05 0.00017335074 0.00014480622 -0.00042950152 -0.00029847157 -7.284948e-05 -0.00021443267 0.00019652204 -5.6025514e-05 0.00011012024 0.00041571725 0.00030986834 -0.0002340576 0.00023214657 -0.00016256326 -0.00034534943 0.00025561883 0.00024546668 -6.306884e-05 0.0003535297 -0.00040576563 0.00015552691 0.00018814798 0.00030808744 5.6845725e-05 0.00011130321 0.0004930218 -2.812251e-05 0.00035281596 0.00011309613 0.00038623152 0.00024769476 -0.00025648953 5.096467e-05 0.00032702304 0.00011627174 0.0001089874 -0.000110758774 -9.360246e-05 -0.00012141182 0.00011830123 0.00020264895 0.00037092925 0.00011475536 -4.2945067e-05 -0.00029880006 -0.00017845228 -0.0003313797 -8.6705004e-05 0.00013394444 0.00045870343 -0.00027939572 -0.00021422132 -5.9659877e-05 -0.0003746686 -7.82114e-06 0.00027184896 -0.00020100242 3.452366e-05 0.00010293536 0.0003859388 -0.0001814278 -0.00040347394 0.00024266509 -0.00043248935 0.0003959094 -0.00045361673 0.00027277574 0.00014830279 0.0003051423 0.0004728372 7.4140587e-07 0.00013131204 -0.00041088962 0.00023328431 0.00023767485 0.0001289523 0.00024464223 -0.00044767902 7.462447e-05 0.00036999743 -9.6132615e-05 -0.00034957466 0.0003614238 0.00017708809 -3.8770944e-05 -0.00010105869 0.00041590753 -0.00022814237 -6.219386e-05 -0.00030877223 -0.00036630785 0.00030745976 -2.0257445e-05 -5.5471002e-05 -0.00025417007 0.00043784993 0.00020418219 6.879504e-05 -9.4036135e-05 -0.00046428287 -8.996472e-05 0.00012402507 -0.00026104614 8.689897e-05 -0.00046883296 -0.00048978854 -0.00023902328 -0.00032109418 0.00036253105 6.6615517e-06 0.0002802074 -1.3259347e-06 0.00035536615 0.00017295039 -0.00019154766 0.00045901127 0.00012822101 -0.00014866043 0.00026291917 0.0004915226 -0.00034276734 -0.00027480643 0.00035645562 0.0002589137 0.00031576792 0.00049328705 -0.00035995364 0.00011677843 0.0001798561 -8.4614185e-05 0.00013527868 -0.00040649416 -0.0003347414 0.00029085425 0.00036023665 -0.00019921415 0.00024279497 -8.544466e-05 0.00044424096 -0.00029291926 -0.0004898326 -9.892696e-05 0.0004673776 0.000115075876 -0.0002464653 -0.00047654446 -6.34507e-06 0.00047730142 -0.0004230903 -0.0002489317 -0.000115026116 0.00048402554 0.00024110657 4.6979818e-05 -6.2216386e-06 -0.00037036542 -0.00012963898 -0.00036524775 0.00028835217 -0.00046272494 -0.00037434252 -0.00010924871 4.3385062e-05 0.00030134746 0.00015111524 -6.6882596e-05 9.830839e-05 -0.00045176432 -0.00044998713 -0.00010611914 -1.5227204e-05 -0.0002394136 0.00011239618 -0.000118489035 -9.897383e-05 5.0328268e-05 -0.00016482084 0.00026362625 0.00043235085 0.0002636425 0.00032610394 -0.0004649783 -0.00042638823 -0.0004722014 -0.00037510105 0.00048511164 -0.00030660498 0.000499518 0.00020876747 0.000102813974 -0.00016522557 -9.080109e-05 -4.213523e-05 0.00048010272 0.00023619035 -0.00034388842 0.00044605165 -0.00029380384 0.00021347639 0.00044890217 -0.0003678561 5.000838e-05 -0.00037902387 -0.00023253035 0.00012898237 0.00031496433 0.00016257988 3.356819e-05 -0.00028262334 0.00046302387 0.00032707743 -0.00013810443 -2.41458e-06 -0.0003664998 -0.00048726157 0.00028420723 8.993924e-05 2.1143813e-05 -0.00041648574 -0.00032377275 -0.00036376368 -0.00039768912 0.00042624644 0.0001610318 -4.774389e-05 0.00018308513 -0.00048435698 -0.00019020475 -0.00036859835 -0.00025290885 -0.0002905212 -0.0001587567 -0.00038367434 -0.00031477123 -0.00028007416 3.054269e-05 0.0004052605 -0.00010473736 0.00013944648 0.00017100872 1.6764721e-05 -0.00013453874 -2.2559052e-05 -0.00027117098 0.0001800345 0.00048533792 0.00048687583 -0.000105767045 -0.00037800858 0.0002527609 0.00048656348 -0.0001867038 0.00023597715 0.00033006002 0.00013789795 -0.00011720496 -0.0004033948 -6.0642924e-05 -0.00034688468 0.00033143628 4.486917e-05 -0.00039622316 -0.00037241034 -0.00022187721 0.00038946353 0.00042674236 0.00018457639 0.00044574 -4.0089188e-05 0.00046306712 0.00047111834 0.00031306336 -0.00041141539 -0.00017287643 -0.00038525357 3.77557e-05 -0.00023340437 -0.00022620721 -0.0004948109 -8.8718814e-05 3.767554e-05 -9.558258e-05 -0.00044050935 0.00029691524 0.0004684439 0.00036789046 8.098463e-05 0.0004285889 0.00020228661 -0.00033945136 -0.0001893944 0.00034319542 0.00045051906 7.164492e-05 0.00044081724 0.00027394728 0.0004414677 -4.2036838e-05 0.00025403086 0.00027353215 0.00045951168 1.5430808e-06 -0.000371119 6.287058e-05 0.00038134007 5.6566285e-05 7.5079646e-05 6.587996e-05 1.3620348e-06 -0.00048151598 8.50777e-05 0.0004499359 0.00024740948 0.00029461307 -6.267981e-06 3.1691914e-05 1.7349657e-05 -7.292575e-05 0.00011709864 -0.00027853975 0.00022009143 -0.00029098245 -7.896177e-05 -0.0003607975 0.00033555552 0.00012616752 -0.00016441933 0.0004044266 -9.0536945e-05 0.00015380411 -3.4166565e-05 0.00029715453 -0.00018455449 -1.962549e-05 6.186546e-05 -0.00039282086 -0.00031729674 0.0004757076 0.00036376982 0.00029204757 0.00048504688 0.00044477056 0.00016560708 -0.00044496253 5.4997552e-05 0.00036690687 -0.0002033366 -0.00024051375 -0.00029138578 7.787458e-05 -0.00023877183 0.00030883795 0.00047951672 -0.00035995364 0.00029974955 0.00034098697 -0.00045658823 -0.00048536062 -0.00014277131 8.561111e-05 -0.00049655227 -0.00039100318 0.00022604206 0.00032346288 -0.00041845875 0.00019602018 0.000386194 0.00032184858 0.00040194127 -0.00023665746 -0.00029365328 -0.000115238414 -0.00032338014 7.153496e-05 -0.000108279964 0.0002850714 -3.1678184e-05 -7.536514e-05 0.0001795232 0.00014590455 0.00042520204 0.00011628599 -0.0003030222 0.00035197474 -0.0004956231 -0.000262521 0.00022113722 -4.8896065e-05 -3.280486e-05 0.00028854626 -0.00018639362 -1.8750803e-05 -0.00010824011 -3.442061e-05 -0.0002071762 -0.00030701316 0.00015038945 -0.00024721428 0.00034285753 0.00043778162 0.0004820066 0.00016936361 -0.00038062356 -9.635882e-05 -0.00046021974 0.00010921733 0.00043072796 -0.00042480748 -2.0341606e-05 0.00042453484 -4.4455686e-05 -0.0002753958 -2.3113666e-05 -0.00047519262 -0.00015852257 0.00030882683 0.00023356787 0.00026676193 0.0004128782 0.00042885123 -0.00017058916 0.0003672033 0.00040256526 0.00012797765 0.00045500562 7.524903e-05 -0.00015440745 0.00048674873 0.00017499265 0.00012220416 0.00035668345 -0.00017511846 0.0004341271 -0.00013268922 -0.0003453446 0.00030629593 -0.0002844789 0.0003946789 0.0004928982 -0.00025375333 0.00047891005 0.00028587392 -0.00025161923 0.000272064 -0.00029546002 -0.00048651142 -0.00018838546 -0.00019963874 0.00015248131 -1.1029357e-05 -5.5168566e-05 0.00025814003 -5.7610803e-05 -0.00044354537 -0.00039533596 0.00022824263 -0.00048207713 0.00040651948 0.00037562003 -0.00035726337 7.76028e-05 0.00042405358 -3.095441e-05 0.00022393189 0.00015041488 -0.00022871357 -0.00015708718 0.00018590609 0.00032041213 -0.000482941 -0.000398657 -0.0003059552 0.00036153337 0.00029488278 0.0002976401 5.8387825e-05 -0.00031088476 0.0002524087 0.000457104 -0.0001062454 0.0004251724 -0.00019025088 2.3098379e-05 -0.00033439352 -0.00033301202 0.00027846725 -0.00029787864 -0.00032908318 -5.770188e-05 -0.00017887416 0.0004847728 2.2096767e-05 -0.00024306246 -0.00028216324 9.03185e-05 0.00047529177 -0.00047535505 8.2131075e-05 0.00017511322 -7.717586e-05 0.00025534251 0.00048585792 0.00012379813 0.00016036247 0.00033761322 -0.00040820267 -0.00031521506 0.0004524171 0.0003139272 -0.00029115743 0.00016369237 0.00023546978 -3.2603915e-05 8.349258e-05 0.0002469134 -5.073182e-05 0.00027367473 -0.00013172813 0.00018583679 -4.822292e-06 0.00017757573 0.00046343813 -5.0032362e-05 0.00015730684 -9.140184e-05 -0.00036601227 -0.0003468569 -0.00019961376 -0.0002605272 -0.00037421897 -0.00032016073 0.00023339668 0.00044490318 7.033802e-05 5.0106053e-05 -0.00040985583 -0.00047786153 0.00028818948 0.00026441584 0.00020906903 -8.8844536e-05 0.00042328762 0.0003990052 -0.0003249559 -0.00048339224 0.00018494233 -0.00018105234 -6.831145e-06 0.00020072077 -0.00024242183 -0.0004434347 0.00016543143 -0.00049712247 -0.0001269381
너를 -8.6407956e-05 1.29323125e-05 -0.00024797636 -0.00014056425 0.00028469306 -0.00043731855 2.5541467e-05 -0.000405013 1.5647764e-05 0.00023758985 0.0004894475 0.00025500538 -0.00026982225 9.8721444e-05 0.00019326509 0.00026582347 0.00041151067 0.00030818325 0.000131895 -0.0004969972 -6.929515e-05 -0.000113499584 0.00016405065 0.00049711036 -9.242183e-05 -0.00030668126 0.00047181646 -0.00017371833 3.778205e-05 -3.834383e-05 -2.2452037e-05 -4.23471e-07 -0.00039005492 0.00017522072 -0.0004811015 -0.0002793057 0.00023524539 0.00045962082 0.00021905387 -0.00045167876 0.0001802963 0.00021779051 1.8270797e-05 -0.00034951785 -0.00039293748 0.00022208632 -7.187531e-05 -0.00034163 -0.00043594904 -0.000101734615 -0.0004898778 0.00032575236 0.0002566309 -0.00030282143 -0.00025687486 -0.00019770177 -0.0002312615 -0.00029896112 -0.0001100873 -0.00041803514 -0.00038703418 0.00017022598 6.998475e-05 0.00019413795 0.00025428698 0.00035009353 0.00029202638 0.00038455668 -0.00043723403 -0.00012515146 0.00040828183 0.00034006016 -0.00011608144 -0.00021681614 0.00013926222 0.00048394344 0.00015134107 0.00038095418 0.0004350412 0.00025189796 0.0002627088 -0.00042894864 0.0001403644 -0.0004014167 0.0003459915 7.206485e-05 -0.00015239348 -0.00047077448 -0.00017378692 0.00047175554 -0.00030639692 0.00036729794 -0.0004560992 -0.00048296846 1.7193555e-05 -0.00026801776 -0.00013474593 -0.00025741028 0.00049180613 -0.00042369118 0.00026731705 0.00025534222 -0.00026601765 0.00041096305 0.00048353933 -4.1228817e-05 -0.00039681146 -0.00034712878 0.00021588833 0.00037333232 -3.663002e-05 -0.00023673776 0.00033465034 0.0002742131 0.00044668562 0.0002661519 0.0004861559 0.00040709155 -0.00022271028 -0.00012692201 0.000345611 0.0004150237 -0.00049151183 -0.00045096767 -0.00042521575 -5.4804375e-05 0.00025081765 -0.00045882707 -2.6426846e-05 -0.00042731458 0.00037648805 0.00034387285 0.00017776134 -0.00013942087 -0.00038859033 -4.0279185e-05 -0.00043188938 -0.000108076325 -0.00036739217 -0.0003226153 -0.00031973916 0.00035984072 0.00046337457 -0.0003627582 0.00014111855 -9.933814e-05 0.00023515869 -0.0004116225 0.00034116395 4.2401614e-05 0.000121833276 0.00023307557 -8.7677516e-05 3.4949846e-06 0.0002798404 0.00045534174 0.0001557225 -0.0004904724 0.00014684838 -0.000342011 4.5824447e-05 -0.00011342065 0.000121386794 -0.00043667585 0.00041018205 -0.00035185213 -0.00012471227 -0.0002927266 0.00029009845 0.00033094749 -0.0003750791 0.00030357955 0.0004038494 0.0003267796 0.00019618354 1.9812494e-05 -0.00047752808 0.0003094475 -0.00036483846 -0.00014094688 -0.00013449667 7.0963084e-05 -0.0002354204 0.00042103638 -0.00019335817 -0.00045681142 8.783002e-05 0.00029705564 0.00027559273 -0.00018743903 -2.3000046e-05 -0.00025657355 0.00038663074 -6.612988e-05 -0.00010733094 9.90321e-05 -0.000390435 -0.0003546782 7.7101e-05 -8.6787535e-05 -0.00046837665 -4.233283e-05 -0.0003587168 -6.867782e-05 -0.00023407971 0.00015738336 -0.00042140088 0.00042973756 -7.63307e-05 -0.00010379224 -0.00021592363 -0.00046057833 -0.00021848491 0.000484807 7.821655e-05 0.000483517 0.00016227663 -0.00045649617 0.0003126762 -0.0004505576 4.2801407e-06 -2.7231099e-05 -7.443025e-05 0.00048803026 -0.00048827977 0.00029174428 0.00040978275 -0.00041883244 0.0001424646 -0.00014882443 0.00013957471 -0.00039964434 -3.0611736e-05 0.00034723707 0.00010971717 -0.00021647947 9.0000496e-05 -0.00025814146 -0.0001501563 2.7919628e-05 0.0004798128 -0.00032493856 -0.000362318 0.00043787237 5.6269717e-05 0.00033884836 -0.000109856825 -0.0001405303 -0.00047965525 -5.547301e-06 5.8628662e-05 -0.00039692534 -0.00028944638 0.00014541324 -0.00021612909 0.0002385805 0.00043917293 -1.882863e-05 -0.00034032064 -0.00038675696 1.0115001e-05 -2.314381e-06 -0.00040464787 -4.03162e-05 0.00023568733 -0.00033265084 0.00048063762 -0.00013582682 0.00020871534 0.0003563594 4.1054158e-05 -0.0004649945 -0.00030652666 -0.00026331167 -5.6033834e-05 -0.00031482463 -0.00010883553 0.00019774247 -0.00012062268 -0.00034205627 0.00023892596 -0.00012550685 -0.00019739408 -0.00022845135 0.00034358024 -0.00028913326 -0.0001975108 -0.00027129127 -0.00012645393 -0.00024388719 0.00016236436 0.00043875244 -0.00046689043 -0.00023816762 -0.00023614499 -7.069492e-05 0.00031872385 0.00049464835 -7.2753974e-05 0.00021151987 0.00047113837 0.00045531528 -0.00014975913 -0.00033846137 -0.0004176752 0.00047786863 0.000104028404 0.00030821195 9.9819976e-05 -0.00023510927 0.00042080064 -0.0004650104 -0.00044839268 0.00022099425 7.126249e-05 -9.722012e-05 0.00041947555 -1.0732191e-06 0.00031219513 -0.00014949066 0.0004758147 -0.00027624867 1.5276419e-05 -0.00031413234 0.0003631835 0.00043417508 0.000336539 2.6633736e-06 -0.00042474724 -0.00029675598 0.0003690553 -0.000273721 0.0002798029 -2.478001e-05 0.0002994759 -1.4037294e-05 -0.00034643445 -0.00032560166 0.00022368616 7.3271112e-06 0.00021784446 9.4848096e-05 0.00013315659 -0.00018193934 -4.20938e-05 -0.0004625229 0.00025631895 -0.00038605303 -0.0002106779 1.0325452e-05 -0.00032796428 -0.00042006612 0.00027004964 0.00036750638 -0.00031536113 2.781376e-05 -9.0534355e-05 -0.00048291063 -6.7368164e-05 -0.00045486167 -0.0004579193 -0.00036648414 0.00012904625 0.0004442827 0.00032612483 0.00021547228 0.00044939894 -0.00043401224 2.2707886e-06 -8.167777e-05 -0.00045108228 -0.00024459267 -6.530436e-05 0.00019146895 0.00012755602 0.0004576344 -0.00024467165 -0.00047633934 0.00014212569 -0.00035310126 -0.0003561462 -0.00028927164 4.683936e-05 0.00027545574 0.00028441515 -4.8987793e-05 0.00014109325 0.0002268085 0.00025217986 0.00015062763 0.0003759833 -0.00037519092 0.00024168126 0.00031504195 0.0004460731 -0.00036395088 -6.849698e-05 0.00015278436 -4.715725e-05 -0.00010024361 0.0003459042 0.00019719402 4.269239e-05 -0.00044422792 -0.00039846692 0.00029209311 0.00030157648 0.00022680682 0.0001934892 5.97497e-05 -0.00040607687 0.00035905428 -0.00030866064 -8.052736e-05 0.00048395802 -0.0003485542 -0.00025298182 0.00025155823 0.0002656313 0.000314485 -0.00040156682 0.0004526421 -2.2021302e-05 0.00011029114 -0.00021620878 -5.1085222e-05 -0.00026418094 0.00018753536 7.285787e-05 -0.00039754558 0.00014356869 9.188857e-05 0.000157382 0.0001299463 -0.0004783724 -0.0004936929 0.0003432509 -0.00017342999 5.0998697e-05 -0.00024091253 0.00049285183 0.00010229679 -0.0003148708 0.00017120116 -0.00019289812 -3.3200467e-05 0.00048696765 7.8128454e-05 -0.00021522223 0.00023632869 -0.00013915895 -6.6233464e-05 -0.0003237682 -0.00028934717 0.00025977884 0.00039781517 -0.00033745516 0.00046232366 -1.5628508e-05 2.9568222e-05 8.5536034e-05 0.0002104155 -0.00024377892 -0.0002334319 -0.00039889786 0.0002259951 0.00017149751 1.0554492e-05 7.235782e-06 0.00035285382 -0.0001996443 -0.00045675316 -0.00041840394 0.00028558477 0.00044559492 -0.00021207037 -0.00023342612 -0.00021559166 -1.8235442e-05 -0.00027511516 0.0004766647 -2.4357845e-05 -0.000355345 0.00038182197 1.903995e-05 -0.00016301096 0.00028653353 -2.7961123e-05 0.00030810214 -0.00029770302 2.5473962e-06 0.00037572582 -0.00021589435 0.00046847758 0.00023174724 0.00048098914 9.783989e-05 0.0004224048 -0.00046834882 -6.2733474e-05 0.00023585504 -0.00045145844 0.00045139014 0.00032721637 0.00048893166 0.00032414027 0.00020241283 4.9704668e-05 -0.00048341314 0.00028980803 -0.00016746995 8.725975e-05 7.599038e-05 -5.8994633e-06 0.0001943718 8.797255e-05 -0.0002485808 4.3988075e-05 -6.422092e-05 0.0004202349 -0.00049382274 4.85232e-05 -2.567933e-05 9.7710494e-05 0.00033810304 9.2338094e-05 0.0004220862 0.0003079889 -0.00044449046 0.00041646435 0.00031276335 0.00023680422 6.0324444e-05 -0.00033311578 -0.0004083263 -0.0003821605 -0.00031782078 -6.1924766e-05 0.0002621875 0.00045003791 0.00037321472 -0.0003119935 -0.00016650329 -0.00038149825 0.00024958717 0.00036414558 -0.00032835983 -9.067085e-05 6.827502e-05 0.00018579926 -0.0004523978 -0.00041141623 -0.000209183 0.0001401864 1.7905464e-05 -0.000106756845 -0.00019727436 0.00019261113 0.00042788876 -0.00019854365 -2.646537e-05 -0.00024209022 0.00036291077 0.00024796993 0.00040336009 9.8877914e-05 0.00032629305 -0.00024257651 -0.00040406262 -7.241235e-05 -0.00037451676 -3.9494065e-05 -0.0003760205 -0.00042374068 0.00011267013 -0.00044382215 0.0003420305 -0.00022483243 -0.00041954702 -0.0002550499 -5.364614e-05 0.00040941572 0.00049805 0.00018484218 -0.00023179516 0.00024591663 0.00048039656 2.1921398e-06 -0.00022021377 -0.0004030778 -0.00043339469 0.00013213954 -0.0001713473 -0.00045953068 -0.00022874247 0.00043712923 0.00044473828 -0.00031300783 0.0002814852 -8.849351e-05 0.00012663622 -0.0002210697 0.00014162625 -0.00017728796 -0.00026178468 0.00020341437 -0.00030979904 -0.00022117511 0.00047700864 5.0914135e-05 0.00017006371 0.00038277698 -0.00042376504 0.0002881281 -0.00015440615 0.0002925506 0.00023899748 -0.00025582453 0.0001630927 -2.643529e-05 0.0002504734 0.00014420645 -0.00010483958 4.600954e-05 0.00013752756 1.7665152e-05 0.00030518757 -0.00020581765 0.00025876524 -7.111697e-05 -0.00032699338 0.000400464 -7.276238e-05 -7.5631004e-05 0.00045895771 -0.0004831358 0.00029319138 -0.0001461574 -0.00039349362 -0.0004754209 -0.00028126585 -1.4322886e-05 -0.00048528568 0.00017110813 0.00020154587 7.567814e-05 -0.0003221143 0.00013111754 -0.0003293535 0.00047952257 0.00037647336 -0.0002436907 -0.00022523077 -2.8730808e-05 0.0001313092 -0.00011566339 0.00025088893 0.00044582257 -0.00013036373 -2.6608957e-05 -0.0003768858 -0.00015641087 0.0001745333 0.00011167467 0.00038646854 -0.0004890022 -0.0002443977 0.00024134238 0.000376879 -0.00019838134 -9.785569e-05 0.00014117702 -0.0001632041 0.0003803048 0.00028494725 0.00039971914 0.00019748486 1.5287127e-05 -7.5950324e-05 -0.00036851125 -4.0654868e-05 -0.00020844613 0.00026246248 -0.00031502525 0.00013923341 0.00017960838 -0.00049802446 -0.00020416686 0.0002044548 -0.00030423133 -0.0004381137 4.190503e-06 0.00026375407 -0.0003805129 -0.0002684572 -0.0003069901 -0.00037384673 0.00014459793 0.00039431095 -0.00035374207 -0.00039096607 -0.00022155681 8.308095e-05 0.000110423 0.0004394368 0.00023403473 -2.6428608e-05 0.00045351454 -0.00024766586 0.00015764486 0.0004879167 0.0004402175 0.000110561174 -6.6714754e-05 0.00010046757 0.00029888048 0.00028561224 0.00012303362 -2.7614824e-05 0.00038042996 0.00038898672 0.00033006165 1.9985897e-05 0.00016699746 0.00046092042 -0.00041033677 0.00014380395 -0.0004483532 0.00010821176 0.0004973884 -1.39241965e-05 0.00018746813 5.6374083e-05 0.0003498624 8.548666e-05 8.4372274e-05 0.00040485046 -4.123124e-05 -9.224262e-06 -0.00043532785 -8.103045e-05 -0.0004950207 0.0002647455 2.72023e-05 0.00046636694 -0.0002699087 0.00038736692 0.00036880208 0.00039266088 -0.00039677205 0.00014627396 0.00042347642 -0.0003020065 0.00046557435 0.00015352605 -0.00017926353 0.00035432557 7.072586e-05 0.00031023246 -0.000358371 2.2390845e-05 0.00040669343 -8.111708e-05 0.00038248365 0.00017317485 0.0004099716 7.0134333e-06 0.0004930096 0.00014294949 0.0001704589 -0.00047212583 -0.0003590331 -0.00022490828 -9.648716e-05 8.013193e-05 0.0002279042 -0.00026967662 3.8622737e-05 2.1272133e-05 0.0003545702 5.9894588e-05 -0.00048126237 -4.899706e-05 0.00034082888 -0.00015880782 -0.0004762989 -3.925513e-05 0.00047909556 -0.00030477464 0.00042326582 0.00020398259 -0.00017615147 -0.0004702942 -0.00045902428 -0.00037600202 -0.00019050656 8.212598e-05 0.00033367446 0.00021194093 -0.00019408259 0.00025881975 0.00033680664 -0.00012035647 0.00017119336 -0.00019140574 0.00012575867 0.00044420687 0.00041339648 -0.00015622601 0.0004141712 0.00030598778 -0.0004324256 0.00041389005 -1.6369038e-05 -0.00027711724 -0.00021858861 0.00016270662 -0.00036524885 0.000111888374 0.00046053156 -0.00015628817 0.00014823471 0.00026430155 -0.00021371515 0.0001443099 -9.760558e-07 -0.00023539856 -7.032193e-05 -0.0002418867 0.00040206825 3.1591237e-05 0.00030733843 -4.03535e-05 0.00042991637 -7.738948e-05 -7.538674e-05 -9.4640396e-05 -0.0003697504 0.00035920212 0.000119247685 0.0004757581 8.995748e-05 0.00026416016 0.0002974011 0.0002885378 -0.00041832463 0.00034864937 0.0003212022 -0.00028507147 0.00025629532 0.0002495265 3.836804e-05 -0.0001309861 0.00020035649 -0.0003818327 -0.00041495077 -0.00019666184 -0.00014040941 2.9974062e-05 -0.0004955411 8.2069404e-05 0.00022908828 -8.38409e-05 0.00010490337 0.00015876662 0.00040848332 -0.00047567795 0.00030814772 3.1059542e-06 -0.00018981293 -1.8954694e-05 -5.230489e-05 -0.00049164775 8.169324e-06 0.000399295 0.00026331126 0.00049304566 -0.00023967703 -0.00014803131 -0.00044698667 0.00019002186 -2.9393792e-05 4.6261954e-05 -0.00039588555 -0.00023704031 0.00032447057 -0.00040215877 -0.000121922305 0.000119939345 -0.00019848881 0.00030744073 -0.00014527739 -0.00038014533 0.00049940345 0.0002694116 -0.00012855683 -0.00028831328 0.00042858158 -0.00018982541 0.00022098633 -0.0003322697 -0.00038901035 0.00016436557 9.767611e-06 -0.00035140538 -0.0003366941 0.0002735106 0.00013163665 -0.00044337797 0.00010119507 -0.00011493179 0.0002829961 -8.698732e-05 9.52186e-05 7.159249e-05 0.00047611893 -0.00017043903 0.00020459403 -0.0003533534 -0.0002653551 0.00047517935 3.0962798e-05 -0.00023848003 -0.00028533017 0.00024139977 0.00020004057 -7.3335155e-05 -2.8691757e-05 0.00040824752 0.0003882917 -0.00040933795 5.8648377e-05 -0.00041080077 0.0003009936 -0.00036302043 7.710447e-05 -0.00031773673 0.00015070348 -0.00026732817 -0.00029832116 -0.00020706642 0.00013051179 0.00043663828 -0.00045937498 4.0685303e-05 -0.00022370087 -0.00013943043 0.00023250689 -0.00021445312 -0.00032421807 -4.1027422e-05 0.0004128374 0.0004919998 -0.00013572558 0.00019091464 -0.00042957187 -0.00025809638 1.1997588e-05 -0.00043428017 -0.00038109891 0.00032743087 -1.5528814e-05 1.6856737e-05 0.00043833663 0.000443664 -0.00042425978 -0.00047979204 -0.0003810695 0.000475048 -0.00030103984 1.4004587e-05 0.00028594318 3.4298726e-05 0.00015741179 0.00014394913 -2.3973236e-05 0.00012357577 -0.000103506965 0.0002572498 2.3327475e-05 0.00028090764 -0.00020505654 0.0004550384 -0.00031100895 -0.00032722254 0.00027750534 -0.00035855136 -0.0004628434 0.00032254326 9.925118e-05 -0.00038158122 0.00019336303 -0.0004073891 -0.00021793033 -9.136404e-05 -0.0002154002 -0.00038192185 0.0004877996 0.00031322407 0.00022537087
사랑해. 7.188512e-06 -0.00047052515 0.00016261842 -0.00015559944 0.00049792323 -4.6539717e-05 -0.00043914208 0.0003520654 -0.0004490618 0.00036840473 0.0002302344 -4.394812e-05 -0.00017363034 0.00017509836 -0.00038245955 0.00030285367 -9.53296e-05 0.00029279804 0.00038702547 0.000497889 -0.00042235147 -0.00048321663 9.811746e-06 -0.00035488905 0.00022747126 0.00015189784 -0.000115413764 3.5982277e-06 0.00018299262 0.00045103702 -0.00017821116 0.00025348464 0.00014680519 -0.00040989358 -0.00018036776 -7.7060875e-05 -0.00031965913 6.0667566e-07 -0.00015516278 0.00036578285 0.00046632026 0.00028497694 0.0002910645 -0.00038700056 0.00026299144 0.00046198664 0.00035769297 -8.798378e-05 -0.0002681164 -0.00039565633 -0.00026463662 0.00032383876 -0.000107098764 -9.448824e-05 5.314943e-05 0.00016815608 0.00033524758 -3.659921e-05 -0.0004484347 0.00011343597 0.00014978323 -0.00031497245 0.00042661015 -0.00019857999 3.9458737e-05 -4.1596268e-05 0.00014160149 5.0872943e-05 -2.9437608e-05 -0.00045538854 0.00038186397 0.00014392164 -0.00013665427 -0.00027320805 -0.00024522902 0.00013360845 -0.0004132234 -0.00023381697 -0.0004585164 0.0004672553 0.00039522356 0.00044982723 -0.0003579501 -0.000305134 -7.671993e-06 0.0001880331 -0.0001396779 0.00045669207 -0.00044769465 -0.00025424646 -0.00048337394 0.000331609 -0.000368064 0.00049573235 0.00022294262 0.00036812125 0.0003234596 0.0002411109 -0.0002948454 -0.00048560294 -0.00011684745 0.00040965964 -0.00040468568 0.00042378262 0.00030311884 0.00016964246 0.00047545024 -5.5208075e-05 -0.00018319786 -2.7481463e-05 0.0004097644 -8.4093044e-05 0.00017852409 0.0004220234 -0.00048157753 0.000115298615 0.00030427673 0.0003142233 -0.0004106297 -4.2447078e-05 -6.803932e-05 -0.00047014997 -0.00030750735 0.00029828734 -0.0003604659 0.0004014454 -0.00026066977 -5.8522164e-05 0.000471992 -0.00044504146 -0.0003287162 -6.984362e-05 -0.000100600395 0.00015963362 0.00021593853 -0.0003638583 -0.00021205767 0.00016754585 -0.00010472758 0.000450997 -0.00015323226 -0.0004963049 0.00033336482 0.00025277564 -0.00041280536 -0.00019583451 0.00015064338 0.0003782579 -7.011554e-05 -0.00019055628 0.0003238061 -1.5557633e-05 0.00047520697 -0.0003265725 -6.836557e-05 -0.00043918638 9.942358e-05 -0.000494121 0.00012771781 9.924311e-05 1.3314395e-05 -0.00021101607 -0.00037301352 0.00043908219 0.00019337094 -0.00020549922 -0.00021005329 0.000117530566 9.273306e-05 -0.000498725 0.00039364706 -0.00010959741 -0.0003431946 0.00029612728 0.00037969966 4.669043e-05 -0.00039997164 -0.00034768088 0.00021736968 -0.0003647231 -0.0003114969 -0.00017709938 -4.7588877e-05 -0.00043820177 -0.00044047978 -0.00041654203 7.8467776e-05 -0.00012814451 6.950605e-05 0.000129689 -0.0004285541 0.00029703663 0.0004862874 8.7717024e-05 0.00023316832 0.00028326816 8.3918596e-05 -1.8567762e-05 0.00016217396 0.00040470297 0.00024558362 0.00044379855 0.00020811688 0.00049531297 0.00012086052 -1.965096e-05 0.00025772763 -0.00013495365 -0.00013105373 0.000215088 -0.0003639093 -0.00024811408 -7.28431e-05 -0.00032939302 -0.00042387488 0.00031432926 0.00046849344 0.0003449781 0.00036253437 0.00017015004 -0.00026147827 -9.890889e-05 -0.00041014634 -0.00038747492 0.00043219933 0.00039945033 -8.314494e-05 0.0002085796 0.00040068713 -0.0003192925 5.7857105e-06 0.00019297314 -0.00021573722 -0.0001695484 0.00018953429 -0.0004903566 0.00048427779 -4.5684134e-05 0.00024940228 -0.000118679265 -7.194789e-05 -0.00032635801 9.1573565e-05 -7.001969e-05 0.00016050416 -0.00012934709 0.00044614676 -0.00015592869 -0.00044360993 -0.0003329135 -0.00023547366 2.943317e-05 0.00011035395 -0.0004530158 -0.00017412308 0.00030447778 -4.2951364e-05 -0.0004880182 -0.0002716675 -3.778545e-05 0.00020949508 0.0002642473 -2.4937552e-05 0.00042237758 0.00042931846 0.00015232262 0.00049436843 0.00027118705 0.00041083427 0.00020817081 -0.00025220413 8.816238e-05 -0.00032625103 -0.00027433343 -0.00019069624 0.0002517904 0.000366315 -0.00014665417 -0.00011879666 -0.00017207664 0.0004008324 -2.374307e-05 2.9249992e-05 8.180841e-05 0.00026467844 -0.00046548623 -0.00047842646 -0.00042963805 -0.00037064927 -3.960757e-05 0.00033511347 -0.00010161276 0.00040469918 0.00049006834 -0.0002305977 -1.8386977e-06 -0.00037886793 -0.00042183112 0.00022259392 -0.00049968704 0.0004507581 6.516953e-05 -0.00046583597 -0.00023322774 -0.00010692888 0.00024749764 0.00039478354 5.0892886e-05 -0.00040325645 -0.00029899203 9.932876e-05 0.00025958646 0.00013161085 0.00041801916 -0.00043112892 0.0003005843 -0.00021776742 -3.5923007e-05 -0.00012443546 0.0004257655 0.0004504705 0.00027338613 0.00021188462 -0.0004104243 -0.00010198831 -7.088427e-06 -0.00037472573 0.00016979346 -0.00037220662 6.094719e-07 -0.00024320508 -0.000226477 0.00031563203 -3.286185e-05 -0.00032477183 -0.0004190327 -0.00048010095 -0.00020324772 7.220347e-05 -0.00039653713 -0.00021437638 0.0004570085 2.2489685e-06 7.41769e-05 -2.4512461e-05 0.00041606446 -0.00019303565 -3.725922e-05 0.00016758709 0.00026802087 0.0004166191 -0.0003475377 -0.00035797575 1.2715932e-06 0.00035910908 0.00016600687 7.335267e-05 -0.0002683415 -0.000101882586 -5.342555e-06 -0.00036858517 -0.0004174508 0.00013154543 -0.00024678718 -0.000115247756 -0.00037275514 -0.00031442472 -0.00047774916 0.00020808946 -0.00013372564 0.00021242801 -0.00026026138 0.00035604672 0.00025674916 0.00044443598 0.000324811 -0.0002613379 -0.00020332505 6.299089e-05 -0.00047951157 -0.00023793633 0.00013743294 0.0004289032 -8.5314095e-05 0.00035916583 2.1032743e-05 -7.7258606e-05 0.00037594233 -0.00035163053 -0.00038457807 0.00017525667 -0.000424649 -0.00018901448 0.0001189507 -0.00023204058 -2.5232119e-05 -0.00020860229 -0.00044596786 0.00012510513 0.0002661314 -2.2074342e-05 -0.0001324165 -0.00044459617 0.00022350924 -0.00015356639 0.00040607114 -0.00037638246 3.9648912e-05 0.0003474283 0.00017166513 -0.000405949 -0.00017264731 -0.00021459955 0.00019185242 0.0003151368 -0.00018908546 -0.00043850185 -0.00044380786 0.00028527936 -5.970552e-05 0.00044193497 -0.00040358058 -0.000113526905 0.00026548238 -0.00039238107 -3.5152287e-05 0.0004848995 0.00018212787 -0.00013701181 0.00028130226 0.00037830794 -0.00042394391 -0.0004930709 0.0003798297 0.00010267636 -0.00025185224 -0.00040786582 -0.00023495303 0.00044921006 7.5749456e-05 0.00037544293 0.00014828512 -0.00010408749 8.681492e-05 -0.00018170565 0.00011585309 0.00026573305 0.0002816886 -0.0002258227 -0.00013436431 -0.00021863615 -0.0001262994 -8.4764855e-05 -0.00017169188 0.0003033437 0.00019006616 -8.8631205e-05 3.610739e-05 -0.00017413875 -4.9362505e-05 0.00027468338 -0.00015697032 -0.00015452813 0.00042954026 0.00025262122 -0.0002647726 0.00031485507 -0.0004147111 0.00028135983 3.4956047e-05 2.7763e-07 -0.00025996537 0.00013483556 -0.00027296063 0.00013090199 3.394331e-05 -3.0056655e-05 -0.00025280647 0.0001329004 0.0001334482 0.00040544147 -0.00044863496 -0.00013193503 -0.0002326889 -1.0911959e-05 0.0003387545 0.0003633997 0.0004925553 -0.00047282068 -0.00046556024 0.0002565605 -8.584538e-05 7.3248443e-06 0.0003436953 0.00034228564 -0.00028857027 -0.0001581524 -0.00040597416 -0.0001278025 -2.042877e-05 0.00018711996 0.00035232975 0.0004929255 -0.00040660924 0.00020844986 7.392941e-05 -0.0004930865 -0.0002023229 5.4754873e-05 -0.00048762275 0.00037016202 -0.00028847018 -0.00038587832 0.00034127556 -9.7786826e-05 -0.00022199513 -0.00047261943 0.00047088953 -0.00044683026 -0.000106908825 -0.00028721205 4.657094e-05 -8.903995e-05 -0.00014727045 -2.193315e-05 -0.00016469078 0.00035748357 -4.432398e-05 -9.230321e-05 -0.00020667871 0.0003684314 0.00016529717 -0.000246662 0.00021676415 0.0003586653 0.000435175 -4.8994207e-05 0.00045519354 0.00024176855 -0.00048502104 0.00035857758 -0.00040586237 -0.000113482274 3.9892548e-05 0.00040062642 -4.0718263e-05 -3.8246173e-05 0.00046460817 3.3452352e-06 0.00025469187 5.836878e-06 0.00040415645 0.0003028064 0.0002571573 -5.1041505e-05 0.0004272299 -0.00027670196 4.727935e-05 -0.0002782737 -0.00034004266 -0.00040398064 -0.00033960785 0.00037445728 0.00023242488 0.00041185884 -0.0004749898 8.09038e-05 0.0004329761 -9.43043e-05 -0.00032098446 0.00025831853 0.00011249601 0.0003194079 -0.00011965456 -0.00016988031 -0.00012216094 0.0002682907 -3.7511156e-05 0.00047091502 -0.000247244 -0.0003109557 0.00042132317 0.00032945158 0.00041523477 0.0003733087 0.00021984233 0.00017780611 0.00019002148 0.0004809632 0.0003419703 0.0002080044 -9.446441e-05 4.1235086e-05 -0.00016926638 0.00040332947 0.00013449119 0.00024663252 -0.000273836 -0.00048240233 -5.3733947e-05 0.00020697447 -0.00046478782 -0.0003566401 0.00037422203 -8.653977e-06 0.0002644742 -0.0003608702 0.00033940966 -0.00035173798 -8.378775e-05 2.5572246e-05 -7.0752765e-05 0.00015650761 -0.00012315532 7.0933647e-06 -0.00033630902 0.000267448 -0.00021820609 -0.00010142239 4.4335447e-05 0.00038032525 -0.00015525472 0.00026670512 0.00037940487 -0.00043103966 -0.00013213587 0.00043455948 -0.0002768402 -0.00030779163 0.00041473485 -0.00013542591 -0.00049724116 0.00016179585 0.00032584651 -0.0002890527 -0.00010383966 0.00025438584 -0.000403489 0.00030359498 0.0004665707 -0.00012729764 -0.00047822736 -0.00033344043 -0.00020425899 0.00010949005 -0.00015794835 0.00016191388 -0.00049421436 -3.4002493e-05 0.00026061357 0.00020978657 -0.00045962512 0.00016658397 0.00045640476 0.00026269845 0.00030457551 -0.00038563766 0.00048314768 8.5666376e-05 -0.00026641643 4.5016517e-05 0.00034020937 -0.00012409386 -5.3627147e-05 0.00024579582 -0.00010467813 -9.20092e-05 5.193357e-05 -0.00012992721 0.00039927813 -0.00014993655 -0.0003302992 -1.782366e-05 -2.9090446e-05 0.00039622711 0.00041639392 -0.000415609 0.00011055405 -6.136152e-05 0.00017199072 0.00030535442 0.00023926831 -0.00023235902 -0.00048954855 0.00020891569 -4.9420058e-05 0.00042698937 -0.0004908312 0.00013110062 0.00026801706 7.496195e-06 -0.00042347686 4.6856017e-05 -0.00014558392 -4.8248945e-05 -9.06597e-05 -0.00037073105 0.0004834916 -0.0002217036 -0.00018584752 -4.6281486e-05 0.00022255314 4.0646835e-05 0.00012100234 7.475367e-05 -0.00030286153 -0.00021088797 -3.955891e-05 -0.00030464673 0.0004040288 0.00034973538 -0.00028410825 -0.0004659291 0.00011041581 -0.00044976512 0.00017179348 -0.0003678656 -0.0002916614 -0.00015514641 -0.00013446572 0.00022255625 7.552873e-05 -0.00040853638 5.6368313e-05 0.00026122117 -0.00020248542 -3.208717e-05 0.00025231313 0.00014822642 0.000100717174 0.0002566604 -3.9184702e-05 -0.00049857184 0.00034931456 0.00019706372 0.00027892087 0.0002452728 0.00039643404 -0.00016297368 0.0004542687 -0.00035802054 0.00038127348 4.606871e-05 -0.000119746794 -0.00013999046 -0.00024632495 0.000284021 -0.00021827506 0.0004232574 0.00037691445 0.00013834648 -9.657526e-05 -0.00042255805 -0.00044600482 -0.000103533086 -0.00010863112 0.00015787229 1.4899233e-05 0.00011089989 0.00011205412 -0.00012914707 -0.00034210383 -0.0004940386 -2.6631229e-05 -0.00021399715 -0.0004569291 0.00012685724 0.0001128987 -0.00016494212 0.00022060833 -0.00034912222 -2.9152729e-05 3.580772e-05 0.00031162475 0.00040593123 0.0001594578 -0.00038300792 2.3539258e-05 -0.00025125683 -0.00013552897 -0.00046574473 -0.00013568223 0.00022010457 0.00046719538 -0.0004256975 -0.0002638494 -0.00039822696 -0.0001903328 -0.00043798247 -1.9664947e-05 0.00022816448 -0.00019417741 -7.1416165e-05 0.00036571146 -0.00020016186 -0.000306618 -0.00017026017 -1.12043745e-05 -0.00016016202 -0.00038780438 9.7025004e-05 7.186724e-06 -2.7078058e-05 0.0002699512 -0.0003810494 -0.00013975782 0.0001221068 0.00012800071 -0.00044534166 -0.00042063362 -0.00031624187 -0.00038890322 9.2445836e-05 0.0002736849 0.00037438705 -0.0001992299 -0.00047752733 -0.00047976527 -0.00045636905 -0.0002566262 0.00033982992 0.00037129637 -0.00029006822 -0.00025753392 0.00048663665 -5.185996e-05 0.00031192624 8.443703e-05 0.0003655482 -0.00020989316 -0.0002858153 -0.00042731332 8.742324e-05 0.0004721642 -1.4228552e-05 -0.0004876567 -0.0004287065 0.00025697082 -0.00012372415 6.125263e-06 1.2788768e-06 -0.00044462326 -6.933817e-05 -0.0004892444 3.552105e-05 -0.00045962477 0.00043300015 0.0004794513 -0.0001155745 0.0004312296 -1.2010664e-05 5.9781207e-05 1.1864597e-05 -0.00022900042 5.8448582e-05 -2.3231481e-05 0.00013647931 0.00034590714 1.3520291e-05 0.00040398136 -0.00013910867 0.0003029771 0.0003314925 0.00035680464 -3.6161906e-05 0.00019483434 -0.00048091798 -0.00018965777 -0.00028333426 0.000230468 0.00028299753 0.0002548745 3.2521686e-05 -0.00042186427 7.93746e-05 0.00032129645 0.00016806497 0.00038065633 -0.0001708943 0.000102893806 6.829695e-05 -2.8275463e-05 -0.00022119695 -0.0003184421 -0.00034966244 0.00034382634 -0.000113081594 -0.00037959468 -0.00022537303 0.00014410641 0.00037149395 4.0320665e-05 0.00033841806 -0.00033153695 -0.00015509999 -0.00027487686 0.0002357832 -0.00013589552 -0.00020762131 0.00041232244 -0.00046469196 -0.00033964682 0.00030261136 0.00013434187 -0.00025118882 -0.00040285278 -0.0001743892 -0.00045604375 0.000106583466 0.00042749557 0.00010782628 -0.0004373844 -0.0002918105 3.6294754e-05 -3.3468685e-05 -0.00020990054 -8.947145e-05 9.562546e-05 -0.000219154 0.00046782926 -0.00024995924 -0.00044768053 0.00016016776 0.00033076556 -6.213215e-05 8.630751e-05 7.3613646e-06 -0.00022237535 0.00030483844 -0.00013735877 -0.0003578995 6.642708e-05 -0.00048464997 0.00030680062 2.7333086e-05 -0.00031062803 0.00032697932 -0.00020893765 7.58489e-05 0.00023229103 0.0004616438 5.4750726e-05 -0.0001568161 0.00021792835 1.8423654e-05 -0.00015991408 0.00018807787 -0.00033785918 -0.0002992517 -0.00015211683 6.002534e-05 -0.00042071048 -0.00032123778 0.00046165098 -0.00034497067 0.0003732207 -0.00041142397 9.844991e-07 0.00041965966 -0.0002487411 0.0002373819 -0.00018181151 -0.00012816432 -0.00029543397 -0.00039511285 0.00017173598 -0.0001248967 3.402393e-05 0.00017477258 0.0003860089 -0.00045677504 -0.0004813136 -0.00021081079 -4.9526145e-05 0.0004698547 3.373681e-05 -0.00034207842 -0.00019451235 0.00047659955 0.00024366874 0.00020300984 0.0004655637 -0.00043065302 -0.0003509423 0.0001395875 0.00019843478 -0.00023942768 -0.00027628776 1.0833884e-06 0.00037420596 0.0002055451 -0.00039825213 0.00034114104 0.00026614845 -0.0004421288 0.00042720107 0.0004973642 0.0002831296 0.00027765197 -0.0002798503
미워해. 0.00030659128 -9.762027e-05 6.298757e-05 0.00034897868 0.00046541812 0.0004814746 0.00034854715 0.0004342171 0.00046481492 0.00027371268 -0.00045129543 -0.00044023216 0.00019381363 -3.8509093e-05 -9.582781e-05 2.0846373e-06 0.00032681358 -0.00044674295 1.4011589e-05 0.0002976615 -0.0004152893 -0.00037437768 -0.0003620667 -2.0895228e-05 8.307773e-05 -0.0002949807 0.000130021 -0.0001745884 0.0003967835 -0.00024683282 -5.6061355e-05 0.00016961078 0.00030096568 -0.0001204788 -0.00025022836 -0.00045389542 -0.00027656666 0.00041073997 -5.0506733e-05 -9.4754345e-05 -0.00019174044 -0.000353477 -0.00046808674 0.0002640964 -0.00017223503 0.00049150165 -0.00046885098 0.00033252 0.00011658944 -0.0002844106 -0.00012781392 -0.00039467437 0.00014376402 8.2286555e-05 -6.309536e-05 3.2001142e-05 -0.00010330458 -0.00045161817 0.00023847171 2.9161869e-05 0.00019393838 -9.363236e-05 -0.00034415725 -0.00020854591 -0.00046290137 0.00013257127 0.00040428966 -0.0004054158 0.0002635973 -0.0004450426 -0.00021490255 -0.00041577278 9.125001e-05 -0.00016140427 0.00049746403 -0.0002806057 -0.00030103096 -0.00013526247 0.00012982922 6.307215e-06 0.00031281734 0.00014547777 7.073456e-05 0.00016290357 -0.00046811684 -0.00027271564 -0.0003193786 -0.00034014942 0.00013905777 0.0003790165 0.00032952934 0.00046437062 0.00023008169 5.9874987e-05 8.396935e-05 0.0001430761 -0.00030119938 -0.00044304683 0.0004897078 5.809312e-05 -8.185087e-05 -1.5765865e-05 -0.00026945252 -0.0004788864 -0.00013042067 0.0004319762 -8.1094855e-05 0.00015549807 -0.00014436404 6.702395e-05 0.00031117335 0.00030350027 0.000122029516 0.00041599968 0.00035693258 0.0002110409 -0.0003028562 -0.0004532079 -0.00046240995 0.0003953065 -0.00030797135 -0.00024494823 0.0001612367 0.00043640626 -0.00049332547 -0.00033002844 0.00036264022 0.00034211006 -0.00031302843 -0.00044700885 -0.00032731736 -0.0002794558 -0.00033917438 0.00038954962 0.0003325425 -0.00011183554 -0.00018409634 1.8226354e-05 0.00014556643 -0.00017846277 -0.00023500624 -0.0003067281 8.195093e-05 0.0003510896 0.00019726602 3.999028e-05 0.00042118406 -0.00041134216 0.00012173809 -0.00025797007 0.0003811932 -0.00022284471 -0.00014746987 1.5089894e-05 9.684134e-05 3.407928e-05 0.00040540163 0.0001813792 0.00030575568 -0.000482423 0.00022603566 0.00031423534 -5.9865535e-05 -0.0001804978 0.00036334802 -0.00016099749 0.00038964802 -0.00029962385 0.00024518056 0.00020019391 -5.1047075e-05 7.792987e-05 8.7691544e-05 -0.00032976805 -0.00029393597 0.00027973115 -0.00026774796 0.00015476267 -0.00049662136 0.00020776433 0.00016366183 0.0004935082 -1.6205568e-05 0.00048058457 -0.00028595806 -0.00015949455 -0.00043341826 -0.00024537195 0.00039236102 0.00012372527 0.00016977286 0.0003755116 0.00022948072 -0.00015820935 9.5565185e-05 0.00034944297 -0.00015581588 0.000108770466 -0.0004692544 -0.000489127 0.00026341883 0.00030326392 -0.00025188047 -0.00025778142 -0.00023852703 -0.0004986811 -0.00018784995 -0.00045348683 -0.00018439417 -0.00037594856 -6.2503714e-05 0.0004903373 0.00015729864 0.00027359527 0.00019526877 0.00029339586 -0.00025905189 -0.00047176247 0.00016477362 6.4674887e-06 0.00035463998 -3.495366e-05 0.00038900215 -0.00034017226 -0.00017760943 0.00014865912 0.00020723531 0.00045244244 0.00047133924 -0.0004497406 0.00014899425 0.0002927847 0.00037659466 0.00031443135 0.00045292478 -0.00032875777 -0.0004325932 -0.00037815273 0.00020633698 -0.00038281773 0.0003208062 0.0003830036 5.8412214e-05 -0.00032837695 -0.00049492455 0.00021724147 -0.00040844647 2.2230282e-05 0.00028783712 0.00013334148 0.00012740526 0.0004975463 6.731358e-05 2.5085856e-05 0.00030262268 5.7286277e-05 -0.00049971015 -5.625492e-05 -0.00018908366 0.00046300076 -0.0001809117 -0.00033982782 -0.00041278068 2.092908e-05 -0.00042051866 -0.00025999025 -0.00032018468 -0.00027753305 0.0002786037 0.00025317023 0.00021348718 0.0002446497 -0.00035368817 0.00015238892 -0.00016074233 -0.00032999672 0.00039333574 -2.1009537e-05 0.00044813156 -8.844694e-05 9.571028e-05 -5.3442625e-05 0.00019216468 -1.8213706e-05 0.0004518277 -0.00042972818 0.0003643236 -0.00030227387 6.620205e-05 -0.00034419695 0.00011371803 -0.00023217745 0.00015266403 0.0001368564 -0.00011465097 -0.00026846235 -0.00014698664 0.00012517483 -0.00049017515 -0.00039688224 -1.7465803e-05 -0.00034985333 5.2966534e-05 -0.00011122353 0.00034346269 2.0974587e-05 -0.0003041567 0.00036509242 -0.00014578685 -0.00012399882 0.0003153261 0.00049171963 0.00016548684 -0.0004353656 0.00045207256 0.00041960366 -0.00046296965 -0.00019771283 0.0002211289 0.00012615118 9.807978e-05 0.0004663604 -0.00031177208 0.00043196935 0.00021704953 0.00027275438 0.00030827458 -0.00021864756 -0.00026718387 -0.00038222354 0.00019725108 -0.00022809976 0.00041482694 -1.1700206e-05 6.6689804e-06 -7.550152e-05 3.321931e-05 0.00018254695 0.00022129146 0.00030096204 9.5895295e-05 3.2032985e-05 -7.870574e-05 -1.8949369e-06 -0.0003592424 0.00017345433 0.00027266616 -0.00012757955 -7.690897e-05 0.00012661937 -9.268017e-05 -0.0004923672 -0.0003707646 0.00024396049 -0.0004830095 -4.8961814e-05 -0.00037906505 -4.100323e-05 0.00035534747 0.000106435626 0.00023461341 0.0003150929 -0.00047540542 -0.0002514344 0.00044636792 -5.77019e-05 4.572395e-05 0.00038397394 5.3497646e-05 0.0003187783 0.00020364726 -0.00045420515 0.00046429524 0.00024781472 -8.822368e-05 -0.00033978638 -0.00017128326 -1.0301209e-05 -9.2657174e-05 4.6022727e-05 0.00014360031 -0.0003044355 -0.00019964228 0.00031469943 0.0004500647 -0.00023449972 -0.00010773474 -0.00038166932 0.00038308362 -0.00028935977 0.00046183652 -0.00024301631 0.00016246206 -7.351067e-05 -0.00016767152 -6.5767904e-06 8.062682e-05 -0.00030708546 -1.9979925e-06 0.0004963537 -9.389567e-05 5.2148916e-05 0.00024950464 -0.00041402064 9.03637e-05 -6.3400315e-05 -0.000128795 -7.2957046e-05 0.00043266648 -8.046678e-05 -1.9458472e-05 -6.25486e-05 -0.0002636499 -0.00042957353 -0.00019310846 0.00045369726 0.00036928308 0.00048205294 0.00048636895 0.00010766802 -0.00032801536 0.00034792206 0.00026805562 0.00048226598 -0.00030544473 -0.00034311585 6.9782276e-05 -0.00011825138 0.00038726814 8.7314256e-05 -9.2326634e-05 0.00030720208 -0.00027239838 0.00048123635 -0.00015228016 -9.35806e-05 0.00031658256 -0.00043695082 0.0002899642 -0.0004430838 0.00041589155 0.00049537467 -0.00034098874 0.00047146188 -0.00020318657 0.00031422143 0.0002899069 0.00032311835 0.00044609548 0.00020682198 -0.000110396075 -0.00032041024 -0.00015367188 0.0002088232 -0.00018033193 -0.0002838924 0.00044963261 0.0004123383 0.00033991344 5.0179224e-05 0.0002865907 2.1333792e-05 0.00040222256 0.0003458343 -0.00015269802 -0.0004448066 -8.638865e-05 -0.000107349144 -0.00018426192 0.00036075796 -0.00010791288 0.00013044412 0.00040824138 -3.2523134e-05 -0.00016825067 0.00032295022 -2.6685233e-05 0.0004590962 0.00046673958 -0.0004934984 2.483343e-05 0.0003582035 -0.0003809995 0.0004984776 9.591576e-05 0.00041892932 -5.0845858e-05 -0.0002621266 -0.00010039489 0.00034428228 6.0951123e-05 -3.6496534e-05 -0.00024837334 -0.0001941842 -7.61993e-05 0.0002360583 0.00022270357 0.00017458654 -0.00041094414 -0.00047471953 8.695003e-06 -1.1240123e-05 -0.00010694003 -0.00013372232 0.00015005733 5.9441616e-05 0.00017767299 0.000434096 -3.6554466e-05 5.2985517e-05 -9.178028e-05 -0.00035596295 -0.00026131485 -1.4861889e-05 7.816121e-05 0.00025464347 -1.5791878e-05 0.00040149948 0.0003625931 0.00028336083 -0.00024251151 -0.0001811138 -0.00040135856 -7.4638247e-06 0.00024219755 2.9719913e-05 -0.00021959573 0.00017780723 8.124297e-05 -0.00048181 -0.0003683484 0.00016524011 -0.0004250212 2.9639403e-05 -0.0003276613 -0.00044157731 -8.262838e-05 -0.00013504743 0.00022675443 0.00036694016 -0.00039791132 -0.00022649877 0.00022633225 -0.0002662174 -8.752969e-05 -7.91079e-05 -0.00016903285 0.0001363014 -3.0602772e-05 -0.0003959205 8.778654e-05 0.00017592286 0.00016615597 0.0003501989 0.00041499885 0.0004891077 -0.0004094285 0.00042046842 2.29504e-06 -0.00045005773 0.00023178286 6.7219196e-05 -0.00013465706 -0.00037960187 -0.0002479173 -0.00039325978 -0.00038177293 -5.7858717e-05 -0.0003537521 0.000176411 -2.3093467e-05 0.00043783718 0.00025486143 0.00028324846 8.043359e-05 0.00017371112 0.00029626442 -0.00025085 -0.00014780647 0.0004608963 0.00028696453 -0.00018553132 0.00021641828 6.665552e-05 -0.00045320217 0.00040347292 0.00046526053 0.00010468812 -0.0003845987 0.00038574013 0.00027331538 -0.00011608315 -0.0003563027 -0.00015223313 0.000282601 -0.00024401832 -0.00020176933 -0.00033842793 -0.00035000234 -0.000238597 0.00047212487 0.00032059042 -0.00046179496 -0.00025824906 0.0003923793 0.00032863434 8.676229e-05 0.0004059423 0.00048508093 -0.00019361037 0.00049794815 -0.00040455846 -0.00030931027 4.5853907e-05 -0.0003144341 -0.00033413267 -0.00044292625 0.00014049452 0.00034070094 -1.5882215e-05 0.00040923647 0.00025519004 -0.00014499846 -0.00013984718 0.00032761757 0.0001953143 -0.0003961702 -0.00033997983 -0.00029502978 0.00013106289 -1.4075842e-05 0.0004249857 0.0001567574 3.1939337e-06 -0.00032591107 -0.00017181068 -0.00038595946 0.000120485034 0.00031396665 6.527067e-05 0.00014861034 -0.00037254463 -0.00030542954 -0.00017201164 0.00021833283 -0.00017768967 -0.000162758 -7.411894e-05 0.0004893975 -0.00014714191 0.0004691167 0.00022953106 8.334517e-05 -0.00047883944 0.0001781166 -0.00035543847 0.00012334394 0.0004078471 0.00017198433 -0.00017464251 6.9630354e-05 -0.0002643492 -0.00038772012 -4.8752056e-05 0.00020355544 -0.00020775736 -0.00045703157 -0.00019583291 0.00015167434 0.00029713204 -2.024302e-05 -0.0003257088 0.00041921154 -0.0002377128 -0.00022771931 -0.0002510029 0.0003899786 -0.00019603051 -0.00032245595 0.00047070242 -0.0004661829 -0.0004974627 0.00046859632 -0.00027152625 -0.00024302166 -0.00018509357 4.471157e-05 -0.00038970192 0.00026855664 -8.756616e-05 9.481019e-05 -0.00015276241 0.00025953646 0.00011002907 -0.0002968568 0.00040968833 -9.794504e-05 -0.0004960528 -7.2624534e-05 -0.00042663942 0.00039805958 0.00019819134 -0.0004905818 9.2417695e-06 -0.00044758743 0.00026836462 2.5343927e-05 -0.0004982907 0.00020699552 0.00031913718 0.00035227748 8.3025145e-05 -0.000444251 -0.00030567538 0.00020754762 0.00017302779 0.00037357493 5.3976823e-05 -0.0001133797 -1.4604063e-05 0.0004960992 6.116623e-05 -0.0002891017 -0.00037329324 0.0003875713 0.000109576205 8.926847e-05 -6.529214e-05 -0.00010647296 8.403614e-05 -0.00030271977 -1.17683685e-05 0.00039224734 -0.0003224814 0.000101279846 0.00046795854 0.00044959335 0.00014292214 0.0004241952 0.00045097072 -0.00034202277 0.00035095497 -7.492713e-05 0.00047234102 -0.00012329298 -9.627616e-05 0.00011557914 0.00018151091 4.5719014e-07 -0.00049520493 0.00044017108 0.000411444 -0.0003295686 -7.605041e-05 -0.00011748825 0.00045454738 0.00034365855 -0.00027245583 -3.173087e-05 0.0004933722 0.00034126156 0.00046027295 -0.00026769834 -0.0001982744 7.129586e-05 0.00013220534 0.00042255188 -0.0002219469 0.00022398612 0.000111072615 -0.00017665606 -0.00028838782 0.0003972903 0.0004955768 -0.0003523572 1.655688e-05 -0.00036135854 -0.00028065965 -0.00040922646 0.00036889862 -0.00034136637 -0.00049203646 0.00039178994 0.00029361458 -0.0002320121 -0.00019298214 -0.00046385606 -0.00036031898 -0.000296581 -0.00036417856 0.00026784893 -0.00048065986 -0.0003279847 0.0002623553 -0.00038866833 0.00010517278 -0.00027893513 0.0004697662 0.00030087723 -0.00020432117 3.250253e-05 -0.00019720598 -0.00036580436 0.00029501843 0.00031559466 0.0003966385 -0.00040537195 -1.403944e-06 0.00025640795 -0.0003503423 -0.00036589455 -0.00020260575 0.00031505353 0.00049020024 -0.00015250743 8.50877e-05 0.00025430997 2.0871805e-05 -0.00010784521 -0.00048073905 -0.00031818546 -0.00024117579 -0.00021192334 -0.00045431082 -0.0001718729 -0.00027274297 0.00049709977 -2.1222717e-05 0.0003972342 -4.88423e-05 -0.00039157676 0.00017493514 -0.0003789765 -0.00038547008 0.0004897943 0.00039707468 -7.7475815e-05 -0.00019613358 -0.00017599975 -0.00019389892 -0.00021596382 0.00031563855 8.400867e-05 0.0003276389 -0.00018695752 7.346848e-05 0.0003776172 -0.0001303019 0.00039219676 0.00010726676 2.0428106e-05 -0.00042473647 0.00014209602 0.00048460698 -0.00013351227 0.00017622612 -0.00027689288 -0.00018967583 2.8898852e-05 -0.00011397537 -0.00010068141 -0.00015778704 0.00042577277 -5.657183e-05 -0.00036384177 0.0003316967 0.0002555896 0.0003922562 0.00045303133 0.00034338378 0.00013229156 1.3344308e-05 -0.00044327017 -0.00024926983 -2.5515557e-05 -0.00045109933 -0.0004043213 -9.909018e-05 -8.28636e-05 4.9319573e-05 -0.0003759142 0.00034465795 0.00016019591 -0.0004965409 0.00015994166 -4.018302e-05 0.0004988433 0.00036236513 -0.00018563702 0.00016420239 0.00043885352 0.00027912905 0.00043288266 -0.00036201492 -0.00022522526 -0.00044395146 0.00031883863 0.00017463432 -0.00011153608 -0.00028712902 -0.0002625417 -3.990081e-05 0.0002868319 8.0359634e-05 -0.00047865222 0.00028865942 7.2669194e-05 -0.0004518992 -0.00043806282 -0.0001172931 5.086751e-05 5.057571e-05 0.00019457594 -0.00044744596 -0.00023775599 -0.00015746441 1.4952128e-05 -0.00012615885 0.00015534137 1.3651416e-05 1.777011e-05 -0.00035187058 -0.00031165616 0.00014486941 -0.00030228088 -0.000226174 -0.00016910995 0.00037523487 8.718877e-05 0.00013368193 0.00019717433 -0.00017191176 -0.00020970886 3.7832701e-06 -0.00032667146 -0.00048481612 -0.0004820104 -0.00046055714 0.00025479106 0.00017986799 0.000120225486 -0.00030235175 -4.62004e-05 -0.000338302 0.0004534033 -0.00034134457 -0.00020272378 -0.0004944864 -0.0003938155 -0.00032171307 0.00045319815 -0.00038774862 0.00034537265 0.00014407837 0.0004675712 0.00047293497 4.3608365e-05 3.7446152e-05 -0.00049911765 9.8499884e-05 0.00045594014 0.00012351705 -0.00041796532 0.00016950804 -0.00025416721 -9.7183205e-05 0.00032822668 3.341623e-05 -0.00045104383 0.00036558474 3.2424e-05 0.00016700006 0.00036271344 0.00014051913 -0.0004734145 -0.0001251695 0.00023370511 -0.0004770487 9.688195e-06 -0.0002650937 0.00038785065 -6.3658576e-05 0.00025535058 0.00014663622 0.00016848544 -0.00049265265 -0.0004939309 -0.00038676383 -0.00014902744 0.00037429115 0.00046430697 -0.000290443 0.00036624426 0.0003297241 0.00012910872 3.6772784e-05 0.00025261196 -0.0002503823 0.00012064574 5.2789936e-05
증오해. 0.00035261363 0.00043816958 -0.00014088802 -0.00040901845 -0.00025133096 -0.00012672889 -0.00032467052 -0.00038957526 -0.00012905306 -7.061257e-05 -0.00027593444 -0.00047145155 0.0002308218 -3.5637786e-05 -0.00024377689 0.00017893079 4.2860524e-05 0.00013051165 -0.0001304216 0.0004016097 -0.00010270354 0.00017679317 0.00028505622 0.00029014598 -0.00040735654 6.807447e-05 0.00046681092 0.00036818077 -0.00029366853 5.811387e-05 -3.8803224e-05 -0.00012562875 -0.00047877003 -0.00011970832 0.0004293971 0.00020904487 0.0003247483 -1.7652132e-05 -0.00049608544 -0.00045454837 -0.00034098924 0.0004260943 -0.0003845424 -0.00011923281 -0.00040173152 0.00015667298 0.00016561289 -0.00043349265 -0.00049119187 -0.00026065588 -0.00030309518 0.00018005629 -0.00020256077 -3.228892e-05 0.00034849727 -0.00035391687 -0.00018077748 -0.00011217844 -0.00012781809 -0.0003001568 0.00021152369 0.00029547716 0.0001373244 -0.00033860223 -0.00031620287 0.0004295104 -9.749154e-05 -0.000437562 -0.0001899242 -1.1110386e-05 -0.0003967247 -0.0001282928 0.00028186708 5.81447e-05 -0.0004532948 -0.00018199175 0.00045700147 0.00017678806 -0.0002905736 0.00040218502 0.00044203215 -0.00030887098 0.00024867035 0.00011647206 -9.920277e-05 -0.00019241846 0.0004545505 0.00020080013 -2.592663e-05 0.00037224163 0.0003778166 -0.0003649579 0.0002682779 -0.00015662328 -0.00019887245 0.00035205294 -0.00024289674 -5.0384664e-05 0.00013288288 0.00044213727 0.0001581033 -0.00015682417 0.00030321637 -0.00032470233 -7.243113e-05 0.00024843097 0.0004542857 0.00031554129 1.760919e-05 -0.00036130674 0.00027415666 0.0001494862 -0.0003885765 0.00038725615 0.00039962307 0.00017054638 0.00028682908 -0.00023472612 0.00022175744 0.00042797404 -0.00037887014 0.00011782538 0.0004333107 8.22771e-05 0.000395993 4.8215865e-05 -0.0002735575 -0.0002705144 0.00018650015 -0.00043101297 -0.00016000406 0.00037690316 0.0004933785 0.00022758852 0.00040633962 0.00020819063 -0.00040601174 0.00014749035 6.9446265e-05 -0.0004685924 0.000443166 -0.00049368903 0.00029905408 6.8120935e-05 0.00045300607 -0.00023469632 -0.0004709235 4.1729294e-05 -8.620949e-05 6.326512e-05 8.747451e-06 0.00039467306 -3.8292143e-05 -0.00047092186 0.00041291755 6.932561e-05 0.000114667186 -0.00032136933 -2.5708627e-05 -7.277857e-05 7.189553e-05 -0.0001831142 0.0004994871 -3.4729033e-05 0.00041260355 -0.000193713 -0.00049476465 -0.00032195103 0.00016279171 0.0004938208 -0.0003665333 0.0004908315 7.3457006e-05 0.0002134158 -0.00014149414 -0.000377205 -0.00028506166 -0.00047816723 0.0004936439 -0.00037407846 0.0002117752 -0.00032192445 -0.00016686201 -3.8537484e-05 -3.314297e-07 4.8117156e-05 -0.00013957467 0.00010401963 0.00020496259 4.979657e-05 -1.5366875e-05 -0.00033126972 -0.00038942983 -0.0003250264 0.00031738606 0.00031452 -0.0004941794 -0.0004204382 -0.0004671806 -0.00015936204 0.00043647163 0.00016741558 -6.931995e-05 -0.0004328297 -0.00031078234 -0.00018151282 -0.00033570788 -9.042996e-07 0.00034341478 8.523784e-06 -0.00035366544 0.00045742816 -0.00033818593 -9.8966175e-06 0.00033376904 0.00039966434 -0.00032406766 0.00046463928 0.00045483565 0.0004544179 -0.00048064176 -6.317257e-05 -0.00013199824 0.00047851348 -0.00034870856 -0.00037832165 -6.518668e-05 -0.00025854193 0.00031804506 -0.00015448935 0.00026679438 4.545861e-05 -0.00036282226 0.00036940482 -0.00043987602 0.0004521447 -6.4207766e-06 3.987242e-05 -0.00015209123 -0.0003116847 0.00027320173 0.00041144236 0.00022214507 0.0003171628 -0.00039812893 0.00049679814 -0.00031588675 -0.00029140367 -0.00030899874 0.00042613706 -0.00019226495 -0.0004895147 -0.00020963157 0.00032053067 0.000424975 0.00048995204 7.765125e-05 -0.00010805931 -0.00010283137 -2.0465812e-05 6.938588e-05 -8.315925e-05 0.00017839047 -0.00042599707 -0.00023465416 8.448123e-05 -0.0003571226 -0.00030093745 0.00029965883 0.0004952539 -0.0002863215 -9.384951e-05 -0.0004124401 0.00040035005 -0.00026612956 0.00019165648 -0.00018342392 7.904264e-05 -0.00014134473 0.00045511415 -0.00038064615 -0.00036447166 4.299973e-05 0.0002752478 -0.00044779386 -6.28265e-05 -0.00030328293 0.00010145352 0.00044820015 9.292123e-05 -0.0003281923 0.00040903382 -0.0002981667 -0.00043280594 0.00040319277 0.00047817302 0.00030111344 -0.0004176931 -0.00035640216 -0.00038473264 -0.00023963382 0.00038288065 -4.1345007e-05 -0.00014175897 0.00027731582 -0.00025584377 -0.00022629312 0.00021277713 -0.00028867414 0.00035589375 -0.00017930056 -2.5624879e-05 -0.00027315918 -0.0002833127 -0.00032123283 0.00040090442 0.0002406787 0.00025958417 -0.00021353297 -0.00020907415 -0.00029214178 -0.00048632515 -0.00022136148 -0.0003203674 0.00012670454 -0.00024887917 -0.00043591385 8.124144e-05 -0.0004281961 -0.000329721 0.00028737422 0.00040173595 0.00040404045 -0.0004889604 0.00012288564 4.5861903e-05 0.00042380308 0.00022469748 0.00037886656 -0.00031333472 0.00035632012 -0.00019558336 -0.00040317487 2.7532315e-05 0.00037445556 -0.00042582751 -0.00045842832 -0.00047643378 -3.0883642e-05 0.0002973203 0.00027871947 4.213291e-05 0.00020549918 -0.00012962923 6.977557e-05 0.00045963432 -0.0003653928 1.8735325e-05 -0.00024687694 -4.0933694e-05 -6.2173153e-06 -0.00013527783 0.00029089366 -0.00030780365 -0.0002206639 7.612755e-05 0.00048529782 -0.0004850444 -0.00018871986 -0.00023853447 -0.00018477465 -0.00030500884 0.00012037115 -0.00027146388 0.000473953 -0.00016376069 0.00010182412 -0.00013438164 -0.00020091141 0.00023786005 -0.0002800184 7.458048e-05 -5.498714e-05 -0.00046128468 -4.8064754e-05 -0.00010591612 0.0003528066 0.00029894282 0.00038036413 -2.0319017e-06 -2.328152e-05 0.00041780967 1.7711443e-05 -6.480793e-05 -0.00037622912 -0.00026616125 -0.00031374136 0.00022590806 -0.00023884376 -0.00026378542 -0.00036237997 -0.0003617388 -0.00014513743 4.3547796e-05 -0.00016086723 -4.098969e-05 -0.00046956708 0.00028726118 0.00033698377 0.00043142692 0.0004298001 -0.00039829736 -0.00015567931 0.00041245206 -6.750246e-05 -0.00035474097 -0.00030005883 -0.00016014317 -0.0003279938 -0.00037955138 3.208085e-05 -0.00044874326 0.00025910925 -0.00012907026 0.000331659 -0.00014489176 2.433586e-05 0.00011710464 9.789419e-06 -0.000106949396 0.000100641635 -0.00028693385 0.00043483876 0.00043571627 -0.00033581597 0.0001986057 -0.00018970168 0.00012624334 -0.00043110317 0.0004610813 0.00019731272 -0.00025280178 -0.00025686613 -0.00046713982 -0.00019151682 -4.797715e-05 0.0003435965 8.125846e-05 5.7654034e-07 -0.00037272467 8.1369595e-05 -3.653828e-05 0.00014240212 5.6540957e-05 0.0003812161 0.00021932817 -0.00044247688 0.00045010878 -0.000120460965 0.00042526668 -0.00038149473 0.00017624928 9.660142e-05 0.000418697 0.00030081332 -0.00025536766 -0.00041890747 -0.0004766557 -0.0002785339 0.00031529157 0.00048671666 0.0003381503 0.00037940126 -0.00014354911 -0.00033812085 0.00020784726 0.00031944213 0.00014776959 -8.25775e-05 -8.57691e-05 0.0004970589 0.00043989165 -0.00040851103 0.00040586852 8.412961e-05 0.00037154715 0.00037604364 0.0002479723 -0.00030378794 -0.0004819569 0.000107481406 5.7836282e-06 -3.9947176e-05 -0.0004148477 -3.5911195e-05 -0.00047672074 -9.364532e-05 -0.00037034694 -4.8548204e-06 0.00026476663 0.0003159535 -7.760087e-06 -0.0002768449 0.00045987044 -0.00042881866 -0.0003498186 0.00026376903 4.9094408e-05 0.00043675432 0.00013821907 0.00012991797 4.0400624e-05 -2.1285785e-05 -0.00029984736 0.0003818911 -9.076848e-05 -0.00012947607 0.00023177858 -0.00038974776 0.00021168381 -0.00041595777 1.738112e-05 -0.0002941955 0.0003687074 1.7858105e-05 -0.00026940336 -0.00036430423 -0.00025849396 -0.00013217599 -0.0002787735 -0.00043694075 0.00047470783 -0.00010560876 0.0004724778 -0.0004771281 0.00024151472 -0.00047291556 -0.00026942682 0.0004884165 0.0004616547 0.00038676418 -0.00022368174 -8.509989e-05 4.0024177e-05 -0.000117076204 -0.0003891371 0.00014658557 -0.00016126469 0.00025114918 -8.0965714e-05 -0.00012790087 -0.00038100718 0.00014125097 -0.000102473576 0.00019482424 0.0003387407 8.547019e-06 -6.535497e-05 -0.0003879963 -9.924966e-05 -0.00011467947 -0.00028045595 0.00019703998 -8.3227795e-05 -0.00026703897 0.00041360874 -7.271278e-05 -8.1180624e-05 0.0003188882 -0.00035557518 0.00026801982 0.0004208863 -0.0002406038 -0.00014109553 -0.00032715 0.0002244323 -0.00010427128 -0.00034857696 4.093728e-05 -0.00011759842 -0.0001444088 0.00037456126 -0.00043815636 0.00014835219 -5.180856e-05 8.849462e-05 -6.373377e-05 -7.328305e-05 -0.0002038927 -0.0002619156 0.00040220874 0.00013650603 -0.00045258657 -0.00027334152 -4.6566416e-05 -0.0002589209 0.0002371387 -0.00043712454 0.000223935 0.00035549045 0.00015955353 -1.6833406e-05 -0.0003579809 0.00027856565 0.00018519192 -5.99344e-05 -0.00018144745 -0.0003336919 0.00034807096 -0.00020173508 -0.00023290727 -0.0003820004 -0.00046951993 -0.00025834504 0.00021261438 -0.0002872016 0.0003104786 0.00026929725 2.161512e-05 -0.00038248522 -0.00046629494 0.00017847637 -0.00013559886 0.00013698035 -0.00023750764 5.3383552e-05 -8.217401e-05 -0.00013787554 6.947997e-05 -0.00049386255 0.00044182557 -0.00047338306 0.00025367227 0.0002600949 -6.3816835e-05 -0.00029104896 7.156765e-05 -0.00022379032 -0.00013744277 -6.777835e-05 0.00022367797 -0.0004926683 0.00011596916 0.00022769687 -0.00044228797 0.00047170217 -0.00011228368 6.596156e-05 0.00015750052 -0.0001481109 0.00023088703 0.00022482748 5.8205344e-05 0.00014217012 0.00043541958 0.00042417 -0.00021747392 0.0004804022 0.00014108246 -0.00012333164 0.00043735214 -0.00021567725 -0.000104678504 9.5558e-05 -0.0004369118 0.00021832241 0.00019856823 -0.00049355044 -0.0003405477 -0.0002660562 9.17754e-05 0.00046652704 0.00021019013 -0.00018492664 -0.00023439761 0.00013389943 0.00013191647 -0.00010064742 -0.0004933033 -0.00016564011 0.00015357802 -0.0004588818 -0.00018208759 0.00037636582 -0.00029757546 0.00016184575 -0.00012888899 -0.00012182467 -0.00036141687 0.00030297137 0.00024469287 4.012709e-05 -0.0002469689 5.2673244e-05 0.00019034988 -0.00026285616 -4.4926644e-05 -0.00020756305 -0.00018074916 0.00048869435 -0.000254481 0.0004068322 -0.00023473664 -4.1998115e-05 -0.0004599811 0.00036101177 0.00040841513 -0.0002034354 -0.00020597958 -0.0002119105 -0.00017731593 0.00037356236 0.00024296189 0.00018120119 -6.7844485e-05 -0.0003841067 -3.4219236e-05 0.00030919726 -2.7766035e-05 0.00035884482 -0.00033739986 -0.0002776388 -0.00033664977 0.00015193253 0.00040116042 0.0001420615 0.00027096106 -0.00046025412 0.00041286842 0.0004080365 -3.1120006e-05 -0.0003329729 -0.00041531996 -0.00028353205 -4.4446722e-05 0.00034968034 -6.116622e-05 0.00023901256 -0.00031919326 -3.521031e-05 0.00010264729 0.0004170498 -0.00017957146 -8.492364e-06 0.00014953128 0.00012309052 -0.00033972756 -0.00010018607 -0.000107941836 -3.2288805e-05 -1.7247557e-05 -0.00041109635 0.00025485604 5.1489358e-05 -1.2063807e-05 0.00016535883 -0.0002593987 0.00034305247 -0.0002328713 0.0004472169 -0.000241761 3.3401902e-05 0.00016153902 0.00020297337 -0.00027466763 9.983405e-05 9.902306e-05 -0.00028022032 -0.00031872766 -0.0001849646 -0.00047687045 0.00046996438 -0.00030393814 -1.7581966e-05 0.0003970685 -3.193619e-05 1.0228712e-05 0.00023563771 -0.00022794223 0.00020220067 0.00034171718 0.00018967074 -0.00023676794 0.00028388918 -0.0001492894 -0.0002526524 0.00010593645 -8.8180124e-05 0.00023775274 6.115915e-05 0.00017728053 -0.0004381932 0.00045170396 -3.0975825e-05 0.0002412231 -0.0002505065 0.00036318222 0.0004205099 -0.0002559985 0.000282846 0.00035458093 0.00012709045 0.00017151865 0.00013178929 -7.6425524e-05 -0.00012621406 -0.00010521611 0.0001506237 6.8811474e-05 8.95993e-06 0.0002563429 6.468129e-05 -0.00029928228 0.00026135647 7.407653e-05 0.0003644919 -0.00013516881 0.0003221582 -1.8886675e-06 -0.0004067827 0.00033674482 0.00041819364 0.000118560136 -0.00018319442 0.00018433994 0.00030151327 0.00022612058 -0.00029466272 -1.670577e-05 0.00039419034 -0.00014331489 5.5248845e-05 -0.00014666983 0.00045935513 -6.816426e-05 0.00036983445 -1.5136717e-05 -0.000189645 0.00021370269 8.4842926e-05 -0.00037076234 -0.0004166312 0.0003297053 -0.000120873 0.0002395153 0.0004404715 0.00024478263 0.000120013516 -0.00016255263 -0.0003414549 -0.00036656525 -0.00030232142 3.975831e-05 0.00018579546 -6.807449e-05 0.00029025323 -0.00042879296 -0.00034769851 -5.743189e-05 -0.00022064024 0.00019559223 0.00031732148 -0.0002047841 -0.00035221723 -0.0003498782 0.00031063752 0.00017486907 -0.00049868674 0.00029069482 -0.00024917346 9.417466e-05 -0.00045905897 -0.00047097253 0.0004861163 0.00047687234 -0.00016629588 0.0004405388 -0.0004811806 -0.000483262 0.00024875402 -0.0003793533 0.00022415802 0.00036039719 -0.00019099451 -0.0004342776 -0.00032874447 0.00035101248 -0.00039263105 0.00027584 -0.00037100646 -0.00047574862 -0.00032521182 -0.00024860416 0.00025599624 -0.00020494506 -9.562515e-05 0.0003074094 0.00022293408 -0.00011876735 5.012636e-05 -0.00045915938 -0.00040629922 0.00038123893 0.00023908353 -0.00026078822 -0.00012728717 -0.000490425 -6.0598544e-05 0.0003733899 -0.00035612556 -0.00031921908 0.00010043375 -1.3632147e-05 -0.00043741037 0.00040443 -0.00038934205 -4.317523e-06 -0.0002932678 -0.0002750831 0.0004808495 -0.00046646385 -0.00017233651 0.00018292306 0.0004821433 0.00036155613 0.00026482585 0.0003508421 -0.00023961585 0.00023575197 0.00028080321 0.0002249696 0.00028329078 -0.0001458858 -0.0003458018 5.1032093e-05 8.078787e-05 -8.706916e-05 -0.00018242402 -6.0804487e-05 -0.00045877963 0.00031024823 -0.00041065444 8.041278e-05 -0.00014118325 -0.00045982585 -0.000104988314 -0.00021811217 -0.0004989387 -0.00024188316 -0.00039084387 -0.00045032628 0.0001545582 -5.8508478e-05 -7.9973484e-05 -0.00014471471 -0.00012354666 0.0002928502 -0.0002877355 -0.00043169683 0.00029711018 0.00020491629 -0.00031461817 0.00038734573 -0.00033447528 0.00046425225 -0.0003782154 -0.0003492986 0.00049875176 -3.8674614e-05 0.000101505466 0.0004919844 -0.000103677514 -8.6278626e-05 4.496487e-05 0.00042943942 0.00035435992 -0.00011434219 7.5688746e-05 -0.00021423497 -0.0002653538 -0.0004712861 0.00048636616 -0.00026017168 -4.2624037e-05 -0.00011293947 -4.867766e-05 0.00014901311 0.00024903435 0.00019138587 5.1869956e-05 -0.0002147013 0.00018224724 0.00023199467 6.186182e-05 5.1677882e-05 0.00038122418 -0.0004722933 0.00011882391 -7.7927034e-05 0.00018667664
좋아해. -0.00017188904 -5.669921e-05 0.000116750634 -4.54925e-05 0.0004959699 -0.00013770428 -0.00046898026 -9.181999e-06 -0.00030921015 0.0004932611 -1.9860327e-06 0.00023950661 -0.00025807705 0.0001951757 -0.000111454676 0.0004267457 -0.00023924586 3.5459987e-05 0.0003733702 -0.0004979802 0.0004607035 -6.7103254e-05 0.00023540194 0.00010288088 0.00026421767 0.00024317419 0.00017753041 0.00028995922 0.00024862273 -5.5269066e-07 -0.00039764855 -0.00020704241 -7.409246e-05 0.00019820122 -0.00026861674 0.00037965385 0.00034701588 0.00040343154 0.0004619335 0.00012893922 5.5616845e-05 0.00022919936 0.0004001892 -0.00026771426 -5.3936074e-05 0.00048340813 -0.00013883175 0.00022904712 0.00038762353 0.0002679089 -0.00028093223 -0.00047610552 0.00047637257 -5.0340026e-05 8.392827e-05 0.0002798708 -0.00030717495 0.0001550161 0.00030004716 6.7120825e-05 0.00032870262 -0.00031717226 -0.0004918753 -0.00042395975 -0.00023889121 -0.00027244253 -0.0003350675 0.000205958 0.00018927845 0.00044868895 0.00044159679 3.1415897e-05 0.0001584396 0.0003706945 -0.00045087148 -6.819851e-05 -4.0689098e-05 0.0001599476 0.0002643202 0.00025242227 -0.00034633366 8.172852e-05 -0.0003244994 0.00011872656 0.00012128611 -0.00025327105 0.00014667049 -0.00026577758 0.00022994816 0.0004009405 0.00045018847 -0.00030495643 -9.495167e-05 7.052537e-05 5.9600417e-05 -0.00047853615 -0.00039090044 0.000330664 3.4010444e-07 0.00021864407 7.839201e-05 -0.00013754313 -1.0325663e-05 -0.0002230703 -0.00041970224 1.6387967e-05 -2.949938e-05 -0.00039522772 0.0004740842 5.204741e-05 -0.00017217938 0.00033325717 0.00016628981 0.00041404457 2.9268638e-05 0.00043716238 -0.000118116455 0.00015996918 0.00039108607 1.2073336e-05 6.662361e-05 -0.00042974312 0.00018310595 0.00039874227 -0.0002936402 0.00035535448 -1.3414215e-06 -0.00020189334 0.00030179133 0.0002683899 9.342865e-05 7.735664e-05 1.2498022e-05 -0.00013910428 -8.950828e-05 -0.00043876938 0.00022866741 0.00037597236 -0.00035326957 0.00017565595 0.00017232196 -7.598673e-05 -7.225869e-05 -0.00030692783 0.0003720615 -0.00043553344 -0.0004722354 0.00040484345 -0.00025198923 -0.00030947287 -0.00025076803 0.00036752623 -0.00047702802 -0.0003924934 0.00034147283 -0.000112663576 0.00031542766 -3.8254195e-05 0.0003482975 0.00037056525 4.9118764e-05 -1.47857845e-05 -0.00019418556 -4.3519045e-05 -0.0001709379 -0.0002525194 0.00047124692 0.00044981547 0.00042576264 -0.00043292245 0.00012191047 0.00018422719 -1.1862706e-05 -0.00022123383 7.8475685e-05 0.00011439084 1.3893958e-05 0.00036770143 0.00012792721 -0.00011963597 0.00014755929 6.295659e-05 0.0004586038 -8.609216e-05 0.0004500949 -2.9339556e-06 0.00024500026 0.00038763488 0.00037170819 0.00046457612 -0.00022046827 -0.00014545242 8.49719e-05 2.7910673e-05 0.0001878605 0.00040958278 -7.358249e-05 0.00021018651 0.00013562132 -0.00012180198 0.00022099803 -0.00020683321 0.00033548055 -0.0004731442 -0.0003115957 0.00041729386 0.00030289724 -0.00039875106 -0.00012004728 0.00049037865 0.000373054 -0.00033041675 -0.00048313366 0.000448233 -3.7761572e-05 -0.00023181394 -8.758503e-05 0.00037132067 0.00023108281 0.00014209772 -0.0003537334 0.00026862332 0.00036213864 2.6816308e-05 0.00016820447 0.0002952594 0.00013471655 -0.00024349168 -0.0002618348 0.00016641936 -9.400029e-07 0.0003908386 0.00032090157 -0.00044838924 0.00044645276 -0.00011221386 -8.367773e-05 0.00025726785 0.00026168866 0.00042985438 -0.00021422467 0.000470969 -0.00015384976 0.00028522447 0.0004674268 -0.0002287656 0.0003197117 0.00045351006 -0.00028683062 -1.2340976e-05 -0.0002879075 0.00046450386 -3.121303e-05 6.5968234e-05 -0.00012659615 0.0003179549 4.4441986e-05 -0.00035725042 -0.00028972328 -6.692759e-05 -0.0003608991 0.0003360888 2.546479e-07 0.0002848253 6.0282662e-05 0.00026997828 0.00010652567 -0.00045209538 -9.4987125e-05 -8.899181e-05 -0.00023766303 -7.694062e-05 0.00019144316 0.0004423983 0.00026282057 -0.00033823427 7.123596e-05 0.0002852653 -2.4059174e-05 -0.00013809439 2.7284224e-05 0.00024318966 -0.00011782885 -0.00041928675 -0.00017861671 0.0003389379 0.00036628748 0.00041143585 0.00044927717 -0.0003088018 -0.00046212412 0.0001110574 2.4693178e-05 -0.00018638183 -0.00036803994 -0.00042681053 -0.00025596234 -0.0001901722 6.883572e-05 8.142211e-05 0.00028429023 3.9081256e-06 -0.00041816622 -9.3585986e-05 0.00024421338 0.00035917963 -0.00029378317 0.0001827071 0.00021541092 7.035245e-06 7.972288e-05 -0.00024902617 0.0003246237 -0.00016568237 0.00043673447 -8.713225e-05 -5.1755032e-05 -0.00012214479 -0.00010216441 -0.00043399647 -0.00036790734 -0.000112767695 0.0004345391 -0.00046249724 -0.00012694429 -8.2800376e-05 -0.0003553919 0.00025661776 -5.5870565e-05 0.00018544639 0.00012659229 -0.00041792056 0.00010795914 -0.00032938542 -0.00010830052 -0.00011153013 -0.0004811442 -5.9942817e-05 -0.00017528883 0.00028183774 0.0004973332 0.00047829095 -0.00019950599 1.2977124e-05 -0.00046923102 0.00026862102 -0.00032512832 0.00010812191 0.00025242532 0.00034268273 0.00040062694 0.00042385331 9.371731e-06 0.0003654603 5.9805294e-05 0.00034587574 0.00047256864 -0.00017988094 7.399558e-05 0.00025322312 0.00040522934 0.00035247268 1.6971662e-06 -0.00011503021 0.00022189668 -0.0004598046 0.00014612974 0.00035161013 0.00042288887 -7.403452e-07 -0.00021689177 0.0003713887 -0.0003739702 0.00015670666 0.00045110477 -0.00014228057 0.0002554977 0.00047394467 -0.00042922387 -0.00017002867 0.00029066435 0.0002561652 -0.00040689346 -0.00023173528 0.0003466539 -0.00032680575 -0.00012415292 -0.00028370734 0.00015433272 0.0003780948 -0.00015510358 0.00022388287 -0.00046726057 0.00017142312 0.0004746748 0.00015062922 0.00041866064 0.00033566455 1.6799033e-05 0.00030840724 0.00018302085 -0.00013406019 0.00042249364 0.00029638977 -0.00039790187 -0.00032385864 -7.3553376e-05 -0.00035687766 -0.00048086556 0.0002478419 -0.00040151508 0.00025687847 -0.00037755427 0.00047810376 -0.00028253486 -0.0002355998 -5.8579004e-05 -0.00034524157 -0.00046038767 -0.00017537945 -0.00030701098 -0.00038139912 -0.00014582461 0.0004493956 0.00034732374 -0.00043390645 -0.00038675242 -0.00046079006 -0.00031365943 -1.698571e-05 0.0002624082 -0.00040616305 0.0004902344 0.0004390921 0.00037738928 0.00031831767 0.00015725577 0.00024192546 8.6879176e-05 -0.00015275083 0.00036795562 0.000109512184 8.142844e-05 0.00029736708 0.0001648485 0.00045904255 0.0002681945 -0.00014282625 0.00010273873 -0.00021019929 -0.000105781706 0.00024710165 -0.00048407738 -3.4183828e-05 7.3499985e-05 -0.0004977173 -0.00020935129 0.00014977147 0.00045830908 -0.00030229634 0.00011669288 0.00023320902 -0.00028009532 8.742661e-05 0.00039822658 9.729326e-05 0.0003756731 -0.00016353697 0.00018078815 0.00025201074 7.282213e-05 -8.187811e-05 1.5173694e-05 0.00042468146 1.3928496e-05 -0.0003585242 -0.00014602274 -0.00014738429 0.0004524725 0.00029232327 -9.222101e-06 -0.00040635938 0.00031014642 0.00015917393 0.00017932497 0.00042527268 0.0003384947 0.0004545405 -0.0001056875 -1.7000439e-06 -8.089616e-05 0.00020313304 0.00015384982 0.00030766128 0.00039109346 0.00025724445 -0.00024678285 -0.00041296045 -0.0003921068 0.0001662242 0.00048987224 -0.00020031127 0.0003149963 1.834985e-05 -0.00016464322 0.00041315076 -0.00034362695 -7.5670185e-05 0.00041562883 -2.1099984e-05 -0.00020014925 0.00036038674 0.00023503951 9.957484e-05 -0.00036994883 0.00021916693 0.00041946163 -1.0268915e-05 7.430518e-05 -2.138986e-06 -0.0001037368 -0.00026804922 6.1450635e-05 0.00043701328 -5.890345e-05 -0.0004236998 -0.0003892385 0.00020270159 -0.0002939043 0.00014956722 -0.00023287386 -0.00039521157 -0.0004357912 -0.00046484574 0.00034804945 -1.791522e-05 0.00016247712 1.8000054e-07 -9.897026e-05 -0.00044732785 8.3637584e-05 6.497011e-05 -0.00015810046 -0.00032611037 0.00018012329 0.00013491507 -0.0004699392 0.0004851438 -0.00046780906 0.0003273206 -0.00011132865 -5.2457992e-05 3.4053133e-05 -0.00030543242 0.00040733625 -0.00021100287 7.2188544e-05 0.0004641597 0.000116842355 0.00030594354 0.00043958996 -0.00029778443 -1.766511e-05 0.00021761048 0.00016748549 0.00012194411 0.000115102885 -9.8662116e-05 -0.00033275393 -0.00025768983 0.00026325264 -0.00045987192 -0.00019734798 -0.0003086547 -0.00028533503 -0.00031016962 0.00027443728 0.0002843516 -9.760573e-06 0.00013228045 4.4256198e-05 -0.00047489378 -0.0004918857 -1.9042778e-05 -0.0002119756 -0.00022116916 -0.00036319837 0.00019426054 -0.00010398281 0.0003400185 -8.5325075e-05 3.211128e-06 -0.00029098074 0.00049658236 0.00028799495 -0.0004177418 -0.0003972952 0.00046954752 -0.00033130907 9.1523434e-05 2.425022e-05 -0.00038397973 0.0003698219 3.9845807e-05 -0.00015305124 0.0001895323 5.6387813e-05 0.0003804886 -0.00042651757 0.00028304473 0.00019321355 -2.0987663e-05 -0.00039776685 0.00039331542 6.350253e-06 0.00011485659 -0.00018077403 0.00047393263 0.00023044433 -0.0001642414 -0.00011323889 4.9459526e-05 -0.0004895417 0.00045190874 5.0495626e-05 -0.0004851327 -0.0003313206 0.00011577384 6.0230697e-05 0.00018987569 0.00017609226 5.5127584e-05 0.0004831342 -7.182055e-05 -0.00045452948 0.00044040522 -0.00014389864 -0.00025275533 -0.00024186476 0.00034564652 0.00044612424 -0.00041580453 0.00017997444 -0.00016218932 0.00037569916 -5.1554107e-05 -0.00024668744 -2.2517985e-05 -0.0002976056 -0.0004862584 0.00027168958 -0.0002469715 0.0004067466 0.00024803166 -0.00022413736 7.6495046e-05 0.0004935743 -0.00010857485 0.00042372823 8.136834e-05 -0.00038899304 0.00029371772 4.913429e-05 1.3016021e-05 -0.00031906768 0.00014418582 -0.00015764608 0.00014789597 0.00041840159 -8.381401e-05 9.418877e-05 -0.0002339708 -0.00017126347 -5.1895953e-05 -0.0004844016 0.0004837186 0.00025374212 0.00045086085 1.9416599e-05 7.928973e-05 -5.0134437e-05 0.00039840062 0.0001508003 0.00029267438 -0.00034401452 -0.0002025526 -4.7035403e-05 -0.00026675078 -0.0004042099 0.00012991019 -0.00033445648 -0.00015388131 -1.3754104e-05 -0.00018794341 -6.9075235e-05 0.00012560983 0.0001088434 -1.6641026e-05 0.0002706226 -0.00036433653 -7.660939e-05 5.661919e-06 -1.9348834e-05 0.00012163288 -0.00036204138 0.0003985792 -1.2840526e-05 0.00013669628 -0.00024594253 -9.517391e-05 0.00029057372 -1.3818643e-05 4.997093e-05 -0.00012229405 -0.00048339495 -0.000115005925 0.00030014967 0.0003835851 -0.00049051136 -0.00017749808 -7.889133e-05 0.00015462845 -0.0002589547 6.1145045e-05 -4.9170114e-05 -1.8468127e-05 -0.0004971863 -5.7830977e-05 -0.0003947048 0.00047088065 -0.000392358 0.00035295004 0.00041018796 0.00049033936 0.00040821594 0.00030949927 -0.00039678885 -0.00025027702 -0.00045511473 -0.00043813422 0.00030245338 0.0004269704 0.00011747392 0.00011058823 -0.00028889065 0.00025033468 -0.00038859216 0.0004954659 -2.4790748e-05 -0.00018839225 0.00018522835 0.00025249243 -0.00018011646 -0.00023416533 0.00022241854 0.0002478945 0.00012566599 0.00032076504 -0.00017136712 -0.00034160184 -8.9173256e-05 0.00018783324 0.00044789814 -9.7820295e-05 -0.00010757904 -0.00040417115 -0.00029652464 -0.00022452293 -0.000108751 -0.00021010078 -0.0004173635 -0.00040031638 0.000101753605 -0.00046959412 -0.0003495825 0.00022551107 -0.0001595822 -0.00013708774 -3.9523413e-05 0.00039081345 -0.0004136525 -0.00035895375 -0.00017278828 -3.2347172e-05 3.2678334e-05 9.4360716e-05 -0.00031373068 -0.00016687314 0.00041506832 0.00031925735 0.00017750233 3.1665128e-05 0.00011450295 6.399203e-05 -0.00016585233 0.0002757641 -9.622951e-05 0.00020755664 0.00039980866 -0.00022300877 0.00047220624 0.00011551702 2.7411677e-05 -0.0002752918 -0.00012777271 -0.00019980919 0.00012695765 -0.00017339084 0.0004661494 -0.00034663285 -0.00042851476 -0.00015288577 -0.000111874746 2.3110166e-05 0.000340624 -0.0002460166 0.00037504893 -0.00043772376 0.0004065804 1.552327e-05 0.00038744698 0.00012218971 -0.00039492056 0.0003539798 0.00025398628 -7.956596e-05 -0.00029177984 0.00045761192 -0.00033329023 0.00040165734 0.00023223562 -0.00016998131 -0.00036279878 -0.00033771756 -3.777858e-05 -0.00041333152 -0.0003162778 0.00026526462 0.0003320275 -0.00027758544 8.671074e-05 0.00013897322 0.000101521335 -0.00042807055 0.00030698723 0.00033355303 -0.00047755337 0.00021808481 -7.319543e-05 -0.00041517094 0.0004525179 0.00012708294 0.0003668363 -0.00035879377 0.00027649556 -0.0001947842 0.00021755528 0.00014832852 -6.716686e-06 -0.00017947733 -0.0002804495 0.00028063243 -0.00037004985 -9.730387e-05 0.00023231514 -0.00032061405 0.00031031604 -6.950652e-05 -0.0004619878 -0.00020279885 -0.00047103481 0.00030922753 0.00044126742 -8.4674975e-05 -4.014656e-05 0.00015991973 -0.0004585636 0.00041688827 -0.00013387404 0.00032253214 -8.973419e-05 0.00016791084 0.00018154197 0.00045995705 0.00038716 -0.00048429676 -0.00024132562 0.00020360114 -3.9451716e-05 0.0003108293 0.00012789272 0.0004432308 -0.00022467025 0.0003705423 -3.5081869e-06 -0.0004116224 -0.0001363335 0.00038874158 -0.00026190316 0.00012432548 0.0004534921 0.00035053564 -7.91782e-05 -7.660552e-05 -0.0002887787 -0.0004349528 0.00039953194 0.00043955247 0.00048151356 -9.690947e-05 -0.00044346016 0.00047711036 6.547051e-05 -0.00025422836 -0.00012846854 -0.00034930438 -0.00048336858 -0.00037392692 6.0332404e-05 1.7012322e-05 0.00038475278 -7.155059e-07 -0.00045617952 0.00047509687 0.00030607654 0.0003534027 -6.0445145e-05 4.9698312e-05 0.0003979425 -0.00029471816 0.0003523404 0.00020754541 -0.00026373862 0.00016207763 0.00022815687 -0.00041305867 -0.00016781567 -0.0002468289 -0.00044067999 -0.00042946223 0.00014850608 -0.00035847843 -2.00767e-05 -0.00011928507 -0.00038832249 -0.00046422973 -0.00045166706 0.00038066285 3.0015883e-05 5.6392993e-05 -0.00010499711 0.00034313826 -0.00026467314 -0.00037657635 0.00017304378 0.00022193987 0.00016188786 -0.00019793447 -0.000400872 -0.00031878916 0.0003751454 0.0002542469 -0.00022732832 -0.00045529802 -0.00029328855 0.00039116564 3.707129e-05 0.00019070941 -0.0003605265 0.0004796987 -0.00037924133 0.00011944325 0.00023306889 0.00037250263 -0.00017006561 -0.00012536484 -3.8139646e-05 9.5245225e-05 0.00011602494 -0.00019319644 -0.0003652007 0.0004498899 -0.00010876582 0.00028421215 -0.0003983017 -0.00012008905 -0.00035100928 0.00017955834 -0.00038075718 7.225487e-05 -4.7986527e-05 -0.000110634304 0.00032243095 -0.000369869 -0.00013339036 8.034691e-05 0.0002915767 0.00037180196 -0.00047917562 0.0004884886
미치도록 -0.00017887464 -0.0003961361 0.00020262106 0.00020102347 -0.00017217315 -3.1059742e-05 -0.00024608147 -0.00014505422 0.00037157314 -0.0002074338 0.00026993762 -0.0004589922 -0.00037282892 -2.8612769e-05 -0.00020503825 -0.00022210125 -0.00028590733 -0.00012592824 -0.00028813304 -0.00017005477 -3.9612005e-05 -0.00040429554 0.00022204162 0.00012883653 -0.00013122142 -0.00045982038 0.00025539903 0.00020386682 -0.00029499116 0.00044884213 -0.00022789495 0.00017859401 0.0004789082 -0.00031777538 -0.00012013733 -0.0002728894 0.00015338098 -4.803616e-05 -0.0002982722 -0.00018550153 0.00015333647 0.0004470492 -0.0004700004 0.00040437886 -0.0002938513 -0.00018795425 0.00025181595 -0.00022075254 0.00038846958 -1.1271389e-05 0.0004344235 8.030464e-05 0.00018854107 0.0004571182 -2.0154073e-05 0.00049018953 0.00012510561 0.00047264295 -0.00016925517 0.0002960716 7.350516e-05 8.916319e-05 0.0002838515 0.0004121512 0.00021060089 -1.1225502e-05 -0.0002788987 -0.0003375534 6.445164e-05 0.00046778034 -0.00032734504 -7.36198e-05 -0.00044522004 0.00011993313 0.0004104609 -0.00034905595 -0.00019771831 0.00020737124 6.774308e-06 -0.000244061 -0.00019191584 -0.00025171976 -0.00016479382 4.7087422e-05 0.00033726948 0.00028720943 -0.00043259247 0.00011699177 -0.00041658262 0.00021481427 -0.00024350571 -0.0004260339 -4.9144197e-05 -0.00024879666 -0.0003969144 0.00028315242 -0.00039185488 0.00040220114 -0.0004817649 0.00013930346 0.00018682044 -0.0002944887 0.00047385713 0.00040646395 -0.00034558165 -0.0002950707 -0.00037766725 0.0002727557 -0.00036070106 -0.00041944592 0.00046378476 -0.0003099527 0.00043685074 -0.00011428939 0.00013650296 0.00034992467 -0.00036513148 -1.9070354e-05 -0.00025969424 -0.00011539977 0.0003886356 -8.575291e-05 7.2417395e-05 0.0002483609 0.0002495033 0.00022266172 5.3245112e-05 0.00032550722 -0.00014301267 0.00022627736 -0.0002641391 0.00041956065 0.00010040552 -0.00043947482 -0.00028095258 0.0004134988 -0.00018350963 0.00046937168 0.00014073237 -0.00020454275 -7.548353e-05 -0.00047254123 0.0004497591 -0.00036978064 -0.00024094511 -6.958008e-05 0.00010958219 -0.0003713823 0.00031110313 0.00021175713 -7.6320495e-05 0.000242972 0.00022242816 0.00023259885 0.00014016112 0.00019731974 9.114447e-05 -0.00016035596 -0.00041363016 0.00027333555 -0.00013312361 0.00018661663 -0.0001973132 0.0003755116 0.00011974133 8.6260385e-05 0.00031845362 0.00028003458 -0.00027573138 -0.00019625606 -0.00035137832 0.0002912102 0.0003614088 6.445202e-05 -0.00035605193 0.00018613755 -0.00040587378 0.00025942337 -2.8613029e-05 -0.000268658 7.0731636e-05 -0.00049448333 0.00016465032 0.00047848807 0.00012758773 -0.0003084144 -0.00030292253 -2.7242704e-05 -0.00023624144 0.0001845911 0.00011160873 -0.00026884399 -0.0002641656 0.00042765666 -6.388556e-05 -6.584934e-05 0.00029468987 7.281417e-05 -0.0001080477 3.757397e-05 0.0003319234 0.00010664035 0.0002725201 -0.00028533058 0.000120824814 0.00020192438 9.2040675e-05 0.0002310654 -0.00012770566 -0.00014413772 0.0002648562 4.4587734e-05 0.00037507442 -0.000109347166 0.00045810212 0.00042906933 0.00019451887 0.00011828398 -0.0002750651 -0.00046891836 -8.2386825e-05 -0.00046441745 -0.00044072806 -0.00024989873 0.00016219004 0.00034067914 -0.000347204 0.00041276298 0.00020296719 -0.00040342164 -0.0001033228 0.00029860414 -0.00036809448 -8.2411316e-05 -0.00038953742 -0.00010812832 -0.00017081923 6.869411e-05 3.333845e-05 -0.00030546758 7.961038e-05 -0.00038506393 0.0004004809 -0.00011833128 -0.00049258623 0.00044238125 -0.00022508977 0.0003853286 -0.00010013362 0.00018850033 -0.00016903707 0.0004773004 0.00022433297 0.00020533119 0.00034146436 -0.00016052238 -9.423573e-05 -0.00030137558 -0.00029376484 0.00031324552 -2.8184306e-05 0.0003571634 -0.00040817872 0.00044287194 -0.00011306002 -0.0002424886 -0.000113906164 0.00027947154 2.2211285e-05 0.00017432249 -2.1374139e-05 0.00030836262 -5.101638e-05 -3.100436e-05 0.00017866101 -0.00036942557 -0.00035778308 -0.00036705736 -4.9991148e-05 0.0003370125 -0.00033937662 -0.0002683225 0.00017186266 0.00023257911 -0.00045556354 9.0689355e-05 0.00018423496 0.0004344474 0.00036207345 -0.00020469422 0.00029811106 0.00037542646 2.5239874e-06 8.7565524e-05 -0.00048272507 -0.00035595865 -0.00013955377 0.00023431676 0.00027209 0.00025617616 -0.00035493093 0.00041295856 5.8350994e-05 -0.000297798 8.340862e-05 -0.00047152184 -0.00035107185 -0.00020679171 -6.8271e-05 0.00040759394 0.00013928961 -9.6405136e-05 0.0001812411 -0.00028868453 0.0003500203 -0.00023023377 0.0002164836 -0.000121331366 0.00029523176 -0.00047967504 -8.211487e-05 -0.00018151228 0.00031368947 -0.00023209283 -0.0004105755 -1.3050256e-05 -0.00038600748 0.0004144577 -7.052463e-05 -6.160266e-05 0.0002733353 7.953476e-05 -0.00027992955 0.00015755725 -0.00013954735 0.00044481785 -8.342688e-05 -8.000317e-06 0.00020156133 0.0004295031 -3.7435817e-05 0.0003855005 0.00011282992 0.00040726285 -0.00020836663 0.000255583 5.6011246e-05 0.000415589 0.00038974083 0.00014615638 1.2354891e-06 0.00049004273 0.00041803878 -4.093502e-05 2.3858369e-05 0.00017211393 -0.00035657902 -9.2873e-05 0.0001394238 -1.1508204e-05 -0.0004835219 -0.00029190144 0.00015677071 0.00032089278 -0.00023932045 2.7220572e-06 0.0001785044 -0.00021252084 -6.424132e-05 -0.00046655035 0.00036519874 -0.0004908851 -0.0004972601 4.560553e-05 0.00049961306 4.2319887e-05 0.0001539093 0.00020576504 0.00043231554 0.00019439927 0.0001321257 -0.00012342268 -0.0004100105 -0.00045347214 -1.3326445e-05 0.00023033698 -0.00013453914 -0.00039040542 -0.00025673193 -0.000121225174 -0.00041164013 0.0004909027 0.00015312176 -7.652535e-05 -0.0003274919 -4.7158268e-05 -0.0003744861 0.00048748884 0.00019218442 -0.00045515405 0.00047864986 0.00020366568 -0.0004770884 -0.00027052854 0.00023875281 0.00018388049 0.00018369388 -0.00014343877 7.996847e-05 -0.00016034947 0.00016916294 -0.00043005793 -6.7969304e-05 -0.0002754942 -0.0001076501 -0.00024022147 0.0003342378 -0.0002672921 -0.00042402052 0.00022635359 -0.00045145763 -0.00044933896 0.00028665765 -2.2114504e-05 -4.127109e-05 -0.00047344255 -0.0004948621 -6.039501e-05 -0.00031998556 -0.00013434817 -2.552544e-05 4.741658e-05 7.44902e-05 6.264983e-05 -0.00039999507 -0.0004329633 0.0004114005 0.00047809698 -6.8999274e-05 -0.00025524953 -1.890624e-05 -0.00014920555 -0.00049076567 -2.3875724e-05 -7.40329e-05 0.00047785963 0.00049426424 0.00030314835 0.00021708608 -0.00047971852 0.00019200209 -1.2473546e-05 0.00034019368 -1.6626664e-05 -0.00030526202 0.0003880964 -0.00020622717 2.8621744e-05 0.0002017136 -0.0002872481 0.00017455603 -9.816611e-05 -0.000374657 -3.539115e-05 -0.00028197936 -0.00016297388 -7.066918e-05 -0.00034518653 -0.0001870267 0.0002716588 0.00024434226 6.430039e-05 -0.00023809333 -1.688882e-05 -0.00021686002 0.00030418189 0.00045311352 5.840867e-05 0.000105202285 0.0001681186 2.5310093e-05 0.00043544173 0.0001496758 0.00042382997 8.067005e-05 -5.2718926e-05 -0.00013906429 0.00038175975 0.0002958106 -0.0004505322 7.128342e-05 0.0002470861 -0.00025879382 -0.00039700352 0.00024679868 0.00024954454 -0.00025033328 -6.450252e-05 0.00016600394 0.00032365235 -0.00019994662 0.00048400194 -0.00014454541 -0.00032260924 -0.00027669038 -8.1533784e-05 -1.606897e-05 0.00035773867 -0.00040542736 -0.00014863163 0.00019048006 -0.00038568172 -9.30313e-05 -0.00038801646 0.00028953262 -0.00012039178 -6.9157875e-05 8.140716e-05 0.00047885865 0.0002061164 0.00025468657 -0.0004193507 -0.00037199675 0.00036929874 -0.00024232705 -0.00036891957 0.00031801208 -0.00045848545 -0.00031946515 0.00032582023 0.0002507507 -0.00043367484 -0.0002019052 -0.00041255826 0.00025512432 0.0003168032 0.0001736102 4.8866106e-05 0.0002366101 0.00046858087 2.050311e-05 -0.00015435043 -0.0002920938 0.00031151122 -0.0003989434 -7.579569e-05 0.00024984305 -0.00014130537 0.00027735942 -1.4675045e-05 7.891461e-05 0.00018780505 0.00017683234 0.00048273176 -0.00018666478 0.00037937163 0.00035234517 3.489806e-05 5.767694e-05 -3.9167746e-05 -8.917144e-05 -0.00043313976 0.0003201415 0.00038349896 -0.0003136431 -3.587909e-05 -0.00039860755 -8.735895e-05 0.00016008205 5.6181125e-05 0.00032098574 0.00025076928 0.00041471192 -5.9563397e-05 -0.00037105905 -0.00035452086 0.00039347328 0.00034810588 -0.00045912198 9.179716e-06 0.00039955787 2.86096e-05 0.00026183686 -0.00015107999 -0.00036922985 0.00023877234 -0.0003731209 0.00049000495 -0.00048501554 -0.00032018797 -0.00025870703 0.00045754728 0.0001789233 -0.00037260825 -0.00031872196 -7.0465896e-05 -0.00015620602 -4.783577e-05 0.00048507407 0.00018413967 -0.00047010972 -0.0003632367 0.00017754635 -0.0001318628 0.00018422112 -0.00049663364 0.0002789644 0.0004698994 0.0001495642 0.00032836312 0.0002562358 -0.00025492357 8.0031605e-05 0.00024548077 9.173377e-05 0.0002872421 0.00048493934 9.6861084e-05 -0.00027410025 0.0002241707 0.00011438927 -0.00017065012 -0.00046251033 -0.00031549114 0.00011880404 -0.0001890995 0.0001483758 -0.0004055843 0.0004249338 -0.00022479675 0.0002178869 0.00010969885 -9.859386e-05 -0.00048111344 -7.705282e-05 -0.0001445885 0.00025932054 -0.00038915168 3.797626e-05 -0.00036142816 -0.00011015429 -0.0002677743 -0.0002007056 0.0003789349 -8.693416e-05 -8.609309e-05 -0.00043382437 7.5961565e-05 0.00044941276 -0.00017834204 0.00032205568 0.00014099883 0.00035315444 -0.00043180282 0.00027482738 -9.673512e-05 0.00034674298 4.8373022e-05 0.0002746094 0.00013435289 0.0004248389 0.00049322523 0.00045274914 0.00026842556 0.0001417029 -0.00012191586 -0.0004075753 -0.0004674083 3.0595096e-05 -9.864149e-05 3.739858e-06 0.0004881995 -0.00023491435 0.0004601112 0.0004892278 -0.00021097162 0.00041245946 -0.0001889508 -0.000103399565 -0.00020216088 -0.00020784262 -0.00037133516 -0.00028915558 -0.00014662175 -0.00048145384 9.106201e-05 -0.00033421553 -0.0004153678 0.00015044215 0.00022216426 0.00021388567 -0.0001536596 -9.3081275e-05 0.00015962095 0.00022678984 -0.00048344635 0.00015046023 -0.0003794181 0.00013776295 0.00047591285 6.9927347e-07 6.8077636e-05 -0.00029095917 0.00022722717 0.00038419507 0.00020261476 6.4864515e-05 -0.00021325934 6.144526e-05 3.5347337e-05 -0.00037262027 -6.8424e-05 -0.00042648157 -0.00028388225 0.00048069467 -0.00024122933 -0.00044856858 0.0002791876 -0.00047326504 -0.000108754095 0.00042350596 0.00039398877 -0.0003069571 0.00049752503 -0.00032838396 -0.00035123204 -6.713414e-05 1.554996e-05 0.00048463588 2.5915813e-05 -0.0002407245 0.00032485547 -2.673998e-05 0.00021258835 -0.00048002586 0.000426949 -0.00043878664 0.00015228972 0.00030522412 -8.6079606e-05 0.00023336413 0.0004117994 -0.0004418399 0.00026383207 -0.00031850918 0.00041341194 -0.0004466999 -0.00039466005 0.00027568857 0.00017031477 2.6807267e-05 0.00028436008 0.00040884578 -0.0002980115 -0.00012611467 0.0004334252 -4.5853307e-05 4.7750727e-05 0.0003849804 1.5406136e-05 1.9868054e-05 -0.00025134353 0.00014438726 0.00012937361 -0.000113407856 0.00048587265 6.65995e-05 0.00030714032 0.00032121254 0.000324955 -4.6938207e-05 -0.00011025497 -1.4087077e-05 -0.00040683313 0.00020297253 -0.00034964058 0.00045491807 0.0004680041 0.00046739695 3.587932e-05 -7.491225e-05 0.00015821987 -0.0003107816 0.00020771287 2.0032317e-05 0.00033102508 5.0720806e-05 -1.0696194e-05 0.000106540385 -0.00024660953 0.00030858204 0.00021859066 0.00043975568 0.00030444263 -0.0003392454 2.7415255e-05 -0.00012406665 -6.2248723e-06 0.0002943925 9.916619e-05 -0.00018811261 0.0001798718 -0.0002691764 -0.00028487292 -0.0004935664 -0.00013608891 -0.00022065428 0.00035125364 -0.00043955244 -0.000288601 0.00013326782 0.00026453997 6.0922957e-05 -0.00011188219 -0.000102119106 -0.00041543355 -0.00049560535 -5.5142496e-05 0.00047374374 0.00023550863 -0.00037629248 -0.00023774603 -0.00016591403 3.142485e-05 0.00025059545 -0.00044086328 -0.00022797001 0.00049505767 -0.000106109685 6.838749e-05 0.00026884556 -0.0004893023 -7.306803e-05 0.00043726817 0.00023303737 -0.00024087752 0.00011817438 -0.0004950749 0.00035939278 -4.891287e-06 -0.0003704675 0.00037387855 0.00026022847 -0.00040298488 -0.00019030794 2.552769e-05 4.8434882e-05 0.00010195728 0.00027092494 -0.00024613942 0.00037528103 -4.036469e-05 -0.00037006827 -9.404272e-06 8.036044e-05 0.00043239753 -0.00031750603 -0.00033811934 7.262103e-05 -0.00036216996 9.592094e-05 -0.00033348586 1.6081247e-05 3.594288e-05 -0.00044720294 0.00023054706 -0.00035432546 0.00022605852 -0.00042390364 -0.0003834968 -0.0003930565 0.00014388646 0.00017007075 -1.7345303e-05 0.00046956458 0.0003205949 0.00020654633 -0.00014053627 0.0003930083 -0.00031053653 0.00014993573 -0.00033705053 -9.674576e-05 -0.00015800896 0.00015327711 -0.00018152835 -0.00044801546 -0.00049841503 0.00033635355 -0.0003924071 -0.00013764975 0.00042772383 0.00018082027 -0.000492402 0.0004523352 -0.00021250124 -0.0004212227 0.0004726391 0.00035698962 0.00043014693 0.0004055359 -0.0001401023 -9.461456e-05 9.381174e-05 0.0003485718 -0.00045397834 -0.0003861663 4.785815e-05 -0.00033671278 -0.00014475685 0.00044822672 1.6466734e-05 -0.00021698565 0.00025153183 0.00044955817 -9.790403e-05 -0.0003981384 0.00014319546 -0.00034452588 -0.00026110437 0.0003894681 -2.0992917e-05 -0.00012987189 0.00028127758 -0.00032020008 -0.0004252083 -0.00046881888 -0.00025112554 0.00014752294 -9.1905495e-06 -0.00026444197 0.00019926023 0.00015868834 0.00013839926 7.4933625e-05 0.0004599549 0.00047887678 4.118181e-05 5.9397116e-05 -0.00043246296 -0.00024394608 -0.00010616343 -8.282332e-05 0.00027253866 -3.6149588e-05 0.00018408985 0.00047605726 0.00025174825 -0.00036806258 0.00022007817 -0.00037358073 0.00031412445 0.00013157509 0.00047691163 -0.0001414644 -6.2251835e-05 -0.00032202588 0.00012305648 0.00019997574 -0.00025163667 2.1888905e-05 -0.00037482957 0.00015672276 -0.00039950004 6.663364e-05 3.0180408e-05 -0.00016166417 0.00042900606 -0.00044284886 -0.000110577595 9.589233e-05 4.2843003e-06 0.0002375318 -0.00032745398 0.00010307692 -0.00018204437 3.3919718e-05 0.000351608 -6.7535395e-05 0.00020622362 -5.067701e-05 -0.0003876498 -4.3495318e-05 0.00014378621 2.2088525e-06 -0.000284806 0.00036638486 0.00019170657 -0.0001443721 0.00023231255 0.000114929055 0.0002966415 -0.0004515223 -0.0003184744 4.982711e-05 0.0003358628 -0.0003783399 0.00031952377 0.00030706712 0.0002875339
