7 1000
나는 -4.934816e-05 -7.11224e-05 3.0519474e-05 0.00032316925 0.00018952774 1.9760533e-05 -0.00043794376 -0.00020510447 2.7071193e-05 -0.00013382964 0.00018264973 -0.00024009675 -5.5844863e-05 0.0004346411 -0.0004880675 0.00023060654 0.0004638882 0.00039662424 -0.00027502645 0.00017326267 0.00020340006 1.2657687e-05 -0.00018813489 0.0003785648 0.00017652848 0.00018523034 0.00044373586 1.8858445e-05 -0.0002501145 -0.00012062871 -0.00036519434 -0.0003818191 -4.2583903e-05 0.0002875235 0.00034227053 0.00029051033 -8.329085e-05 0.0004279273 0.00031599659 -0.00015061589 -0.00039963223 5.6021705e-05 1.1955417e-06 0.0002596083 0.00016890657 -0.00020974524 -4.2887397e-05 -0.000106415624 -7.836556e-05 0.00019990998 0.00049293967 -0.0002800427 0.00018243311 0.00021009249 -0.00033938087 -2.0775306e-05 -0.00010977629 -0.0004035587 0.00023384653 0.00020666914 0.00032338058 -0.00037901598 0.00022567196 -4.8905e-05 -0.00032273427 -0.00033832455 0.00012560304 8.507193e-05 -0.00028921588 -0.00016285798 -8.0656784e-05 0.00047303297 0.00034521864 -0.00037847878 0.0001234022 0.00010663121 0.00045917902 -0.0003892995 0.00032890838 0.00033363342 0.00019565993 -0.00036310576 -5.0885415e-06 0.00035715557 -0.00011890623 5.0984832e-05 0.0003682845 -0.00037155265 -1.6396758e-05 -0.00025120535 0.00044817585 -0.00047364432 -0.00036590578 3.244517e-05 0.00043305432 -0.0004847312 -7.5316115e-05 3.0753126e-05 0.0003453588 -0.00035124688 -5.618194e-06 0.00010174358 0.00017996396 -0.00010500694 -0.00014954519 2.3822304e-05 -0.00047124916 -0.0001302154 1.7157976e-07 -0.00029035853 -0.00046792795 -0.00032395052 0.00042592429 8.2268525e-06 5.9689944e-05 -0.00040922948 1.7197623e-05 -0.0003864476 8.335986e-05 -0.00012333613 0.00020727626 -0.00045587277 0.0004603817 0.00047375183 -0.00033833063 -0.00022308355 -0.00012776746 -6.968533e-05 -0.00030371762 -8.1866085e-05 -0.00015981263 -0.00039571503 -1.4109777e-06 -0.00027293732 0.00016424122 -0.0004677201 -9.668582e-05 0.00013024455 -0.00027569698 0.00044243434 0.0003245046 -0.00013401105 -0.00022129629 0.00046607354 0.0002921324 -0.00040370523 0.00012055534 -0.00027904674 -0.00024294197 0.0004598511 0.00013809412 -0.00019290939 -0.00046817094 -0.00029403743 0.00031993378 -0.00037294868 -0.0002730858 0.00010779105 5.2371368e-05 -5.1474763e-05 0.00033729026 0.0001434691 0.0004812198 -0.0004362627 -4.071603e-06 -0.00018160611 -4.4686105e-05 0.0003475244 -0.0003281065 -9.65158e-05 -0.00014426722 -0.0004507707 0.00031966905 0.0004620552 0.000360513 -4.9334963e-06 6.032889e-05 -0.00018904312 0.00025532977 0.0004194053 -0.00020114143 -0.00012802743 0.00044878546 0.00044731653 -0.00015627115 -0.00040179363 -0.00013037426 5.686943e-05 -0.00016146859 -0.00018750117 5.6581397e-05 0.00021037267 -0.00019130038 -0.00044777026 -0.00042452276 0.00010867505 0.00045832043 -0.00031749785 -0.00036143317 -0.00048059857 0.00046782556 0.0003967292 -0.00041242 0.00034297458 -0.0002919202 -0.00048521985 1.707171e-05 -0.00015010215 -0.00038949508 -0.00031900537 0.00025648024 -0.00029391 0.0004823146 -0.0003815036 -0.00022784351 -0.00034958267 0.00010029135 -0.00041308248 -0.00017780504 -0.00018422956 0.00023090946 4.70293e-05 -0.00047138333 0.00031153086 0.00013352466 -4.932713e-05 -0.0003637008 -0.0003253577 -3.4694396e-05 -0.0001345873 -0.00017343191 0.00042226232 0.00021456108 -0.0002186417 0.0003043035 1.2053319e-05 -0.00015022226 0.0004501072 0.00037120027 -0.00023835491 -0.00015978576 6.735685e-05 3.067334e-05 0.00010288024 0.00046336136 0.00047981544 8.158655e-05 0.00036081907 -8.757982e-05 -0.00042533388 0.0003745681 0.0002452258 0.00045353133 5.2614818e-05 -0.00023596162 0.00037279655 5.7027053e-05 3.0561037e-05 -0.00033185384 -0.00042122338 5.5887467e-05 4.9276703e-05 -4.5521358e-07 -8.0618214e-05 -0.00033586612 -0.00034725125 0.00032316864 -0.00046661208 2.9856388e-05 -0.0003357456 -1.5170916e-05 -7.96612e-06 9.369356e-05 0.00021018852 0.0002092562 0.00012781256 -1.2433356e-05 -0.00023555556 0.00023926306 -0.0004628193 0.0003653661 0.00031962356 -9.180033e-05 -4.782801e-05 0.00020264639 -8.4899395e-05 0.00011550593 -0.00010234782 -7.4061754e-05 -0.00046045735 -0.0002643515 -9.43421e-05 1.7137421e-05 -0.0004266518 -5.5561748e-05 0.00048082086 -5.0428152e-05 -5.7360507e-05 -0.00046508934 -0.00029127262 0.000347942 -3.9822817e-06 0.00040161255 -1.9599186e-06 8.712192e-05 -0.00037385887 0.00011276655 -0.00016434873 5.479351e-06 0.0004951689 -0.00014338024 0.00034340256 -1.1468478e-06 -0.0004592369 -7.5594835e-05 3.6851783e-05 -0.00020039384 0.00030587442 -0.00013696018 0.00029508665 8.538216e-05 5.1477222e-05 0.00039356758 0.00044406313 -0.00038558786 -0.00022992116 0.00012471045 0.00043004972 0.00028648617 -5.233824e-05 8.2657e-05 0.00016594905 0.00034727983 -0.00041806267 0.00013833628 1.1065985e-05 -0.00020851752 -0.0003309202 -0.0003350936 -0.00019798389 -0.00043707254 0.00039530708 -0.00040101222 -7.754002e-05 0.00030493285 8.539627e-05 0.00046795813 0.0003171626 0.0004083839 0.00036271187 -2.7341128e-05 -0.0003207396 -0.00037277813 0.00028528032 0.000102803526 0.00023936396 0.00021113845 -7.346729e-05 -0.0004986313 0.00033593416 0.00044220875 -0.00021224085 7.842538e-05 -4.5361707e-05 0.0002636112 0.00025698432 0.00015025139 -0.00017303845 -0.00019709294 -0.00025852936 -0.00013172145 -0.00043854126 -0.00027268947 0.0004015311 -0.00036015038 0.00027363765 -0.00028683734 0.00042537585 -0.0004187073 -0.00036957496 4.7585504e-06 -0.0002328936 0.0003414447 5.898639e-05 -0.00021115012 9.06604e-05 -0.000103347986 8.114728e-06 -6.8717372e-06 0.0004607597 0.00037849092 7.162128e-05 0.00027701323 -0.00021608507 -0.00025802333 4.597982e-05 9.963573e-05 -0.000244185 -0.00048662283 -0.0002775743 -0.00035033707 -0.00017085188 -2.4693552e-05 -0.00035009327 0.00031028845 -0.000369695 0.00039665305 0.00013397408 -0.00035362013 -3.7692764e-05 2.9241749e-08 -2.5266568e-06 0.0003646041 -9.894813e-05 -0.00017638344 -7.279578e-05 0.00032214148 7.046497e-06 -0.00028361462 0.00011089241 -0.00021417082 0.0002645193 -0.00034380486 -0.0001349892 0.0003358108 0.00037558182 -0.00026358734 -0.00047765547 -0.00024110527 -0.00045415666 0.00045003326 0.00036827082 -6.2495645e-05 0.00016320021 -0.00013904524 0.00037298034 -0.00040433955 0.0001536429 -6.17721e-05 -0.0001291864 -5.698761e-05 -6.008257e-05 -6.78859e-05 0.00024193298 -7.647907e-05 -0.00024831577 0.0004710669 0.00029404517 2.063767e-05 -5.9086968e-05 -0.0003009212 0.00032136217 -0.00048446778 -0.00015038492 0.00010432539 -0.00025484478 -0.00021463218 -5.6634417e-05 -0.0004610355 5.7691825e-05 -0.0001868877 -0.00045865378 -0.00035840442 1.4010033e-05 0.00012060838 9.356383e-05 -0.00018313211 0.00011232786 0.00032123792 -0.0003842503 -0.0003854884 -0.00010133425 7.996697e-05 -0.00020113934 -0.00019072108 0.00018701942 -9.585436e-06 0.00036504463 -1.7699721e-06 0.00015501404 -0.00013480145 2.7355022e-06 0.00023993646 0.00034596323 -0.00025243207 -0.0002324616 0.00038330173 -0.00024190047 6.147789e-05 3.5635232e-05 -0.00036724837 0.00025502278 0.00031244478 -0.00048651628 0.00014653061 0.00034250773 0.00011015039 -0.00015879198 0.00048013503 0.00036375716 -8.1085054e-05 -0.00039949355 0.00039489346 0.00013525796 0.0002754859 6.2997988e-06 -0.00011145639 0.00011065428 -0.00024788518 3.2876498e-05 0.00031641245 -0.000437032 0.00015109546 0.00012312483 -0.00039647467 0.0001773193 -0.00027403003 9.3294606e-05 8.699262e-05 -1.1211807e-05 0.0004921449 0.00030618793 0.0004072575 7.331761e-05 -0.0003284732 -0.00024435774 -0.00039908203 0.00049508276 -0.00018904617 -0.0001951055 -0.00013221429 0.00018031574 -3.3193533e-05 -0.00045406734 -0.00044568523 0.00022793868 0.00049143826 4.8013146e-05 0.00041233702 -0.00011311462 -0.0001572102 -9.534311e-06 -0.0002634316 0.000100729914 0.00040766082 0.0004863461 0.0002855411 0.00015607002 0.00026559216 0.00023993396 -0.0004342679 -0.00028709657 0.00018884505 0.00021264449 0.0003460383 -0.0004552013 -0.00016174724 -6.6785426e-05 0.00028943148 0.00047579844 -6.243015e-05 0.0004138755 -0.00023883871 5.026916e-05 -0.00027302833 -0.00046190314 -0.0003011292 -0.0003339879 -4.296953e-05 -0.00038737158 -7.113378e-05 0.0004313591 0.00047098874 -0.00048761768 -0.00031321708 -0.00026401886 -0.00026490225 -6.132394e-05 0.00026166398 0.00030029606 0.0004303534 0.00029674591 0.00041949606 -0.00013393139 6.869288e-05 -0.00044371063 -0.00043507075 -0.0001597508 1.972553e-05 0.00048246197 -0.0003763987 -8.424014e-05 0.000257509 0.00043620315 -0.00044092062 0.00031163436 -9.934616e-05 -0.00033894242 0.00016079859 -2.5166695e-05 0.0004852178 -0.00031363717 -0.00035754047 -0.00015272097 0.00049194635 0.00043613726 0.00020034319 0.00028592668 -0.00019081892 -0.00028843546 0.00042550915 0.00029853798 0.00032194154 -2.028765e-05 -0.0003654229 0.00025488652 0.00035373544 -0.0004813413 0.00042966552 6.1203515e-05 -0.000102734804 -0.00013406154 0.000100651065 0.00013435095 -1.33260755e-05 -0.00022117999 0.00021264295 -0.00042424904 8.800717e-05 -0.00038455945 0.00043107124 0.00010852098 -3.412744e-07 -0.00018927919 -0.0001150729 0.00022250367 6.502534e-05 -0.0002041541 -0.00024279901 -0.00014681897 1.7936705e-05 -0.00010984503 -0.00036134457 -5.04003e-06 -0.00041400382 -0.00036659132 1.0780985e-05 -1.9593414e-05 -0.00020125331 9.8590135e-05 2.3998517e-05 0.00045327758 0.00037584195 0.00035815578 -0.00047859096 0.00010276067 0.00032682467 4.1647672e-06 0.00021757573 0.00034929172 -0.00031650337 0.00015184315 0.00043437176 0.000108352135 0.00041315777 -0.0002502027 -0.00013573068 -0.00016661276 -0.00033001398 0.00043363502 0.00038873928 -0.00039866584 -0.0002181643 -3.1330273e-05 -1.43184225e-05 0.0004529744 0.00018012193 0.00034951352 0.00031127562 -1.4224523e-05 0.00036830766 -0.00047966922 9.1008e-05 -0.000417137 0.0003135669 -0.00035906723 -1.8624529e-05 0.0003422213 0.00028122193 -0.00016352127 0.00031221585 0.00026872038 -0.0003609412 0.00045313555 -0.000334972 0.00032888772 0.00030773142 -0.0004281966 -3.2520504e-05 -0.00040760587 0.0004899237 -0.0001071483 -4.3959542e-05 -0.00013987429 -0.00046460683 -0.0003785212 0.00048420602 -0.00023837812 0.00018310997 -0.00022333657 0.00046125732 -0.00030543358 0.00013789484 -0.0002528643 0.0001277882 0.000477557 0.0003542657 0.00019299478 -0.00010293299 0.0003629405 -0.0003483622 7.930438e-05 -0.00049470033 -0.0003726026 8.6260334e-05 0.00029128476 0.00033576455 0.00016686525 0.00023333347 0.00038990704 -1.0917954e-05 0.00029090475 -0.00017870509 -0.00044372617 -6.6688335e-05 -0.0004637242 0.000119175296 0.0001340037 0.00021716609 -0.00024450576 -8.534484e-05 -0.00048151475 -0.00021501239 0.00020846642 -0.0003577283 -0.00035909456 -0.00045030072 -0.0001439773 -0.00038363933 0.00036679718 5.7281057e-05 -0.00048574354 -0.00028836154 0.00017424575 0.00037801635 0.0003309357 -0.00024748794 -0.00033887743 -0.00046272122 0.0004436376 -4.4702596e-05 -0.00014172897 0.00033133605 -0.00032025654 -0.000251721 4.211036e-05 -0.0004378653 -0.000112681235 0.0003817241 -9.922772e-05 -3.5972513e-05 0.00031002928 0.00038927974 -6.3865045e-05 4.6404348e-05 -0.00025178777 -0.00044407096 -0.0001562116 0.0002684249 -0.00013379479 -4.918807e-05 0.00037334362 -0.00023896329 -0.0004703961 -0.00034517795 0.00023213484 -0.00010227566 0.00032944418 -0.0001013485 8.491882e-06 -0.00047104462 5.240522e-06 -0.00017519717 -0.00040999663 -0.000484625 -0.00035011253 -0.00031280657 -0.00020206443 -0.00041013912 0.0003175178 -0.00026469296 0.00011466477 4.4349625e-05 0.0004510887 -5.117036e-05 -3.889908e-05 0.00044923645 0.000496686 0.0004198692 -0.0002063664 0.00033076742 8.062888e-06 -0.00023694853 -0.00023312822 0.00011657424 0.00023388432 5.6675322e-05 -0.00024860958 -0.00019672042 0.00016846157 4.6719022e-05 -0.00023502627 1.8910412e-05 -0.00013192977 0.00033281217 -0.00013220451 -0.00027227454 0.00040639951 0.00017222967 0.0002852244 0.00019069819 -0.00032240557 0.0002302258 0.0003476351 0.00017287697 0.00012503643 0.00029291934 0.00035942814 0.00027641837 0.00032140987 -9.022661e-05 -0.00041805053 -0.0003863055 -0.00034190388 1.7634424e-05 -6.482517e-06 0.00041907965 0.0004404899 0.0004744504 0.00037056927 -0.00028627962 -0.00020253149 -0.00036268056 0.0004862131 0.00014527941 -0.00047088173 -0.00013370346 0.00022392429 -0.0003147876 6.44396e-05 0.00010588644 0.00046397522 2.2962053e-05 -0.0002617468 -8.859991e-05 0.0003206761 -0.00037594186 -0.00013099752 0.00025230847 -0.0003072353 -0.00046144825 -0.0003919519 -0.00023866983 0.0003893051 9.121843e-05 -1.3018274e-05 -0.00014361135 0.00038200157 -0.00049055554 -0.00014917337 1.2812048e-05 -0.0003705463 7.284389e-06 0.00031005815 0.00015217053 -0.000496003 -0.0002797901 0.00049525703 -3.5641497e-05 0.00025604106 0.000359145 -0.0004941988 5.824587e-05 -0.00023024832 -0.0004896793 0.00047084823 0.00039267843 0.00016421957 -0.00018364273 6.990824e-05 0.00040172934 -0.00029160103 0.00031780265 -0.00016295305 0.00037086572 0.00029046962 0.0004161266 0.00034293483 0.00025246848 0.00047691612 0.0004885716 -0.0003968611 0.00020644868 -0.00031118505 -0.0002854734 0.00035312466 4.424964e-06 -0.00030468425 2.0904703e-05 -0.00015706083 0.00040985542 0.00027508603 0.00037283538 -0.00031113878 -0.00029114587 0.00016376135 -0.00031972036 0.0002175875 -0.00026919527 -0.00029307773 -0.00013867981 0.00024917853 -0.00041662724 0.00025012196 0.000110547844 -0.0003538195 0.00031074925 -0.0004679468 0.00026921456 9.082783e-05 -0.0004718104 8.787105e-05 -0.00024666378 -5.1133982e-05 -9.349735e-05 0.00037263767 0.00015598982 -7.841887e-05 -7.334411e-05 -0.00027861402 0.00023615651 0.00030916944 -0.00013748948 -0.000117888136 -0.00048780837 -0.00047107128 0.00022222252 -0.0004106752 -0.00040534924 0.00026474375 0.00031048057 8.265513e-05 -0.0002843837 0.00016022225 9.689314e-05 -0.00019033646 0.00030872555 -0.0003478075 0.00035075334 -0.00038853523 -4.5528323e-05 0.0003211888 -0.0003894108 -0.0002035017 -4.098709e-05 -0.00047894093 0.00027240973 -0.00013716721 0.00016282323 -0.0002447819 -0.00038409448 -0.00038001267 -0.0003658118 5.3896834e-05 -0.0003054352 0.00019852903 0.00015491758 -0.00027316512 -0.0003229515 0.0003960091 2.4367893e-05 0.00021931267 -0.0002569611 -6.860886e-05 0.00014225575 0.000118558884 3.984464e-05 0.0004937655 -0.00035424926 0.000407839
너를 0.00041296746 -0.000273303 0.00036822024 -0.0003743213 4.4512817e-05 0.00025548396 -1.6495773e-05 -1.6507962e-05 0.00046848675 3.8240938e-05 0.00018186064 -0.0002493506 3.0529376e-05 -0.00019687455 0.00021595675 2.2161354e-05 -0.0002898219 -0.00032494604 0.0003829449 -0.00028755132 -0.0004765997 0.0003903414 -0.00042822445 0.00019623755 -0.00012154005 0.00027712897 0.00013995447 -0.00025548993 0.00018959692 -1.6767499e-05 -0.00014790236 -0.00013315905 -0.00012800729 -0.00032304597 -0.00038655844 0.0003984259 0.00034686291 -4.368794e-05 0.00039582737 -8.405284e-06 0.00019184078 -0.0002425781 -0.00021615981 0.00017972366 0.00046188108 -0.00036368403 2.7437749e-05 -0.00024841627 0.00036606935 -0.00015614557 -0.00021214112 0.00027733098 0.00045630842 -0.00036438732 8.7785105e-05 0.00037754833 -0.00010177806 0.00038274514 -0.00045473443 -0.00015319852 -0.0001263728 0.0004852593 -0.00021755499 -0.00044248978 0.00035033803 -5.4039832e-05 0.00043658714 -0.00049415114 -0.00018078007 -0.00019558254 0.00018429277 0.00031549693 -0.00028144894 0.00022192016 0.00016851613 -3.8747603e-05 0.000437653 -0.00018834784 0.00024679003 -7.5609976e-05 -0.00022985492 -2.5328807e-06 -0.00018788017 -0.00039824157 -0.0003006064 0.0002997737 0.00010373654 0.00043509004 -0.00014204276 2.7838e-05 -0.0004183874 -8.553655e-05 0.00022569518 -0.00023560338 -9.877109e-05 -0.00034755378 -0.00023714086 -0.00014445289 -0.00039048455 -9.5639785e-05 0.00045457628 1.996257e-05 -0.00018564971 -0.00018247346 -0.00043126335 -0.0002643349 -0.00044641105 -7.120628e-05 0.00028874856 -0.00033050758 0.00018306708 0.00042148735 -0.00026802457 -0.00012915394 -0.00045019443 -1.1817732e-05 -0.00035112357 0.00032186956 0.0002929644 0.00027026498 9.628251e-05 -0.00022092873 -0.000105298794 -1.8739142e-05 -0.00045952888 6.760155e-05 8.26208e-05 0.00045686352 0.00038236324 -0.00042835993 0.00026226955 -2.7966913e-05 -0.00017251876 -0.00049742626 -0.0001708636 -0.00022006874 0.0004942659 -7.694031e-05 -0.0002249577 0.00035232972 5.918611e-05 -0.00032019865 -6.520042e-05 0.00043218504 -6.5619e-05 5.9847906e-05 -0.00027795832 -0.00019072651 -0.00029611448 0.00035117808 5.164279e-05 -6.1023267e-05 0.0004517338 0.00026619525 0.000347153 0.00024456688 0.00023277562 -4.1844534e-05 -1.9812262e-05 0.00019747097 -0.00010614899 -0.00015539074 0.0001518985 0.00023440228 -0.00033680847 -0.0002402956 -0.0003065574 -0.0004601206 -4.195488e-05 0.0002866378 0.00025923585 -0.00016333656 0.00020386124 0.00027857823 0.00017370583 0.00029388233 -0.0003308117 7.4147024e-06 0.00019502788 0.000429371 -0.0004238891 -0.00019954615 0.00020537377 -0.00037064397 0.0003099753 -0.00035557876 0.00037341507 7.06056e-05 4.8188398e-05 -0.00038092316 0.00036699127 3.2654116e-05 0.00012326431 0.0001117678 0.00025336584 0.0003743426 -0.00021096566 0.00046303484 -0.00015862245 -9.111134e-05 0.00020662125 2.7590626e-05 0.00021470193 0.00017840805 -0.00021060198 0.00026388612 0.00045208115 9.398677e-06 -7.8463396e-05 -0.00011672287 -0.00012001785 0.00021466536 -2.0309479e-05 -0.0002567216 -0.0003958592 -0.00012152572 0.0003899779 0.00033912537 -0.00030733642 7.522137e-05 0.0004486886 -9.7445874e-05 0.0004956763 0.00021565813 -0.00038557962 0.00034105286 0.00017201967 0.00017034561 -0.0001372323 -0.00027442005 -0.0003450362 -0.00042297956 -0.0002462068 0.00027968906 -0.00031810056 0.0003925804 0.00042110909 -0.00010199814 0.00031646594 0.00037901642 0.00031888476 0.00049661956 -0.0002297967 0.00027932425 0.00025377766 0.00038699294 -5.9280545e-05 0.00036614467 0.00023154468 2.0629306e-05 -6.306091e-05 0.0004138713 0.00036450973 0.0003992379 3.2043965e-06 0.00039254327 -0.0002900907 -0.00033714253 -0.00032042744 0.0003040521 -0.00034737418 0.00016133198 -0.00027730752 0.00032534212 0.0004336817 0.00016668002 -0.00019177186 -0.00015571805 0.000103683284 9.572397e-06 -0.00038625943 -0.00037368503 0.00026658922 0.00013817451 -0.00038145678 -6.386813e-05 0.00011392126 0.00017729308 0.00032009106 -0.00041675163 -0.00022891373 0.00045757554 -8.836917e-05 -0.00048257905 -0.00035708482 -8.042123e-05 0.00012163684 0.00024593997 0.00027780348 0.0003493364 -5.8820577e-05 -5.6037552e-05 -4.7297828e-05 -0.00014176483 0.00043575518 8.1589846e-05 0.00019805526 -0.00046237334 -0.00011000563 0.00012840168 -0.00042052622 0.00034221666 0.00030626202 0.00024932568 -0.00022693072 -0.00030998036 -0.0003934644 0.00032167422 -0.00033489047 -0.00042256172 0.00027995088 0.00041696246 0.00026211046 0.0002664717 -0.00015469998 0.00013052445 -0.00029568505 0.00017569744 8.037817e-06 -0.00042381146 -0.00018226454 0.00021602867 -0.00045990534 0.0004951175 1.9926576e-06 -0.00023179523 0.00033395045 8.497174e-06 0.0001442355 0.00027473498 0.00014547103 0.0003721488 -0.00017764309 0.0004957607 -0.00044662534 5.8224385e-05 0.0002530951 -0.00033532566 -4.80112e-05 0.00046997875 0.00032523045 0.00017265516 -0.00031746886 7.714577e-06 -0.0002811566 0.00012351264 -0.0003905375 0.0004991668 0.00026736484 0.00015314348 0.00028920092 -0.00040326916 -0.00039586576 9.600294e-05 4.6368204e-05 -0.00044535197 0.0003898725 0.0001618015 0.00023595584 -0.00015168605 -0.00047272307 0.00035628898 6.9130925e-05 0.00015897602 2.9333565e-05 0.00022364114 0.0002572638 -0.00012470286 -1.9214893e-05 -0.00036369325 0.00041143948 0.00019220581 -0.00030672917 -0.0002588423 -0.000117181495 0.00013548808 -0.00011544612 9.3211114e-05 0.00044697465 0.00042702758 0.00033652177 -6.62645e-05 -0.0003812828 -1.4829609e-05 0.00045623467 -0.00037696154 -0.00020115559 0.00028072618 0.00025803628 -0.00013165598 -0.00036762463 -0.00015867561 -0.0004709622 -8.8214416e-05 -0.00035312888 0.00047311038 -0.00025214188 -0.00045262655 -0.00040832226 -0.00033563602 6.700058e-05 -0.0003188139 -6.451428e-05 5.6976507e-05 -0.00013513412 -0.00039551005 -0.00020338081 0.0004710545 -2.0513702e-05 -0.00012071722 -0.00026235185 -0.00032348832 0.00013983376 -0.000493085 -0.00033212893 0.00020878558 6.9688017e-06 -0.00012753214 0.00046877886 -8.801424e-05 -0.000327611 -0.0003042016 0.00014123428 0.00011914853 0.00040825806 0.0003009243 -0.00026422966 -0.0004317262 -0.00015854868 -0.0003942466 -1.8378983e-05 0.0004468519 -0.0002041203 0.00035720496 0.00017989315 0.0002880382 -0.00011974315 -0.00031129195 -0.00037903327 0.00035706235 -0.00026714132 0.00041170264 0.0001619197 0.00023905227 -0.00027034525 0.00029099843 -0.00035369518 0.000193456 0.000434499 -0.0004509866 -0.00018461207 0.00042757657 -0.00015081189 6.928e-05 -0.00029528988 -3.8871043e-05 0.00049743755 0.00048581613 0.00020848468 -5.947319e-05 -1.1397511e-05 -0.00037982187 0.00048189523 -0.00034398065 -0.00043768264 -9.705005e-05 0.00023464733 0.00016426996 -0.00023354494 -0.0004624702 0.00023458956 -0.00046876402 0.00014848645 0.00035588612 0.00046379454 -0.00030883943 -0.000107265136 -0.00049564464 1.3274796e-05 -0.0001689836 -0.00024148497 0.00016681085 -0.00047942201 -0.00022651641 0.00014282874 0.0002946227 5.201891e-06 0.00031526436 -1.0347995e-05 0.0003882653 6.814192e-05 -6.258021e-05 8.110204e-05 -0.00025892598 -0.00038269666 0.00035796108 -0.00014430041 0.00035603537 -7.241478e-05 7.6570825e-05 -0.00040617288 -0.00029875067 -2.8913755e-05 -6.7244335e-05 -4.4422446e-05 0.0002707257 0.00014950025 -0.00037171747 2.3998957e-05 -6.674975e-05 -0.00033609607 0.00015268815 0.00045795512 -0.00040327362 0.00018444106 -0.00013684013 -0.0004291216 0.00046049216 0.0001859271 -0.00017027839 -0.00046230276 -0.00017434472 0.0004824015 -0.000114767194 0.00030341378 -0.00040922724 0.00035286671 -0.00025075927 0.00038204168 -0.0003803228 0.00049933704 -0.00015580296 -3.0685933e-05 0.0001953658 -0.00047007922 0.00036624062 0.0004234137 -0.00041838252 5.4361153e-05 -0.00044343297 -0.00047771976 2.007354e-05 0.0004094494 0.00018850714 -0.00046334157 -0.00025524743 -5.2540836e-05 -0.00034460018 6.9755456e-06 0.00049022044 -0.00020361732 0.0004823769 -0.0004840054 0.0002406896 -0.00037391364 5.2343017e-05 -0.000249285 -0.0004584796 -0.00024802043 0.00038226182 -0.00014348335 0.00043642506 -4.476602e-05 3.3936816e-05 -0.00036057978 0.00021370492 -0.0003164769 -0.00021195677 0.0004974933 -0.00042616585 8.968483e-05 -0.00034839293 0.00031355562 -0.00028242517 -5.5274668e-05 1.9586307e-05 -0.00042453958 -0.00015393794 -0.0004621119 0.00042277636 -0.00046256205 0.00026551785 0.000107073814 -0.00016786499 -0.000228248 0.00013427962 0.00022540356 -0.0002202669 0.00019057341 -0.000107914 0.00036318265 -0.00017362769 0.0004928081 0.00043280088 -6.893502e-05 0.00031815312 0.00046211015 -0.00044155697 -0.0001659001 -0.00025563542 -0.00014217998 -0.00032098303 0.00015831515 -0.00047525638 -0.0002670614 -0.00029956165 5.6308618e-05 0.00013610482 0.0003643292 6.3925094e-05 9.1601374e-05 -0.00026267223 0.00047596736 0.0002226014 1.1205924e-06 0.000108327906 0.00015635348 -0.000230612 -0.00016189067 -7.132502e-05 0.00025515765 -0.00032138304 -0.00019416987 -0.00012067926 -0.0004901503 0.00039581722 0.0002940757 -8.2255894e-05 -0.00029307572 -0.0001361028 0.0001779587 -0.00037669062 0.00020668215 2.9352543e-05 8.858473e-05 -0.00014713174 -0.00016763998 -0.0003210617 3.864813e-05 0.00016019956 -0.00049707416 0.00030763354 0.0003975068 -3.6448353e-05 0.00020294447 0.00010303903 -0.0003014672 -0.00013239705 -0.00015003179 0.0004697917 -0.0003999186 0.00042570467 5.3071595e-05 -0.00027935812 -0.00012626377 -3.504939e-05 0.00039253692 -6.33112e-05 9.931142e-05 0.000217809 0.0003436681 -5.7111043e-07 0.00039833525 0.0004280566 0.0004872679 0.00022392132 0.00026190552 0.00042043757 0.0003232804 -0.00030123675 -0.00021913878 -0.00045694748 0.0003922841 0.00022818285 0.00027506443 0.0002673331 0.00018638397 -0.00036626155 0.00037020125 0.00020971573 -0.0002047066 0.00019739737 -0.00024215951 2.6005622e-05 0.00012180374 0.00022329805 0.00017472672 -0.00040653968 9.299303e-05 0.00045544902 -0.00042744796 0.00018964222 0.00042576404 0.0004951346 0.00042002002 -0.0004641046 0.0003688897 -5.6398436e-05 0.00018910556 0.00013616953 4.0484938e-05 -0.0004955778 -0.00044251655 1.4668406e-05 -0.00032235365 0.00022306117 -0.0004545424 -0.00042111482 0.00048235856 3.9276265e-06 1.5022049e-05 -0.00022776786 -0.00012883235 -0.00030718272 -0.0002531208 0.00024774036 -0.00040189532 -0.00016546392 -8.8218185e-05 -0.0002493905 -4.9128725e-05 0.00035794813 0.0003755196 0.00033166108 -0.00022725548 -0.00021065962 0.00022136865 3.483553e-05 5.4294585e-05 -0.00019306951 2.8918917e-05 8.740189e-05 0.0004520073 0.00026997188 0.0003966817 0.0003969677 0.00041575104 -0.00021396886 0.00032968717 -0.0003834438 7.7093755e-05 0.00024707263 0.0001863348 -0.00027064327 -0.00011754664 -2.7233571e-05 0.00038324477 -0.00045061886 0.00017401883 -0.00024342755 -5.8528203e-05 -4.5295576e-05 -0.00027830314 -0.000249938 0.00027264803 0.00026329132 0.00023996935 -9.462344e-05 0.0004227926 -0.00027508213 -0.0004122833 -0.0001023834 -8.138408e-05 0.00010860602 0.00020391829 1.2709966e-05 0.00026943246 -0.00029632603 1.0363127e-05 -0.0001129829 -0.0001152214 -0.0002715221 -0.00022221697 5.69173e-05 -0.00025368223 -9.773584e-05 -0.00021955113 0.00015145793 -0.0002246155 -0.00039274117 -0.00023311119 0.00021081601 -0.0004463131 -0.00036524786 -0.00029456036 -0.00039635523 0.0004389612 0.00041838593 -0.00013921442 -0.00047315014 9.021345e-05 7.180888e-05 0.0004694786 -9.407495e-05 0.0004946225 0.0003230478 0.00014427236 0.00034986847 -0.00017065625 0.00017308185 0.00019808409 0.00023806618 -0.00033720094 -0.00024174502 -8.9093206e-05 -0.00026498223 -0.000494698 -0.0004345456 -0.00035093472 8.1918355e-05 -0.00030312422 0.00044416182 -0.00025248132 0.00045657714 -1.1162631e-05 0.00019985417 -7.109201e-05 6.147606e-05 6.760461e-05 0.00015222438 0.00043195163 0.00030699372 -0.00047114294 0.0004201049 -8.741633e-05 -0.000458949 4.3253305e-05 6.6602646e-05 8.257826e-05 -2.2578064e-05 -0.00043068052 -0.00017958024 -3.0878884e-05 -0.00034805984 -0.00021649915 -1.5346102e-05 -0.00016055228 6.0103674e-05 -0.00022780216 -0.00040161682 0.0002215665 0.00044433933 -0.00032436257 0.00047153683 0.00039227083 0.0003396553 -0.00016771267 4.11617e-05 -5.600544e-05 -0.00016145359 -0.00049262214 -6.5094755e-05 0.00025305216 -5.268686e-05 5.0515455e-06 0.00012645971 0.00041080397 0.0003498545 -2.244029e-05 -8.591553e-05 0.00014543597 0.00011457299 -5.9206213e-05 -0.00011347476 1.5504808e-06 0.00019320994 0.00019271212 0.0002621394 -0.00018636488 0.00021365155 -0.00045517948 -0.00012204158 0.00010713437 0.0004783553 -7.502692e-05 -0.00035985807 0.0004960043 0.00038288164 -0.00029405384 -0.0003550532 0.00038500768 -0.0002544065 -0.00036759983 0.0003010782 -0.00049555657 0.0002598422 -0.0003689469 -0.0002478704 0.00016072349 0.00041557162 -0.00037234172 0.00015913631 0.00017712444 -8.448192e-05 -0.0003094815 0.0004216403 0.00010303241 0.00024942952 4.3833777e-05 0.00040805843 -0.00022458583 -8.115893e-05 0.00015733694 0.00016873334 -0.00017121686 -3.3968183e-05 -4.372415e-05 -0.00014778097 0.00030390773 0.00018308536 -0.0002409554 0.00015325505 -0.00010130437 0.00033767623 -0.00015837449 -4.355531e-05 -0.00039440885 -0.0002662007 -0.00032277196 0.00045653075 0.00047569975 -0.00025298656 0.00020435565 3.419234e-05 -0.00046791113 0.00046294162 0.00034233512 0.00011609703 -0.0001937972 0.00023526547 0.00047538267 -0.00018087644 0.00037000605 -4.8389564e-05 0.00048629672 -0.00045665787 -3.947881e-05 0.00018926512 -0.00020917742 9.6478805e-05 0.00025111533 -0.000112195834 0.0004234216 0.00021098858 -0.00020732966 -3.7201607e-05 -0.00035009353 -5.9470138e-05 -0.00010156309 0.00032083772 0.00012962759 0.00040304445 0.0003424888 -0.00038397993 -0.00025631022 0.000120284225 -0.00018617549 -0.00011908606 0.00037191273 -0.0003387318 5.8380294e-05 8.866397e-05 -0.00016209253 3.2746866e-05 0.00018472435 0.0003983781 -8.256662e-05 -0.00032055634 -0.00026730643 8.514424e-05 -0.00042834305 -0.00043487104 -0.00018732801 -0.00034446156 0.0003876155 -8.972995e-05 -9.712082e-05 0.0003646132 -0.00044485938 0.00016012922 -0.00042599064 0.00036246446 -0.00021506578 -0.0004540784 0.00046155878 0.00011458889 6.925679e-05 -0.00046877246 -0.0001898466 0.00045240138 -0.0002825708 -0.00030516298 3.53267e-05 -0.00035631008 0.00048351995 -0.00049379555 0.00044927123 0.00036041863 -5.1956937e-05 -3.5640307e-05
사랑해. 0.00041594618 -6.4220905e-05 -0.00019846344 -0.00042634524 -0.00027327336 -0.00013464305 -0.00031481593 0.00032936723 9.412544e-05 8.2236795e-05 -8.377956e-05 0.0004253371 -3.487826e-05 0.00031291042 -0.00012489899 -0.00012511265 -0.00029299097 -0.00020979425 3.285725e-05 -4.9632345e-05 0.0003417198 -5.598274e-07 0.00033322343 -0.00032674675 -0.00049391226 0.00042222184 -0.0002799543 0.00012119343 -4.3227597e-06 -0.00019450155 7.1964794e-05 -0.00036715704 0.00043756363 0.0002998896 -0.00025047548 0.0002069438 -0.00036150753 -0.00019196732 -0.00023682843 0.00025563932 0.0004727278 0.00021424083 -0.00019965843 -6.361455e-05 0.00033152403 -1.1848265e-05 -0.0004927051 0.0003727897 0.00035533975 2.0886138e-05 -0.0003279409 -0.00039778624 0.00016763102 0.00010026017 -2.7130618e-05 -6.311478e-05 0.00043349052 -0.00024606084 -0.00012008611 -0.00023813138 0.00031266612 0.00041018485 0.0003806822 -0.00015022448 -0.0003709834 -0.0004214041 -9.518975e-05 0.0004186655 -0.00036605608 -7.149888e-05 -5.7655543e-05 0.000117678224 9.765968e-05 -9.330246e-06 0.00034749467 5.934637e-05 0.00048104342 -0.00047515528 0.00030991502 -0.00028338988 5.3093117e-05 0.00047387416 0.00015371926 0.00045071414 -0.0003004947 0.00019840217 0.00028002544 0.00012757415 -0.00013011109 -0.0003005107 8.453195e-05 -7.122566e-05 -0.00042657903 -7.805486e-05 -0.00041929667 -0.00031457577 -0.00029830242 -0.00032824755 0.000415141 0.00027080122 -0.00012992068 2.0804468e-05 -0.00022088992 0.00022198055 -0.00022079544 -0.00015313266 0.00043228263 -0.0003276318 0.00023093466 -0.00047580988 0.00010878356 0.00012415329 5.3057705e-05 -0.00044489052 -0.00028783202 -0.000105785104 -0.00021114537 2.5055346e-05 -0.00032033017 -0.00022702859 -3.0509944e-05 0.00016831547 0.00018144066 0.00025058817 -0.00045609192 6.6585075e-05 0.00017210336 -0.00014178541 -5.7445544e-05 4.1251027e-05 0.0004331341 -0.00033774727 -0.00037497183 0.00036550502 -0.00016412149 0.00017983028 0.00017373372 0.0003480542 0.00030165282 0.0001362279 -6.0409904e-05 0.00019423383 -0.00046617896 0.00044150237 -9.741292e-05 0.00042762977 -0.0003721747 0.00019570626 0.00041992794 0.00024565356 0.00030499644 9.178594e-05 0.00049634755 0.0002542102 0.00028371305 0.0002825054 -0.00039277496 0.00048582157 -1.9143004e-05 -3.775167e-05 -0.0004757015 -0.00028185657 -0.00018089099 -0.00032150967 0.00027659052 -0.00046380548 -0.00017943239 -0.00047852966 0.00013690448 0.00030291267 -0.00046821355 -0.00041993443 5.4507203e-05 0.00026633672 0.00018521483 -6.53409e-05 -0.00029884357 -0.00017113583 6.684627e-05 0.00017501581 2.5970196e-05 0.00033876998 0.00037959332 -5.2972242e-05 -0.00049196533 -0.0002102567 0.00037803958 0.00016197289 -0.00018113267 0.0004428447 0.00036039442 -0.00010097929 0.00042285392 0.0004167402 0.00012703857 -0.00030407356 -0.00023043985 0.00011151837 -4.7545127e-06 -0.00016278913 0.00036529993 -2.1100026e-05 -0.00017791855 0.000192549 -0.0001606491 -0.00037742176 -0.00027630175 3.1040042e-06 0.00047995313 0.00029536485 9.664189e-05 -0.00043711564 -0.0001924116 -0.0002153217 0.00010763814 -0.00021038408 0.00018708472 -0.00014466683 0.00030542284 -0.00038663644 -0.00029668675 0.00044799375 0.00042836674 -0.000108963664 -0.00038039262 -4.107579e-05 0.00011430939 3.0509784e-05 0.0004705425 0.00045975356 -0.00032174322 -0.00013141266 -8.9094254e-05 -0.00029824165 -9.7701594e-08 0.00012225586 -0.0002843264 -2.1244112e-05 0.00021386727 0.00045919998 0.00015763669 -6.288559e-06 -9.19315e-05 0.00016700849 0.00023451215 -0.00046913678 -0.0001554318 -0.0004720664 -0.00041579866 0.00040401725 0.00027066979 0.00045373794 -6.47899e-05 -0.00037734822 8.621516e-05 -0.00023668188 0.0002604829 -8.632119e-06 -0.00022222834 -0.00019160505 0.00022649644 4.971954e-05 -5.1878946e-05 0.00037273625 -0.0003433556 -0.00043510512 -0.000104058265 0.0004670155 0.00010376205 5.7022222e-05 1.1858335e-05 -0.0002987319 0.00039420862 -0.00031703792 -3.618624e-05 -0.00015904149 0.00011322846 0.0004130909 7.278096e-05 -5.0328785e-05 -0.0004250662 -0.00048140867 0.00017174684 0.00013797457 -0.00043817912 -6.1911174e-05 -1.5428703e-05 -0.00018325142 0.00018298457 0.00010477576 2.522105e-05 6.7416426e-05 9.187732e-05 -5.0976843e-05 0.0004768233 2.4818908e-05 -0.00048751736 -0.00034781883 0.00033992264 -0.0002504677 0.00038049495 0.00017123339 0.00049103185 -8.300879e-05 -0.00045483763 -7.533805e-05 -8.1152655e-05 -0.0003891764 -0.00022362683 -0.00026354493 -0.0001920215 -0.00032271523 0.00044759893 -0.0001634198 -0.00037083303 0.0004497462 -0.00011218097 -0.00014930224 8.45213e-05 0.00037703975 -0.00016972987 -0.00029617612 -0.0003657819 -2.075509e-05 0.000375748 6.555866e-05 -0.00017030495 0.00048546863 -6.833661e-05 -0.0004691571 -8.888352e-06 -0.00043286575 -0.00045498303 0.0004921907 0.0003772558 0.00010627936 0.00015326666 -4.6881432e-05 -0.00043420907 -0.00024362204 0.00032529287 0.00014761456 0.0003665658 9.0084664e-05 0.00031565188 -0.00023834362 0.00017195329 0.00017415367 0.00042756894 0.00033177665 -0.00013627842 -0.00017499622 0.00029182254 -0.0003349982 0.00036382864 0.0003732868 8.720435e-05 0.00043658598 0.00042310904 -3.1887565e-05 -0.0004975878 0.00030400246 -6.1472674e-05 0.0004780753 0.0001650875 -0.00013872347 -0.00041863817 -0.0004606721 0.0004577963 0.00042083312 -0.00020032654 -0.00032524235 -3.755238e-05 -4.2913016e-05 -0.00015519082 0.0003920196 0.0004820815 0.00022230583 0.00043818943 0.0004079068 -0.00031522938 -0.0003643318 -0.00031239688 -6.893614e-05 -0.00042267365 -0.00029796697 -4.7269255e-05 0.00012232846 0.00043485913 5.4662218e-05 -0.00045046976 0.00014648103 0.00012102626 -8.008789e-05 -0.00024951337 -0.00046556845 9.644267e-05 -0.00018682555 -0.00034020102 0.00014019974 -0.00038096364 -0.0004231288 -0.00018254244 0.00048038445 -0.00012463536 0.00025252692 -0.0002864264 -4.7208465e-05 0.0001356832 0.00031880414 0.00017937139 -0.0001353125 -0.00017028706 0.00013712075 9.3644085e-05 -8.445227e-05 0.00035926243 -0.00032109526 0.00028324997 -9.5651696e-05 0.00042036924 -0.00049642735 0.0003832178 0.00023335624 9.08408e-05 -0.00027038425 0.00038367286 -0.0001343666 7.6101634e-05 0.0001029908 2.4418723e-05 -0.00037619224 7.540549e-05 0.00018406981 0.00032011743 0.0004887319 -0.0004309234 -0.00025826535 0.00029462093 -0.000121853605 1.41757355e-05 -0.00040499674 -0.00025526548 -0.00045973278 0.00016847637 9.997633e-05 0.00032383355 0.00018262774 -0.0003703304 -0.00040367557 -0.00025833913 -0.00029471668 0.00016522959 -0.00025869338 0.00026649624 5.009998e-05 -0.0002696184 -3.9144026e-05 -3.7060403e-05 0.00010958457 0.00037049878 6.0616327e-05 -0.00048763753 -0.00034373364 0.00027917526 0.00010744345 -0.0004712559 -0.00047977632 0.00047441482 0.0003673154 0.0002455722 0.00018749497 0.00022680714 0.00033810775 0.00043441897 -0.00014234017 0.00010938856 0.00024246384 -0.00017394392 0.000449436 -0.00042826767 0.0004173455 0.00046070325 0.00012329801 -0.00030812196 -0.0003493895 0.00033891242 0.00021856153 -0.00039015777 0.0002516152 -4.343141e-05 0.00044409218 0.00023798436 -9.3244846e-05 0.0002655094 -0.00014871627 -4.690257e-05 -1.53525e-05 0.00026083353 0.00027971584 -3.972681e-06 -0.0004886691 -0.0002594363 0.00037237265 0.00023479608 -0.0002387028 -0.00026488345 0.0004013041 -7.307648e-05 0.0002914212 0.00038066212 -0.0004637788 5.479654e-05 -0.0002399617 8.504627e-05 7.51181e-05 0.0003162037 -0.0003829277 -0.00035337204 -0.00042020035 -0.00048059743 -0.00019253818 -0.0001717823 6.0915092e-05 -0.00010893837 -9.0889764e-05 0.00036715716 -2.9340858e-05 -6.766767e-05 -0.00041354884 -0.0004063381 -0.00011860777 -0.00043731253 -0.00041220037 0.00022333652 -0.00020094741 0.00029399464 -0.00012390784 -0.0004876644 0.0004196564 0.00035791926 0.00031558174 0.00017557395 -7.408336e-05 2.0091176e-05 1.1567195e-05 0.0001833602 0.00033956987 -0.0004939428 4.1784377e-05 -0.00048047336 0.00046814108 -0.00015286074 -0.00025146577 0.00041588943 -0.00011144131 0.00027466862 0.00031210686 -0.00037753046 0.00042773734 0.0002023793 -0.00021310238 0.00028791337 -0.00023834924 0.0004127632 0.00022886213 0.00033440022 -0.00027274663 -0.00045942204 0.00016968971 0.00015800455 0.0003907304 -0.0002344872 6.516789e-05 -0.0004780503 0.00010085756 -1.908457e-05 3.917535e-05 -0.00023330766 4.3705688e-05 0.00027673144 -0.0001695165 -0.000115130475 -0.00028898005 -0.00035572777 -5.452097e-05 1.2563566e-05 0.00048382574 0.00034238782 -0.0004593162 0.00015930845 -0.00018757218 0.00037210336 0.00020679893 -0.00031453377 -0.0004218585 -0.00030060695 0.00029741565 5.2012845e-05 -0.0004633305 -0.0002665772 -0.0004905815 0.00024217721 4.229519e-05 0.00043931615 0.00017057297 -0.00031755766 4.7740166e-05 0.00016948304 0.00045036964 0.00010322968 -0.00021507234 0.00032662766 0.00013881073 -8.262864e-05 -0.000105389285 -5.0983508e-05 9.431818e-05 0.00047445612 3.0273859e-05 -0.00015468174 -0.00013581624 -0.00015615897 0.00040934328 -0.00011056622 -0.00030869574 -0.00028157738 -4.173274e-05 -0.00014655566 -0.00048119095 -0.0001310343 -0.00015378401 4.0802483e-05 -0.0004186354 -7.846433e-05 0.00022059897 -0.0002094312 0.00017908003 -0.00022167811 -0.0003372133 0.00034310046 -5.1830415e-05 0.00011269306 -0.00010543038 3.6115005e-05 6.979767e-05 2.0896838e-05 -0.00045037683 0.00046480802 3.301819e-05 -5.986417e-05 -0.00011531754 -0.00040622984 0.00018944505 -0.000270488 0.00041402737 0.00045377229 -5.5213597e-05 -0.00015885146 -9.776345e-05 0.00046683438 0.00038862487 -0.00043994735 0.00028678132 -4.469973e-06 -0.00024369906 0.00040987687 5.0180588e-05 3.7229554e-05 0.00013946305 0.00019471743 -2.7754742e-05 -0.0004916567 -0.00041088293 0.00019224972 -0.0001776711 -0.00033781733 0.00031678632 -0.00047971267 0.00021499461 -0.00031024063 0.0004828838 -0.00010394938 -0.00019049097 0.00047489165 -8.1876125e-05 0.00035305077 0.00023645796 0.0003362027 0.00031763667 0.00024488132 0.00019389376 0.00012521949 0.00023517912 0.00018698991 -0.00027705976 0.0004610565 -0.0003844355 -0.00037437436 0.00033870674 0.00018603505 -0.00042082503 0.00015256899 -2.0860329e-05 -0.00016369189 -0.00015339418 0.00023591511 0.00030792644 5.5232194e-05 0.00042455678 -0.0003736504 0.00033974467 -0.0004023313 -0.0002100275 -0.0003607023 -0.00024603656 0.00040729373 4.051936e-05 0.00038690865 -0.00017720973 9.555439e-05 3.366862e-05 0.0002566534 5.295166e-05 0.0001781115 0.00021695478 0.00027258482 2.7911075e-05 -0.0003263616 0.00024565496 -0.0001583527 -0.000392356 -0.0003263543 -0.00026522262 -0.00044285815 0.00048405328 0.00042467332 0.00045566467 0.00023862334 -0.00017041762 0.00024727546 -0.00019229723 -0.00031342282 0.0004901556 -0.00028018776 -0.00011250654 0.00029830402 0.00016121312 -0.00035444283 -0.00043983583 0.0003307968 0.00046446978 -0.00036212243 -0.00032749533 0.00018276458 0.0002720264 0.00039366726 0.00021773591 0.00040465672 0.00043528783 -0.00015405852 -4.4579258e-05 6.74846e-05 7.034014e-05 0.0004497021 1.4744251e-05 -0.00048413934 -0.00020466062 0.00013860516 0.00022569187 0.00035725473 0.00039152402 2.5106244e-06 8.7505265e-05 0.00044880735 0.00015830196 -0.00030506542 0.00031570985 -0.00043471984 -0.00028352274 0.00014094923 0.000349764 0.00040102942 0.00019762793 -2.350188e-05 0.00017122438 -0.00026329063 0.00012605032 -0.00046097935 9.911742e-05 0.000360553 -4.6791312e-05 0.0004498413 0.000435194 -0.00030636124 0.00032220458 0.00033749265 -0.00034641632 -0.00013362923 -0.00043250533 0.0002356498 0.00040936182 -3.4819954e-05 0.00047735643 0.00044029648 6.434689e-05 -0.00024804694 -0.00042435003 -0.0003439762 0.00037590743 4.896619e-05 -0.00010481247 0.00020681042 0.0003260518 -0.00021424185 -0.0004956845 -0.00033607325 -0.00033114362 -0.00031073752 0.0002368433 7.847292e-05 0.00025926763 -0.00016490075 -2.502946e-06 -0.00028794722 0.00017906693 -0.00027589727 0.0003397106 0.00028163733 -2.4411685e-05 0.00024841356 8.860833e-05 0.00014988692 0.00017854388 -0.00017034117 -0.00011284165 0.0004055149 0.00024659396 -0.0001325256 -0.0003799461 -0.00041395295 0.00032868388 -0.0002435392 -8.3122875e-05 6.0906284e-05 0.00046225716 -3.3896013e-05 0.00017781113 0.00021228574 -0.0004132467 0.00036478013 0.00048657745 -0.00027415022 0.00042154928 -0.00027810474 0.00047280762 -0.00033805633 -0.00025769498 -0.00047184268 0.00015231843 -6.613567e-05 -8.6652864e-05 0.00016715194 -0.00029830408 0.00047329732 0.00036590942 -0.00015389021 0.00020671097 -0.00029641282 -0.00046749559 0.00015721297 -0.00016287038 -1.6663523e-06 0.00012084006 6.217073e-05 0.0004562735 0.0002603411 0.0002099855 0.00030976944 0.00020251819 -5.2215142e-05 0.00011870458 0.00035823937 0.00028274703 0.00049615063 -0.00030264608 -0.00013503531 0.0004845246 0.0001369903 -0.00045838472 -1.7267144e-05 0.0004029528 -0.00017191053 0.00049127854 -0.0002404238 -0.00036410906 -0.00025597602 -0.000101963364 6.34488e-05 0.00035929997 0.00012894181 -1.8001481e-05 6.1948604e-06 0.00023745143 -0.00044380885 -6.495382e-05 -0.00019568602 -0.00030811172 0.00022719085 -6.427799e-05 5.1747113e-05 -0.00044963756 0.00019723004 -0.0002175975 -7.7119155e-05 -0.0003859973 -1.964387e-05 -0.00012031357 0.00045186075 0.00015818347 0.00017833611 0.00035881152 -0.00040604276 0.00027373183 0.0003221007 0.00035616185 -0.00039502402 -9.251416e-05 -0.0002185299 0.00036544338 1.3141242e-05 -0.0004013165 0.00019182682 -0.00024380257 -0.00047709944 -0.0004963501 -0.00045298802 0.00041743275 0.00015141627 0.00014852812 0.00014272028 0.00027990175 -0.000302844 0.00024033805 -0.00045195557 -0.0004131696 8.346014e-05 0.00039727832 0.00040700653 -0.00046170256 0.00034506616 1.409376e-05 9.138918e-05 -0.00038952776 0.00019359226 0.00020657235 0.00047693076 0.00044889402 6.981225e-05 -0.00024710785 -2.7168582e-05 -5.0515973e-05 9.424393e-05 0.00029632097 -0.00038127837 -1.5353758e-05 -0.00023002783 -0.000483068 -0.00014099934 1.66467e-05 0.00021822106 0.000488566 9.2601535e-05 0.00039798013 -0.00014529815 0.00036799998 -3.845127e-05 0.0001299121 -3.555051e-05 -0.0002924782 -0.00023619323 -0.00014270196 0.0003294887 0.0003007619 -0.00026492414 0.0004586114 -0.0001845332 0.00025441262 0.00039820396 0.00019304638 0.0004683693 7.3324656e-05 0.00021271809 0.00031351866 0.0003585588 -0.00014943392 -0.00016773999 0.0002473999 0.00023277158 0.000268382
미워해. -0.0002258042 -0.00016521418 1.14753275e-05 0.0001753686 -0.00030053736 -0.00045547023 8.866922e-05 0.00021126738 0.000251238 0.00012680568 -7.455694e-05 0.00036695594 2.3900904e-05 -0.000338144 -0.00048190795 -0.0004316635 -0.00033765237 -0.00014503027 0.00023123912 -0.0001814944 0.00020115358 -4.3946795e-05 -0.0004542238 8.02383e-05 0.00043542875 0.00027766815 0.00015679609 -0.00027992745 -2.1793372e-05 -0.00032447212 0.00041643064 -6.1190556e-05 -0.00046069248 0.0001839652 5.8033464e-05 2.2194385e-05 -0.0002771516 -3.1650306e-05 -0.0004116328 -0.00045801586 0.00010177405 -0.00026747092 0.0004527685 0.00019461194 0.00016336469 0.0003251448 0.00015377812 3.47655e-05 0.00037265354 0.0002250948 0.00048416527 0.00036148063 0.00022732386 -0.00021535729 0.00010809995 -0.00049257406 1.0466458e-05 0.0003358538 -0.00034645048 -0.00049738627 0.00029805422 -0.00039286437 0.00017357671 0.00018296856 -0.00028143584 9.924659e-05 0.00040108548 -0.000104228486 2.8540524e-05 -0.00023145357 -0.00043750496 0.00024526683 0.00046946967 -0.00017613714 0.00012540234 7.2072966e-05 0.00013953375 -8.818051e-05 0.00014608027 -0.00025371867 0.00046081815 -0.00046511632 0.00030622407 0.00013791895 0.00019243947 0.00045139753 -0.0004957892 0.00037037142 -0.00014904013 6.449739e-05 0.0002634627 0.00016132923 0.00049118913 0.00018592675 0.00037577865 5.927697e-05 -0.00017110728 0.0003918578 0.00022447712 -0.00018022723 9.784365e-05 0.0004397877 0.00046952872 -0.0002510896 -0.00017263943 0.0004415753 -0.00027486292 -0.0003624594 -0.00016766506 -2.8190583e-05 1.3930419e-06 9.584011e-05 6.3919564e-05 0.000112694026 0.00020518075 0.00013721072 9.849854e-05 -0.00026624493 0.00017435712 -0.0004254326 0.000484612 -9.878935e-05 0.000116350115 0.00024607457 -0.0003262628 -6.9162685e-05 0.0002310647 -3.4503355e-05 -0.00036994723 -5.6089237e-05 0.00043387586 -0.00033583588 0.00021429142 -9.720288e-05 2.7928869e-05 -0.00015337212 -0.0004254762 -0.00014220094 -2.1996248e-05 0.00010782479 -0.00015896665 -0.00023007215 -0.00024548228 -0.00023256542 -0.0004296114 0.0003442556 0.00039716472 0.00039483368 -6.287099e-05 -0.0002781075 -0.00026704726 -0.00022690801 4.9734267e-06 -3.287505e-05 0.00019065238 -0.00018084358 -0.00031215983 0.0004143301 0.0004909064 -0.00017913867 -0.00043597174 -0.00047815303 0.00024867395 -0.00011056501 0.00025827836 0.00023210344 4.4545024e-05 -0.00046376543 -0.00018201472 0.00023938829 -0.00048263432 -8.132973e-05 -0.00014499755 8.99342e-05 -0.00033743828 -0.00041996664 -0.00012739435 -5.8950525e-05 0.00023675847 0.00029492853 -0.00015722508 -0.00018097526 0.0003055826 8.281086e-05 -0.00013201997 -0.00029601218 -0.00026770608 0.00045855314 0.00012948451 0.00031488968 -0.00035163265 0.00022220227 -6.487532e-05 -0.0003338406 -0.0003980937 0.00034731143 0.00044052827 1.271567e-05 -0.00042043824 0.0002653116 -0.000104734616 -0.00012095736 0.00014670844 0.00024144613 0.0002262516 -0.00030098268 -0.0004998981 -6.622741e-05 0.00019583873 -0.00046254188 -0.00012440202 -0.00019004825 -2.2012751e-05 0.00013003958 0.0003484928 0.0003766458 -0.00021675852 0.00017241538 0.00028189426 -0.00026399322 -0.0003058283 -0.00034587702 0.00031642683 0.00034179306 0.00041024754 -0.0003893729 0.0004020352 -0.00021650812 -0.00024193393 -0.00018384653 0.0003772067 0.0002599484 -0.0003785716 0.00012623989 -6.317733e-05 0.00012266218 0.00029833624 0.00048196476 -0.00043866292 -0.0002007231 -0.00031181343 0.00010050726 -0.0003335152 -0.00014680224 0.00043833422 -0.00022631536 0.00032224462 0.0003513964 -0.00020969255 -0.00038497284 -0.00020773985 -0.00012410032 -0.0001136123 -0.00016736992 0.00019212913 -3.891576e-05 -2.972996e-05 1.215269e-05 -0.00024352266 -0.00021348843 0.00032308832 -0.00031285916 -0.00011734946 -0.0003726803 -0.00048197253 -3.234934e-05 -0.00018201451 0.00017614689 -0.0004611971 0.00030307693 -7.942527e-05 0.0003870025 -0.00043997393 -0.00026540342 -9.461419e-05 -0.00012456955 -0.00025702713 0.00041075688 -0.00040200487 0.00021499515 7.2625204e-05 -0.00042854666 0.0002560798 0.00041994694 -0.000295064 7.922058e-05 0.00028219703 0.0004397408 -0.00011958027 0.00012740582 0.0003096655 -0.00045096406 0.00024638465 -3.290913e-05 0.0002877938 -9.005576e-05 0.00024873414 -9.8655735e-05 -0.00010610797 7.197749e-05 0.0002774153 -0.0004823457 -0.00027119045 -0.00013937587 -0.00022609685 0.00014017762 0.00028650253 8.625528e-05 -0.00040128813 0.00048019472 0.00030479196 2.9125942e-05 0.0003003067 -0.00016291706 -3.834825e-05 0.00047055853 0.00032601887 -0.00014843712 0.00048639422 0.00018416914 0.00011176552 -0.0001372731 -0.00041012702 -5.0101095e-05 0.00044645774 -0.00038549808 -0.00034654388 -8.755921e-05 -0.000112076945 0.00035269864 -0.00029215062 -0.00041040475 -1.2483349e-05 0.00034281032 -0.0003911038 -0.00047767203 -0.0002451807 -0.00025726145 6.03051e-05 0.00036959632 -0.00036949065 -0.0003948133 0.00045611258 -0.00044551477 -0.00017152526 -0.0003533887 0.0002708476 -0.00036558972 -0.0003542958 1.6384176e-05 -0.00010273826 -0.00036806148 -7.846816e-05 -0.00032202812 0.0004607306 -0.00023445905 -0.00038916615 0.00037959946 0.0004446159 -9.62599e-05 0.00014270481 0.000369654 -0.0002587684 0.00021864442 -0.00014920082 1.51637805e-05 -7.659064e-05 0.0003553567 0.00012057111 0.00044011837 0.00026357983 -0.00011265603 0.00018017768 3.7768867e-05 -2.3379966e-05 4.805567e-05 -7.0920396e-05 0.00045996683 3.634021e-05 0.00034941238 0.0002120896 -0.00042264885 -0.0003034885 0.00012541935 0.00016762735 -0.00031644476 0.00042491226 2.0590003e-05 7.630162e-05 -6.55336e-05 0.00018529607 6.2175335e-05 0.00013541471 0.00020220032 0.00018061763 -0.0004858972 6.565649e-05 1.1549968e-05 0.00024910594 -0.00046047248 0.00040521412 -0.00040917785 -0.0001139367 0.00016865972 0.00040148004 0.00012076678 0.000482043 0.0001480661 -0.00012246694 0.0004530302 0.0001649078 -0.00041041477 0.00048197294 -0.00045826315 -9.6542986e-05 0.00017784504 -0.00034651614 -0.0003856476 0.00023123866 0.00029769237 5.4891432e-05 0.00025509717 -6.0605224e-05 0.00038652038 -0.0002644326 0.00041014398 0.00033967776 0.00029949454 0.00037175958 0.00045172428 -0.00016301993 -0.00018133664 0.00031917216 9.0824964e-05 -0.00032035296 -0.00022416988 -3.7674967e-05 -0.00026565164 0.00029749793 -8.327767e-05 0.0003832103 -0.0002465867 -0.00028490435 0.00035940428 0.00042596806 -0.00032688963 -0.00030557875 0.00048208414 0.00029950505 0.00022766557 -0.0003046786 0.00013836223 -0.000107619904 0.0003660006 0.00023005904 0.00020020516 0.00011517239 -0.0002948774 0.00024562152 -0.00027521417 0.00014282863 0.00012975304 -5.311708e-05 6.1777086e-05 -5.177711e-06 0.00011965866 -0.00042162064 0.0004662115 -0.00040522398 0.00032323907 -0.00024301955 -0.00012052071 -0.00041290087 -0.00042350712 -0.00015930527 -0.0003632506 0.00023509825 -0.000275637 -0.00010796015 -0.00025251924 -0.0002977063 -0.00015376115 0.00025526754 0.00039193578 0.0002111862 0.00045865524 0.0004710479 -6.1013634e-05 0.00015605755 0.0003481958 -0.0002474481 0.0001678247 -0.00034757293 4.5418452e-05 -0.00018498469 0.00025593318 -5.823916e-05 -3.2154858e-05 -0.0003128487 -6.685709e-05 -0.00039918546 0.00035258287 -0.00046949435 -0.00018671752 -4.18078e-05 -0.00025761145 5.498138e-05 -0.00041447877 -0.00021958764 0.00047187132 -0.00018989094 -0.00035750054 0.0004788049 -0.00033267055 0.00029099858 2.6190191e-05 -0.0002885006 -0.00013191228 -0.00031822492 0.00043205405 4.3720092e-06 5.6923574e-05 -0.00027818838 -0.00030357303 -0.0001767847 3.1427828e-06 0.00010477224 0.0004439095 -0.00027275365 9.420272e-05 -0.00016938838 -7.2114744e-05 0.0004718312 -0.00020362552 -0.00048414205 -0.00023478821 0.0003948446 -7.1042145e-05 0.00020168959 -0.00044463846 -4.9297814e-06 0.00032755866 0.00048815465 -0.00038123093 0.00020499909 0.0004733945 -0.0004350399 -0.00020885616 5.1080056e-05 0.00024943947 -0.00028038514 -0.0003775007 0.00029107172 -0.00045691803 -0.00010185287 0.00012731263 0.00025637544 -1.5537009e-05 0.00019245809 -0.00015013243 3.543638e-05 -0.00046424096 4.0594212e-05 0.00013414538 -5.868891e-05 0.000470924 0.00038766555 0.00024251499 -0.0002576384 0.00041070205 -0.00043433922 -1.3077552e-05 -0.0004277413 3.2094667e-05 -6.1511826e-05 0.00040748948 -0.00028797018 0.00030457941 0.0003173064 -0.00027750176 -7.0144047e-06 3.3764478e-05 0.00011435535 -0.00027220612 -0.00023139696 0.0003362173 0.00045510588 0.0002401186 -0.00044508334 0.00042347456 0.00036682573 -0.0003250275 7.444046e-05 -0.00031718105 9.002019e-05 -0.00022289703 0.00042335014 0.00018314806 6.131795e-05 -4.787222e-05 0.0004695712 0.00044399744 0.00044902606 -0.00032161342 0.00031967936 -0.00012791605 0.00023883925 -6.959337e-05 -0.00030058372 0.0003280026 5.2719573e-05 7.259806e-05 -2.1275915e-05 -0.00015539222 0.0002729965 0.00023376798 -0.00028309727 -0.0002079065 -3.4528275e-05 0.00015890283 0.00010546319 9.110238e-05 -0.00032734367 -0.00020758437 0.0003945207 -5.434991e-05 -0.0001690176 0.0001595595 -0.00045222422 0.00022664227 7.230996e-05 0.0001549592 9.693656e-05 -0.00013640287 0.00022442709 -0.00042513496 -0.00026873077 -0.00012434463 -0.00030250673 0.00014271385 -0.00042592158 -0.00021886539 -0.0004283065 -0.00016212817 -0.00015096217 0.00011065414 -0.00024005966 1.326379e-05 -0.00022391649 -0.00017555578 -0.00039370474 0.00033226205 -0.00022711472 -0.00039269746 2.4026269e-05 8.755538e-07 -0.00025379157 -0.00016546588 0.0002222438 0.000431506 -0.0004732877 -1.6291038e-05 0.00042732182 0.00027470643 0.00027291712 -0.00013431816 0.00030711957 0.0002465442 6.723266e-05 5.4916673e-06 -0.0002236349 0.00012735337 3.0184976e-05 0.00016081185 0.00027514918 -0.00012489146 -0.0004470332 9.334181e-05 -0.0001663523 3.8651426e-05 0.00019304745 0.00012491921 -3.2217125e-05 0.00033565055 -0.0004329737 -0.00027938813 -0.00024803897 0.00047095286 -0.00012364391 -2.9055924e-05 0.00019659149 9.10202e-06 -8.487549e-05 0.00044951946 -1.863201e-05 -0.00011226669 0.0004519643 -0.00045747112 -0.0004970012 -0.000116916875 0.00016014308 -0.0004290238 0.00047755337 0.00044930563 3.1839852e-05 4.6075995e-05 -0.00012769667 -0.00031567548 0.00043442327 0.00038457636 0.00030668295 -0.00025522496 -0.00025800776 5.558791e-05 -0.0003230845 -0.0004305204 0.00023767418 0.000296487 -0.0001455991 0.00039119078 0.00034414494 -0.00027092695 0.00017510126 0.00042431732 -0.00038361334 -0.00037248014 0.00014894459 9.974283e-05 9.517727e-05 -0.00034638957 6.303873e-05 0.00017312735 0.0002995829 4.580067e-05 0.00041062385 0.0003408962 -0.00036688577 0.00031364203 0.00022254013 -0.00032828335 0.00045503507 0.00023118306 -0.00034276996 8.8810084e-05 0.00037414525 0.00041519784 -0.00017746926 -9.955674e-05 -0.00045311393 0.00012713671 -0.00013173457 0.00040006032 -2.1841795e-05 -0.0003019503 0.00043412985 0.00045320895 -5.8605838e-05 -0.0004953897 -8.5810716e-05 -0.00035457735 -9.346209e-05 0.0003664195 -0.00035000034 -0.00041714337 -9.839161e-05 0.00044148165 -3.1793643e-05 -0.000316935 0.0003535601 -0.00045349207 -0.0004880629 -0.00036717966 -0.0004801838 -0.0002030747 9.445283e-05 0.00044257593 -0.00040556255 0.00023783081 0.0003873136 -0.00043758226 3.492976e-05 0.00021093075 -5.474322e-05 -0.00029100585 -0.00039674435 0.00010755458 0.00033674698 -0.00027798367 -0.000103015096 -0.00040521965 0.00031682092 0.00042012322 4.5361343e-05 -0.00012547012 0.00023349916 8.040403e-05 0.00045441728 8.622193e-05 -7.452406e-05 -0.00040972716 -0.0003841512 -0.00024953735 0.0004832527 0.00042117893 -0.00033813235 0.00046878876 0.0001993834 6.464387e-05 0.0003921149 -0.00033561737 0.0004810278 -0.0003983062 -0.00024812925 -0.00010129655 -0.0003280903 0.00021214245 -1.1570083e-06 -0.00024219803 -0.00043932523 7.027589e-05 7.127495e-05 -0.0004783837 0.00022094505 -0.0004150158 -0.00040194203 -0.00039981442 0.0003297542 -0.0004782446 -0.00046869987 7.362631e-05 0.00012852672 -0.00023956681 8.7682885e-05 -0.0003539407 -0.00038947247 0.00049771176 0.00016045304 0.00025021686 -0.00043393153 -0.00045407444 0.00025857566 -0.00039713344 -6.877278e-05 -0.00037743917 -9.0899666e-05 0.00021500904 0.0002187754 -0.00044770504 0.0001547342 5.777245e-05 -2.2686792e-05 0.00031874748 0.00031481773 0.00038890107 0.00020511344 -0.00041052807 0.0004995026 0.00023200299 -0.00039946454 -0.0003445847 0.00033379078 0.00027415025 -5.4595694e-05 0.00020700441 -0.00039552886 0.00044379244 0.0003626843 -0.00048080896 -3.27585e-05 -7.499807e-05 -5.9298363e-05 -0.00041444437 0.0002584853 -8.547545e-05 -0.0004648017 0.00044720178 -0.00011753761 0.00033585454 0.0004898153 -0.00038297765 -0.00041692145 -0.0004970644 -0.00034069613 -0.0003019219 -0.0003938936 -9.287978e-05 9.273e-05 -0.00029934687 0.0004748398 -0.000479064 0.00038596845 0.00049123535 0.00040193138 0.00020049469 -0.00030469373 -0.00031586603 0.00025708548 0.00028982814 -8.449e-06 -0.00017565912 -2.5614821e-05 -0.00042684484 2.974468e-05 -6.275045e-05 -0.00012942127 0.00043048657 -0.0003540025 0.00014043628 0.00035532567 -0.00019454942 0.00021995188 2.675272e-05 0.0002466702 0.00042458932 -0.00038402033 0.0001910896 -0.00019337727 0.00032509078 -0.00029960746 -8.7455155e-05 0.00043053427 8.091052e-05 -0.00039607336 -0.00019263498 0.0002374559 0.00014381252 7.508726e-05 0.00028794972 -0.00048161176 0.0004648161 0.00021685859 0.00036238303 0.00022845781 0.0004524209 3.8691367e-05 0.00034185653 5.2911182e-05 -0.00044255663 0.0004813356 0.00042469773 8.3047526e-05 4.5229826e-06 0.00047232644 -0.00019939504 -0.00032662478 0.0004925164 -0.0003166537 1.2984263e-05 -6.2385634e-06 8.257211e-07 0.00018731506 0.00039025178 -0.00026274493 0.00043984276 -1.8377015e-05 -0.00039146713 0.00012548642 0.00034754458 0.00014121327 4.225297e-05 7.5509706e-05 0.0004949787 0.00032973193 0.0003976155 0.0001713865 0.00042726198 4.7139503e-05 -0.0001478579 0.00036716182 -0.00032887273 -0.00017178993 -0.00018649716 1.8335262e-05 0.0002750215 5.0364037e-05 -0.00039173497 -0.0004987521 0.0003749177 0.00015235327 -0.0003090905 -0.00018347976 -0.00021910832 -0.00027438343 -0.0003238071 2.2201039e-05 -0.00026762614 -9.509764e-05 -0.00018630373 0.0003457728 0.00019173622 0.00012585493 -0.00036698178 -0.00047824264 0.00045044493 0.00012424993 0.00020619582 0.00015377525 -5.8286405e-05 -0.00039961594 -0.00014160346
증오해. 0.00043853663 0.00037253607 0.00032527882 0.00024231226 0.00010336972 8.552526e-05 2.088847e-05 0.00036195162 -0.00025083215 -0.00017850377 -0.00018114167 6.0533388e-05 -0.00023842993 -0.00029241858 -2.2969944e-05 -0.00030845366 -0.0002433533 -0.00049121026 0.00036173034 0.0003109402 -0.00038518207 0.0004570381 0.00019936284 -0.000432104 -0.00021048968 -0.00047156506 -0.00048278854 0.0004948919 9.9183904e-05 -1.0217488e-05 -5.9741607e-05 0.00012161049 -0.00031530857 -0.00032545242 0.00041646775 0.00036410656 8.101139e-05 0.0004518718 0.00022388929 0.00038836242 6.0800983e-05 0.00014998202 -0.00016045941 0.00044690626 0.00048698974 0.00029750468 8.5137646e-05 -4.0588995e-05 -0.00018711259 0.00037508065 -0.00026075472 0.0001443042 -0.0004470637 0.00021371654 0.00041905613 -0.00021314874 3.0371413e-05 -0.00044300655 7.738983e-05 -0.00035550253 0.000347905 -0.00041329852 -0.00031387352 0.00037599742 -0.0004899766 -0.00023701758 9.467062e-05 -0.00048253988 0.00016487426 1.085781e-05 -0.00036796273 -0.00032173377 -0.00037838123 0.0003411083 3.406452e-05 3.3786677e-05 -5.1848052e-05 -7.8436475e-05 -8.575951e-05 -0.00030770342 -0.00038157255 -0.00042247635 0.0003893702 -0.00012131037 -0.0004785375 0.00038572462 -7.234786e-05 -9.535652e-05 -0.00047373606 0.00044510918 0.00013793551 -8.400092e-05 0.00044866433 4.2025822e-05 6.8999514e-05 -0.00038701593 -0.00015924773 0.00026341903 9.4862015e-05 1.575251e-05 -0.00022620302 0.00027081388 9.230538e-05 -0.00017797518 -0.0002869269 -0.00014634797 -0.00010160786 -0.00046821902 0.00010050653 0.0002448108 0.00036452425 0.00047246032 0.00044529443 -9.384852e-05 6.145098e-06 0.00043673 -1.7731598e-05 -0.00019855279 3.4411107e-05 2.2764534e-05 -0.0003591696 0.00020648215 0.00023449276 0.00037250045 -0.00047134556 0.00030596726 -0.00028802015 0.0004987292 0.00010254009 -0.00018224884 -0.00010263765 0.0004959375 -0.00027538528 -0.0002801344 0.00011395187 -0.00032496647 6.8463734e-05 0.0003506367 -0.00019248482 -7.558697e-05 -7.3414963e-06 0.00026812233 -0.00034948858 0.00049745786 -5.0115203e-05 0.00030033896 0.00013667987 -0.00020675831 -0.00037664679 -0.00036049556 -0.00015363892 0.00023259116 -0.00018008886 -4.450229e-05 0.00021062374 0.00032251014 0.00029422366 0.00015703036 0.00040455654 0.0004004526 0.00041922455 -0.00036064934 0.00027431964 -2.2623057e-05 -0.00017735551 0.000406477 -0.0004081962 0.00049871014 -0.0002833172 0.00030080028 -0.000109648136 6.822778e-05 -0.000118783086 0.00031576894 -0.00036861518 -0.00044705876 0.00023964049 -6.223651e-05 0.00045762802 0.00012407235 -0.0003679374 -0.0003835602 -0.00031550624 -0.00010202079 -0.00024549366 0.00043207646 -0.00028909394 0.00027071885 -0.00031833487 -0.00034542687 -0.00016388619 0.0001248437 -0.0004370862 0.0002479248 -0.00011424351 -6.5156586e-05 -0.00031041462 1.853796e-05 0.00046121216 -0.00046994045 0.00040297126 5.8462003e-05 -0.00012346075 0.00021976644 -0.0002991415 -0.00018049334 0.00032113428 -4.961435e-05 -1.0515303e-05 0.00047443813 -0.00024529366 0.00037254038 -0.00043765237 0.0003722372 0.00033942278 0.00016651659 0.00032398556 -1.8562254e-05 0.00048382845 0.00040060797 -0.0002933977 -0.00025066285 -6.9447e-05 -0.00013742587 5.5428653e-05 -0.00048349597 -0.0004151855 -0.00010224177 0.00038537613 -3.626072e-05 -0.00043129758 -0.00042472238 0.00047184664 -4.3063927e-05 -0.00014268159 -0.00017981685 0.00045972576 -0.0003140959 -0.00048168495 -8.090194e-05 -4.9683287e-05 0.00025522447 0.00044853994 -0.000107142616 -0.0003062991 1.0292407e-05 9.422661e-05 -0.00044011758 -9.665051e-05 0.0001817994 0.0002825763 -0.00034568735 -0.00026798894 -0.00015830886 -8.488965e-05 0.0003169137 0.00033733452 -0.0002754541 -0.00025216347 -9.4657145e-05 -0.0004124416 0.00015274508 -0.00030416326 -0.0001576182 0.00030635402 -0.0003143575 -0.00015493618 -5.1630097e-05 -0.00014855551 -0.00027015182 -0.00043781757 8.705092e-05 0.0003203118 0.0003885751 -0.00030873224 -0.00013754076 -0.00041138814 -0.00020827206 -0.00022413264 0.00018375719 0.0001620859 -0.00036731642 0.00029738861 -8.80544e-05 -0.00025061108 0.000288316 7.683388e-05 -2.953798e-05 0.00045349973 0.00022858329 -8.424798e-05 -0.0001439053 0.00019771843 1.5519343e-05 -3.1829997e-05 -0.000286685 0.0004987503 0.0004959901 -0.0003378717 0.00026381822 0.00032158283 0.00048161886 0.00017559652 -0.0003560829 -5.9502825e-05 4.847694e-05 0.00038078096 0.00022095622 -0.000114428076 -1.1335358e-05 -0.00042841042 -0.00010518836 -0.00019495358 0.00016816717 -0.00049853313 1.852924e-05 -0.0004922101 0.00020826241 0.00023264412 -0.00040563467 -0.00016000328 -2.4538016e-05 -0.00011579693 -0.00018368215 0.00013876871 -0.0002817096 -0.00015364226 0.00031152635 -0.00028483276 -9.668411e-06 0.0002379387 -0.00017701968 -0.00018828482 -0.00049092126 0.000110959256 0.00015903033 0.00011467483 -0.00025098573 -0.00012916939 -8.4970045e-05 0.00032409007 0.0003289204 -1.34775255e-05 -0.0002841073 0.00020828792 -0.0002886477 -0.00042381196 0.00047830198 -0.00022662111 7.283722e-05 -0.00030269916 -9.390244e-05 -0.0002467951 -0.00029918193 -1.7291182e-05 0.00025659244 -0.00040348692 -6.82037e-06 0.00010695033 0.00031914964 -0.00035608566 -0.00043821384 0.00042159474 -0.00030796728 -0.00022070241 -0.00023357884 0.00014782466 -0.00042222903 -0.00046447676 4.265787e-07 -0.00012837876 0.00014675505 -0.00016335558 -1.9137864e-05 -0.00018184014 0.00013311104 -0.0003494852 -0.00045252833 5.7262845e-05 -2.7078853e-05 -0.00011445707 -0.00043331477 -4.320549e-06 -0.000158092 5.7195957e-05 -0.00019285116 0.00020093961 0.00017985557 -8.7814056e-05 -0.0004181709 0.0001775593 -0.00017016634 0.00032069563 -0.0003848187 -0.00039976888 -0.0003726698 -0.00040700255 0.00014331669 -0.00030866193 0.00024016337 -0.00015344223 -0.0004677537 -0.00031760338 0.00039021546 -0.0003644489 7.1823124e-05 0.0004632181 -0.00016682754 0.0003193049 0.0002623646 9.657215e-05 6.461044e-05 -0.00014233276 -8.798351e-05 0.0003004791 -0.00025558888 -0.0004050623 -0.00012716008 4.341732e-05 0.00029088775 -2.1493997e-05 -0.00038179304 -3.1982254e-05 -0.00043313362 0.00021393174 0.0004834045 0.00018051857 5.4462016e-05 0.00013848138 0.00032126508 0.00011065396 0.0004736616 0.00041606263 -0.0004334282 -0.00026603267 0.00015150596 0.000108481014 0.00023159487 -0.00045503047 7.812111e-05 0.0001763103 0.0003602244 0.00034249702 -0.00018684662 0.00023544572 0.00021751253 6.5602355e-05 0.0002730519 0.00042008178 0.00022018582 0.00022938765 0.00043193006 9.2143906e-05 -7.6992736e-05 9.17058e-05 -0.00042224603 0.00042194763 0.0003704651 0.00025881926 -0.00022415389 -0.00020232658 -9.145208e-05 0.00013795648 -0.0001472208 -9.3119575e-05 -0.00030650984 -0.0004145687 0.00037879607 0.0004549065 0.00037567323 0.0004409907 0.00033437606 0.00029641026 -0.00021417344 -4.381312e-05 -0.00028520808 -0.00045014214 0.0001821342 -0.0003505289 0.00022754342 0.00041959854 -0.00043690662 -0.0003194618 2.5176558e-05 0.0004754182 -0.00018143778 -0.00016321572 -0.00037528836 -0.00030809405 -0.00025871958 -0.00043542412 0.00042910682 -0.00035651683 0.00018016987 0.00032496196 -0.00048429216 -0.00027765613 -0.00044643442 -0.00020332291 -0.00012292336 -0.00044316065 -3.5124514e-05 -0.00019990027 -9.5022435e-05 0.0004384987 -0.0003071182 -0.0004133743 -0.00021523295 0.00036951818 -0.0002726556 8.9570305e-05 -0.0003628648 -0.00017095673 0.00042255752 -0.00025091186 0.0003750372 -0.0003592757 5.1751544e-05 -0.00041884746 0.00029330447 -0.0002266325 -0.00026456852 -0.00043425232 0.00048714477 -0.00020905845 -0.00014042022 -0.0003125399 -0.00044124367 -0.00048327562 -0.0002765146 -0.00033235666 -0.00044945863 0.00035461364 -0.0004934541 -5.053711e-05 -0.00022396704 0.0004880378 6.450246e-06 -0.000116011004 0.00025648955 -0.00038732498 0.00039013784 -0.00017857796 0.00017808782 -3.1042116e-05 -0.00017330854 3.5448964e-05 -0.0004253889 0.00019390746 0.00030486434 -0.00015266066 0.00036167345 -0.00040711177 0.00020352652 6.4186795e-05 -0.00016132361 6.416502e-05 0.00013196075 0.00010237115 -7.497836e-05 -0.00010766287 -0.00040710947 -0.00027888693 0.0004829272 -0.0002468177 -0.00012909899 -6.315304e-05 -0.00016111195 -0.000395327 -0.0003876736 0.00036613134 -0.00032877087 0.0003517845 -0.0002899734 -0.00016121149 -2.4374775e-05 0.00019517355 3.1016363e-05 -0.00012399656 0.00024309721 -5.7069316e-05 -0.00010161398 -0.00048628592 0.00031715079 -6.692672e-05 0.00014103684 -0.000497276 0.00013052368 0.00010942665 -0.00026043493 -0.00042920536 -1.7278462e-05 -0.0002308552 -0.00016880539 0.00033060767 6.332492e-05 -0.00024421045 -4.8631475e-05 -0.00023780543 -0.00042201302 -0.0004975961 0.00021130024 -0.00029199893 0.00045688698 -0.0004081744 -0.00036095636 -0.0001248428 -0.0003019946 -0.00020364694 -0.00018609744 -0.00019913158 -0.00048671462 -1.769949e-05 -0.00043970716 6.957485e-05 -0.00046949138 0.000347137 0.0002657262 -0.00026418534 -0.0002803662 0.00036980174 0.00022375955 0.00040389685 -0.00011431098 -0.00020794265 -8.6222586e-05 8.6197375e-05 -0.00012296671 0.00015465179 0.00034906616 0.00047155877 0.00047782884 0.00017081121 0.00010851503 -0.0003361202 -0.00011055953 -1.7592774e-06 0.0003584776 0.00036198442 0.00031227013 9.238405e-05 -0.00017212181 -8.99749e-05 0.00038802117 0.0004820055 0.00038651665 0.00027882203 0.0001354997 0.0001631078 -0.0002551473 -0.000116635114 0.00035481306 -0.00036037486 0.00047572987 -9.199368e-05 -0.00046449775 2.7434982e-05 -0.0004574013 7.708877e-05 0.00020297423 0.000109603716 0.00048469385 -0.000273908 0.00036634252 -5.517772e-06 -0.00025377833 -0.00015449118 -4.533223e-05 -1.2929513e-05 -0.0003834169 -0.00019026414 0.00017434746 -0.00017387522 0.00017011791 -0.00023557099 -0.00010951143 0.00039578116 0.00032304856 -3.0981653e-05 0.00016076874 0.00047233328 0.00029262714 -0.00047267028 3.9120947e-05 0.00012103328 -0.00021851198 -0.00049935974 0.00014653627 0.00033206504 4.7900853e-06 -0.00020290978 0.00020234274 4.6765017e-05 -0.0003728798 -7.763912e-05 9.5282136e-05 -0.00022106535 0.00020469261 -0.00048102494 -0.00019845029 0.00024642984 0.0003648658 0.0003395596 0.00015035686 -0.00011885434 7.45864e-05 -5.7537065e-05 7.697551e-05 0.00041320157 -0.00045989157 -0.00018996568 -0.00029283707 0.000244637 0.00043012568 -8.057109e-05 6.288021e-05 -5.839627e-06 6.985325e-05 0.00042041513 -0.00025243204 -0.00031130252 -0.00048146571 0.00041544624 -8.065656e-06 0.00032733838 0.0002651872 0.00031510904 0.00042277077 0.00026047238 -0.00044478953 -0.00020773838 -5.5566743e-05 -0.00017000626 -8.469095e-05 2.4598443e-05 2.4400651e-05 0.00026503598 -0.0003400455 -0.00015253466 -4.391457e-05 -0.00020599537 0.0003482042 0.00011998742 -0.00047143604 -0.000282784 -0.00015831791 0.0004202972 -0.00033635608 -0.00031160525 0.00014469583 0.00030781672 -0.00036168518 -0.0004622961 -2.0295936e-05 0.00029719766 -0.00032017205 0.00029893056 2.7135151e-05 -0.0003691885 -0.00030668383 6.463409e-05 0.00031524565 0.0001946738 7.73103e-05 0.00020228844 -0.0003299016 -0.00039246352 0.00048786585 0.00018827265 -0.00037165507 0.00030837697 0.00015318443 -0.00044421453 -0.00010439859 0.00036308143 -0.0001228471 0.00045662065 0.0001230234 -0.00028652363 0.0001805495 -0.00014426626 0.00023684923 -0.00041142176 3.232874e-05 0.00043330246 0.00017555726 -0.0003365387 -6.114924e-05 -3.2956348e-05 -0.00019552522 7.232729e-05 -9.9367324e-05 0.00022930221 -0.0002679072 6.185565e-05 0.0002741421 0.0003047299 -0.00012884742 0.00026483845 0.00042480495 -0.00030668947 -0.0002889512 0.00044182866 0.00012088116 -0.0004530442 0.00034395204 0.00036972456 -0.00036119638 -0.0003130237 -0.0003078135 0.00037165338 -7.171587e-05 -2.9903304e-05 -2.698973e-06 -0.0004354393 0.00019862561 0.00019949322 -0.00049185957 -0.00015613394 -0.0004893785 0.00049740594 -0.00012459069 0.00010659778 0.00036853645 -0.00040348817 0.00048756215 0.0004567861 6.7078385e-05 0.00034209742 -0.00020601059 -0.00043868023 -0.00038760534 0.00041140243 -0.00036166937 -0.0002360385 -0.00043640265 9.828038e-05 -5.4398282e-05 -0.0003367041 -8.660542e-05 -0.00049169915 0.00033689212 0.00015116275 -0.00049965206 0.00023063197 3.1421183e-05 -5.406374e-05 -0.0003472536 0.00035325173 4.4471085e-06 0.0003490619 -0.00026481153 0.00037660488 8.0510064e-05 8.56398e-05 0.00033952988 0.0004496255 2.9048178e-05 0.0003776213 -0.00019803 -0.0004296259 0.00042466275 -0.00011412174 0.00038449524 -0.00034818493 2.743149e-05 -0.0004022712 -0.000106015614 -0.00029907216 -0.0001281337 0.0003600687 -0.00018531003 -0.0004680112 2.574893e-06 0.00035852584 -0.00027706596 0.00013071789 0.00011924763 0.00047155796 -0.00010796713 -0.00042467675 -0.0002787831 2.0774409e-05 -0.00031404808 -0.00021004704 -0.00029390954 8.083489e-05 -0.00035418072 0.0003565049 0.00042101642 -9.4185976e-05 0.0001235202 0.0001530027 0.00028464955 -0.00040289972 0.00049999024 0.00038956275 -0.00024705418 0.00032749426 -0.00033691266 -0.00042978016 0.000107159976 0.0004395225 -4.3384367e-05 -0.00020916991 0.00024197686 -0.0001250133 -0.0004349688 -0.00040118268 2.0447418e-05 -0.00012347692 -0.0004367249 0.00033259386 0.00021432972 -0.00030075936 0.00038902747 -0.00020101367 0.00023967311 4.9359067e-05 0.00011389294 -0.00014683326 -0.00026396287 -0.00043361782 -8.116372e-05 0.00037776172 -3.3077074e-05 6.435839e-05 -0.0001685243 -0.0002704338 -4.7003792e-05 3.2143456e-05 -0.0004373655 0.00011228159 -0.00030028587 -0.00026129224 0.0004836161 -0.00025739547 0.00015353161 0.00047060137 -0.00033377248 -9.162761e-06 -0.00034265377 -0.00032027572 -0.0002286288 -0.00028182313 -5.821482e-05 0.0003640102 0.00032545958 0.00018968388 0.00014709205 0.00026414488 -0.00013800208 -1.3927111e-05 4.746118e-05 0.000499279 0.0001460838 -0.00015610603 0.00016392714 0.00021759991 0.0001782541 -0.00018722149 -0.0004034371 -0.00012764423 -0.00042205187 0.00031608608 -0.00049291004 -0.00020835028 -0.00011256702 -0.0002705871 -1.2169916e-07 4.4399847e-05 -0.0004190252 1.1696425e-05 -0.00028482135 6.235296e-05 0.0003047153 -9.20788e-05 2.9854917e-05 -0.00042573983 -0.00043942756 -0.0002715137 -0.00033155875 -7.943047e-05 9.0926274e-05 0.00022616057 -3.7478676e-05 -0.00046403435 0.00047311265 0.00012932245 -0.0002343424 -0.00019922305 0.00017962753 -0.00019464454 -0.00039156148 8.209069e-05 -0.00038407996 0.00040390587 -0.00046845284 4.765289e-05 0.00018498328
좋아해. 0.00028346063 -2.0866992e-05 -0.0001056217 -0.00022213857 3.6317928e-05 -9.925111e-05 0.00031184047 -0.00038305865 -0.000115208204 0.00035639227 0.00016080539 0.00017477626 -0.0002744479 -0.00017346488 -0.00045498775 -0.00034598546 0.00040570018 6.386977e-05 0.0003003645 -0.00032557026 -0.00017404564 0.00039497763 -0.00020039611 0.00043059094 0.00017564345 0.00012967913 0.00015876158 -0.0004346518 0.0004741796 1.1346671e-05 -0.0004311139 -0.00031443493 0.00015898327 -0.00011436297 0.000340244 -0.00020751453 0.00039636792 0.00032957524 0.00021038645 -0.00047485245 0.00015358465 6.2876104e-05 -0.00021121064 0.00041404171 -0.00010584969 0.00017122392 0.00036202697 0.00017304826 8.072437e-05 -0.00014955057 0.000296126 -0.00021033488 -0.00040197934 8.51245e-05 -0.00022797522 0.00017941384 -2.5930969e-05 0.00047312834 -0.00040325645 -0.00014627892 -0.00048788413 -0.00032510833 -0.00014581901 -0.00045836216 0.00039170476 -0.00034500557 0.00012636311 0.00045162113 -0.0004573989 0.0002318205 4.8985923e-05 0.00012935683 -4.444415e-05 0.00035761733 -0.0004955882 0.00012236384 0.00037178563 -0.00041487586 2.7933993e-05 -0.0004104958 0.00047721545 -7.63496e-05 -0.0001601876 -0.00041595296 -0.00017790773 -0.00031627677 0.00044347334 1.9523262e-05 0.00040608633 1.0907373e-05 -0.00013949763 -9.83251e-05 0.00022577147 6.488157e-05 0.0003798433 -0.00014467924 -0.00025931196 -0.00034625368 -0.00020644112 0.0001827433 0.00027745878 -0.00012699996 0.00048266992 0.00017744642 -0.000391489 -0.00026697654 0.00020004241 0.00015132829 -0.00035569855 -0.0001524286 0.0002832216 -4.138187e-05 -0.00040934506 -0.0001354103 -0.00029967524 0.00032129063 0.00016807971 -0.0001355456 -0.00020031062 0.00022191391 0.00028733796 -6.712022e-05 -0.00044528898 -0.00041452923 -0.00014486436 -9.612965e-06 0.00045428218 0.00022130102 0.00023764504 -0.00037613837 -0.000188959 0.0003285111 4.6172026e-05 0.0003985176 0.00016868192 0.00021427668 0.00044822157 0.00015213309 0.00038109388 0.00049491384 -0.00010435673 0.0004183689 0.00045317423 -0.00041060327 -0.0003993042 -0.00035316855 -3.4534187e-05 -0.00046794265 -0.00039748178 -0.00013604903 0.00042241436 -0.00047223538 8.6381515e-05 8.63986e-05 0.00019635087 -0.0004439009 -0.00044220834 -0.00045768914 -0.0003778363 -0.00038142546 0.0003371613 -0.00027024455 -2.5482019e-05 7.045836e-05 -0.00020138531 -0.0002651896 0.00012830838 -0.0001307006 0.0001533049 -2.7225391e-05 0.00026400015 0.0001905167 -7.381493e-05 0.00030141827 0.00030639826 0.00049794646 0.00016608564 0.0004254626 -0.0004933847 0.0004268733 -0.00038379434 0.000204873 0.00025338493 -0.0002328517 0.00025343613 0.00029459145 -0.00036202665 -0.0003678205 6.0804145e-05 -0.00020570497 0.00035391742 0.00040346567 0.0003581219 0.00035133614 0.00031394602 -0.00032804598 -0.00044027957 4.547668e-05 -7.838412e-05 -0.00016351098 0.000409422 0.00026603974 0.00014002874 0.00014732123 -0.0001054408 -0.00028619185 -4.393494e-05 0.00046215215 0.00038033063 0.0003075025 0.0004334708 0.00043402327 -0.00041109545 7.527677e-06 7.129216e-05 -0.0002775756 5.694383e-05 -0.0003598984 -0.00014134745 2.3952276e-05 -0.00047664138 0.00028549318 0.000383166 -0.00029950665 -0.00031674412 0.0003699954 -0.00032197384 9.2094786e-05 0.0004294924 0.0002528653 -0.00013218817 -0.0002141464 -5.0130777e-05 -0.00025170902 0.00037750066 -0.00035567605 9.696356e-05 -0.0003127804 -0.00010851187 -0.00012287534 -0.0004893162 8.881783e-05 -0.0003874754 0.0002441935 0.00035425488 0.0002630381 -0.00010414454 -0.00049286877 0.00012741468 0.00023237817 0.00043091606 9.604629e-05 -0.0001145196 0.00029580598 0.00020369866 0.0004389373 -0.00025019952 0.00045648252 -0.00034825562 9.089322e-05 4.8721147e-05 -9.29348e-05 -0.00029717578 0.0004540692 0.00039840429 -0.000454449 -0.00040641718 -1.5148914e-05 -0.00032924817 0.00019679422 0.00023482353 -0.0003182908 -0.0003538186 0.00011889133 0.00033308796 -0.00010480641 -0.00017729176 -0.00049332075 0.0004457052 0.00027431615 0.00022190406 7.3191964e-05 -7.1707655e-05 -0.0004469993 -0.00023453459 -0.00031300925 -0.0004306512 -0.0003007949 0.00042955152 -0.00038551944 0.00018822416 0.00026965092 3.119236e-05 8.149364e-06 -0.00019801354 -0.00012370276 0.0003614907 -7.153818e-05 -0.0002523262 -7.953451e-05 0.00019727982 0.00017703256 0.00011023386 -0.00021558255 0.00034929364 -5.0487215e-05 -2.8091026e-05 0.00032053795 -9.2380295e-05 0.000120467004 -0.00032200784 0.00040489814 -0.00044215072 -0.0004758038 1.1196564e-05 5.451353e-05 2.9633832e-06 -0.0003341489 -0.00031596777 0.00021734813 -0.00033901772 0.00020678966 0.000334915 -0.0004735513 -0.00016693362 0.00034918074 -0.00017971067 0.00039639606 -0.00014209648 0.0003025091 0.00044453592 -0.000324614 0.00030792825 0.00047290145 -6.690944e-05 -0.00038345487 0.00044047085 0.000209466 0.00023781856 -0.0002416873 0.00033687105 -0.0002986322 -0.0004559454 -0.0002060498 -8.677053e-05 -9.3027025e-05 -0.00026473624 -7.97496e-05 -0.00022453195 0.00029068443 -6.48967e-05 0.00027965615 -0.0004470781 -0.00013459189 0.00043122182 -0.00015641053 -0.0002175849 -1.0032932e-05 0.00045549747 0.00030137072 -8.54957e-05 0.0002658045 0.0002186917 0.00022212393 -0.0002654516 -0.00048166534 0.0001841422 0.00012945084 -0.00029615575 -6.503413e-05 0.00012068519 -0.00045782333 -0.0002750308 -0.00011722026 0.000122965 0.0002784644 0.0004173984 -0.0004299346 -0.00018178613 -0.00034774147 8.1551734e-05 -0.00027838317 -0.00034631995 -7.4756885e-05 -0.00020710341 -0.00013755033 -0.00030599357 -0.0004625372 -0.000393636 -0.00013231266 -0.00040420674 -0.0001241192 -0.00035521807 -0.00039433158 -0.00024439048 0.00042377593 -0.00017437775 -0.0003462988 -0.00046586568 -0.0002489862 -1.1522136e-05 0.00020855392 0.0002277606 -6.0348477e-05 0.00015803789 1.2586028e-05 -0.0003395797 0.00024681137 -0.0003883132 -6.367899e-05 -4.3638935e-05 -4.1827952e-05 -0.0004748944 -0.00033820423 0.00031411796 -0.000345318 0.00031513599 -0.00017655219 -0.00024559585 0.0002708094 -0.0004487558 -0.00021315286 -0.00040904206 0.00017707837 0.0003794955 -0.00037342845 0.00029300447 0.00027988004 0.00031525883 0.00047873723 6.116396e-05 0.00013683419 -0.00027993106 0.00034982635 0.00022135091 0.00011935069 0.00016498157 1.1466288e-05 -0.00016020065 0.000416216 0.00022403536 -0.0003801664 0.00042130833 -0.0004010806 -2.5546442e-05 0.00047627394 6.0355007e-05 -0.00032787508 -6.811107e-05 -0.00036837155 0.0002932441 -0.0002763294 9.5065145e-05 0.0004317786 0.0004701308 -5.1242052e-05 -0.00042785352 -9.1220034e-05 -0.0001305483 -0.00034680823 -7.049683e-05 -0.0003326342 0.00021919646 0.00016343423 -0.00011179446 0.00020919951 6.378188e-05 6.5648346e-05 -3.0565825e-05 2.8463985e-05 0.00022742142 -0.00044245773 0.00049267616 -0.00020316962 0.00047520042 0.0004307929 0.00034250919 0.0004477797 -4.4162654e-05 0.00030878326 2.7243383e-05 -0.00038863617 0.00039216757 -0.00028862772 4.0268537e-06 -4.7899837e-05 0.00021096395 -0.00021837703 0.00033576004 0.00036847737 -0.00010942413 -0.0002960737 -0.00019147067 -0.0001431939 0.0004523325 -0.00025941935 -7.56648e-05 -0.0004419973 -7.985878e-05 -0.00018469681 0.00020447973 0.00016744732 -0.00043136717 -0.00044215968 -0.0002822447 -0.00037371198 -0.00017835954 0.00025947607 0.00019339773 -0.00020665073 -0.00018040749 -0.00046824611 0.000347593 0.00025558312 8.55322e-05 -6.9112895e-05 0.0004146395 -0.00037676204 0.00019247686 -0.00022162365 -0.00020473682 0.0003939384 -4.147421e-06 0.00029562262 0.00030431658 -6.524427e-05 0.00030173664 0.00042741696 -0.00037723192 0.00042300133 -0.0002464804 -0.00027802782 -8.5696876e-05 5.6648067e-05 0.00023234145 0.00037242335 0.0002838122 -9.728764e-06 0.0003785506 -0.00044309138 -0.00017346592 -0.00045146153 0.00043321907 0.00015039333 0.0003070603 0.00027692344 -1.5960544e-05 -0.0004659747 -0.0002226385 -6.8081594e-05 -0.0002361543 0.00027203263 3.422578e-05 0.00047381138 -0.00042982146 0.00012042428 -0.0001079347 -0.00041223125 0.00031555552 -0.00022420674 -5.0685652e-05 3.577522e-05 0.00021948061 9.851173e-06 -0.0002211688 -0.0004904731 0.0002583241 -0.00015919872 -5.3021773e-05 -0.00024366769 -0.0003240369 -0.00044365742 -0.0002890497 0.00048571918 -0.00045541674 0.00024569666 -0.00044980578 -0.0001960494 -9.0103276e-05 -0.00017970412 0.00041101675 0.00011493898 -7.419297e-05 9.307161e-05 -0.0003987902 9.911861e-05 -0.0002097284 -0.0001894157 0.00021000927 0.00039578197 0.00031022087 6.998565e-05 -0.0004382498 -0.00041729494 -0.00018623454 -0.00040909872 -0.00017117999 0.0001803689 -0.00045176796 -0.000425949 -0.0001591057 -0.00030282035 -0.0004171432 0.00025830956 -0.00019394633 0.00019726949 0.00029052154 0.00022518924 9.6633834e-05 0.00014597175 -0.00016854797 -0.00020024076 0.00034282578 -0.0003929961 0.00014994157 -0.0001743169 -0.0004917925 -0.00045855605 0.00044998145 -0.00014364898 -0.0003547814 -3.8115955e-05 0.00047243582 -1.9500032e-05 1.3695813e-05 0.00017250828 0.0003273529 0.00041410996 0.0002954115 -0.00034012113 -0.0003050545 0.00017683423 -0.0004152253 -0.00022968368 -0.00034951197 0.0003134324 -0.0003315648 0.00013031081 -0.00015368905 0.00031860816 0.00039445065 0.00014602098 -0.00017121693 -0.00024691608 -0.00020386948 0.00043818122 -0.00033454565 0.00038551076 0.00039217845 9.0185014e-05 -0.00023484304 0.0002699225 -0.00022259715 0.00047478432 0.00020448992 -0.0004838755 0.00037898018 -9.31118e-05 0.0003615969 -0.00014452415 -0.0004947611 0.00048178577 -0.00020642897 -0.00011186818 5.9884616e-05 0.00042191145 -0.00043757408 -0.0004948263 -0.0001816382 -0.00012396858 -0.00038667404 -0.00022049576 -0.00014687788 0.0003691154 -0.00017659011 0.0002392315 0.00036187738 -0.000162423 5.1033752e-05 0.00045829458 0.00018947189 -5.099363e-06 0.00017040907 -0.0003300065 6.892834e-05 3.6525136e-05 -1.0556441e-05 -0.0003397466 6.575647e-05 -3.9776263e-05 0.00011729182 -0.0002588077 0.00029702633 -0.000101211954 -0.0004486414 -0.00041644546 -0.00015917269 -0.00039603162 0.00020284261 9.2636656e-05 -0.00016101646 -0.00038914534 -0.00013942503 0.00027771536 0.00045210225 0.00028293757 -0.000106520456 -0.0003458153 0.00044207988 0.00043652824 0.00014335768 0.00036979959 -0.0002790609 -0.00015654456 0.0003802797 0.0003060738 -3.736148e-05 -0.0003320342 -0.00038378348 -0.0004875226 0.0003822847 6.2430605e-05 4.305826e-05 0.00019171114 -0.0002570274 0.00032736306 -0.00018064531 -0.00048457104 6.6658475e-05 0.00029281498 -0.0003873969 0.00041335094 3.6809477e-05 -0.00045489077 -0.0002650939 0.0001762467 0.00032423603 -0.00026620703 0.00034475533 0.00021891913 0.00039770175 -1.2373751e-05 0.00039768574 0.00016269596 0.000120398465 0.00044541326 -0.00032298302 -0.00048482802 -0.0001687583 1.3094706e-05 0.00035865762 0.00028366767 -0.000297921 -6.549916e-05 0.00029844532 -0.00035908073 0.0002037509 -0.0002782512 -4.7436506e-06 -0.00038349308 -9.608335e-05 -3.5246663e-05 0.00014591693 -0.00043852755 -0.00019192642 0.00045698445 0.00010144886 0.0004045535 0.000100395264 0.0002879297 -0.0004691354 1.731436e-05 0.00029245403 -0.00023823387 5.156949e-05 -0.00032098533 0.00017616272 -0.0003638044 -1.575188e-05 9.6299016e-05 0.00018565106 0.00045697094 -0.0004626283 0.00040119214 -0.00014958064 0.00046137458 0.00018530132 8.462053e-05 -0.00028652465 9.710093e-05 -1.6163498e-05 -9.063557e-06 -0.00033271147 0.00036864425 0.00031840632 0.00015687228 0.00013355093 -0.00029357296 -0.00019891503 0.00040460602 -0.00019508874 4.3640204e-05 0.00018531582 0.00037052235 -0.0004005376 0.00032944483 3.274056e-07 -0.00014609487 0.00021032673 -0.00043678776 0.00046052845 -0.00012278964 -0.0003233564 -3.2383847e-05 0.000378153 -0.00047308867 -0.0001977232 -0.00023097763 0.00032154156 0.00049954007 0.0004373789 -0.00015712866 0.0003340209 -3.4215358e-05 0.00041211947 -0.0004011294 3.4435314e-05 0.00010019059 -4.864011e-05 -8.371131e-05 0.00046483168 0.0004347033 -1.964356e-05 7.06516e-05 0.00047545703 0.00041581594 -0.00030377522 0.00040941194 -0.00042778882 0.00014959842 -0.00011520167 -0.00034559975 4.8388236e-05 0.00028976312 4.8170838e-05 -7.9680176e-05 -0.00011838677 0.00044417742 -0.0002585738 4.7585887e-05 -0.00039239187 0.00022774913 -1.7728365e-06 -0.0003247796 0.00027663674 -0.00011953932 0.00043857712 0.00030372446 0.0001805346 0.00031688812 -0.00023576606 0.00020740107 0.00012485213 0.000381022 0.0002732183 -6.718435e-05 -0.00040588772 -0.00017188991 -0.0003681204 -0.00020499312 0.00023875023 0.00017904722 0.00030780397 0.00016805985 -0.00048979744 -0.00040931947 -0.000401657 -5.9284237e-05 0.00015801935 -0.00046171364 -0.00043398587 0.00045816964 6.508091e-05 -0.00036424957 -0.00036669435 9.445219e-05 -0.00031463554 -0.00045326725 -0.00021703007 -0.00023742019 0.00014378625 0.00033863203 -0.0001950443 0.00022022384 -0.0002225361 -0.00039140708 0.00023415833 0.00018280465 0.00043233065 0.0004480756 0.00020038577 -7.986657e-05 -0.00046199714 -0.00037794956 0.00016046067 -3.2786695e-05 0.00020599029 -0.00018105442 0.00011673031 -0.00042326076 -0.0003991665 -3.6843332e-05 6.09862e-05 0.00032142302 -0.000117760705 -0.0004933659 -0.0002746704 0.00012359576 -0.00041318082 -0.000407854 -0.00015994518 -0.0004076207 -0.00038365234 -7.413818e-05 -0.0001032613 -0.00046541556 0.00022430393 0.00035299407 -0.00025643167 0.00042424936 9.3943025e-05 0.00031033714 -6.4859945e-05 0.00041924714 -0.00026326784 0.0001940564 -7.90624e-05 0.00042246535 0.00045292778 0.00020874849 3.124669e-05 0.00047993683 9.935765e-05 0.00037221538 0.00024971762 0.00017004544 0.00017487787 0.00024184542 3.738438e-05 0.0001650863 5.3648033e-05 -0.00019152748 0.00030452508 -0.00037638925 0.00020215608 -0.00021140682 8.090556e-05 0.0001523195 0.00026195726 -0.00036307873 5.5593253e-05 -0.00037761693 9.514443e-05 9.8456345e-05 -0.00030864135 0.00018660686 -0.0003178448 0.00022022263 -0.0004460522 0.00031213637 0.00027063067 -0.0002076416 -0.00042019293 0.00016615151 -0.00031406182 0.00031761924 0.00034879663 0.00036634182 -8.845807e-05 9.784385e-05 0.0002753118 -0.00022637931 -6.811928e-05 -0.00029173624 -0.00046035953 -0.00019931307 8.565536e-06 -0.0004607683 -0.00012208699 9.040397e-05 0.00024369765 0.00011205301 0.00021696945 0.00044438354 0.00026589766 0.00027821187 0.00012461709 0.00025943684 -0.00031956084 -1.4121206e-05
미치도록 0.00010793494 -0.000271846 -0.00046938114 0.00021467388 -0.00040849595 -0.00023224979 -0.00034677013 -0.00026294263 0.00034749764 -0.00027365456 0.00043517203 -0.00016256109 -0.00029803824 -0.00030926714 2.5666885e-05 0.00048605952 -1.2078551e-05 0.00040382493 0.0002024648 -0.00022053567 -9.632867e-05 0.0004693341 -0.00032468972 -0.00020632702 6.466266e-05 -0.0002744245 -2.6990706e-06 -0.00019376753 -0.0004701603 3.43365e-05 -0.00014475027 0.0003824787 -0.0003954542 4.682032e-05 -0.00045129398 0.00023699661 -6.416369e-05 -0.00044564076 -0.00013775637 0.00039433024 0.00027005162 -0.0003862236 0.000334547 -0.00014303005 1.32146615e-05 7.4514515e-05 -0.00017851981 -0.000208246 0.00030637815 -0.0003479852 0.0004004732 4.605084e-05 0.0003268502 -0.00029379092 -0.00049948617 -5.0406772e-05 -0.0003790351 -0.00032560204 -0.00042538898 0.00024333183 0.00041545508 -0.00040005808 -0.00046438962 0.00047565933 0.00043150387 0.0004980305 0.00029133642 0.00019609553 -0.00033686374 -1.8370652e-05 0.0004206215 -0.00022400048 -0.00033277 0.0003414475 0.00016242823 -0.00027497803 5.369675e-05 -0.00030960326 7.852498e-05 0.0001600871 5.0821785e-05 0.0001046726 -0.00020431227 -0.00012224827 -6.0659866e-05 -0.00020232181 0.0003891583 -8.7154076e-05 0.00021005963 0.0003906047 0.00029532326 -0.00017922012 -0.00023884355 -0.0001849521 0.0004642804 0.00034656355 -2.3972581e-05 0.00039877018 -0.000398388 -6.9538114e-06 -0.00014351164 0.0003351442 -0.00012864164 0.0004865386 0.0004338391 -0.00026083027 0.0002354239 0.00048589474 -0.00021838964 -0.0004788181 -0.00034504937 8.7649656e-05 0.00039092568 0.00030827426 8.8107794e-05 0.00039863912 0.00013184156 -9.090723e-05 -4.303703e-05 0.00019725991 0.0003025178 -0.0004194832 0.000436349 0.0003550361 0.0001526438 6.1903265e-05 -3.4045333e-05 -0.0001012407 0.000312557 6.0632945e-05 2.622911e-05 0.0004951318 0.0002884623 0.00032234253 6.3558405e-06 -0.0003746567 -0.00039474692 0.0003440424 0.00042428976 -0.00017939544 0.00025746907 0.00036344337 0.00029088353 -0.00014351125 -0.0002867826 -0.000101665755 -0.00041060752 -0.00016141935 -0.00016516338 -0.00034485728 0.00026646644 -0.00015581949 -0.00020060419 -0.00033130232 -7.6942924e-05 -0.00019337093 -0.00037224605 9.582069e-05 0.00012073347 0.00019673536 0.00023744444 0.00021511674 0.00047224274 -7.5082564e-05 -0.00035367016 -0.00037290418 7.8869096e-05 -0.00042459567 0.00017466412 0.00011895512 -0.00039317034 0.0004836268 -0.00030732766 -0.00013010846 -0.00025457516 -0.00033999703 -0.00044071666 0.0004809993 0.00030033194 -0.0004957544 0.00021975767 0.000115929906 0.00029956273 0.00022076326 -0.00020725209 0.00030788698 0.00011110081 -0.00034971465 -1.6652586e-05 4.3704815e-05 -0.00048045794 0.00037156336 0.0004818633 2.529972e-05 0.00027373066 0.00034064616 0.00019005938 -9.921912e-05 -0.00021703227 0.00026105536 0.00018172585 9.745197e-06 -1.3004741e-06 0.00013317095 -0.00026714551 0.0004614745 -0.00022256821 -0.0003140345 -0.00034567894 -0.00019556333 0.00037838277 0.00021414281 0.00023625513 -0.00020579912 0.00043987748 9.4132265e-05 -0.00046481544 -0.00028634633 0.0003499271 -0.00027667565 3.5430046e-05 -5.956097e-05 -0.00045530478 -0.00026596457 -0.00035911758 -6.3685076e-07 0.00039666353 -0.00027665068 -0.00041176978 -0.0002638848 -6.615488e-05 -0.00034061467 0.00016223875 -1.18916e-05 -0.0003385184 -0.00033526417 -0.00041765353 -8.653168e-05 5.777091e-05 -0.00015316962 0.0002122205 -0.0004935529 -0.00033313685 0.0004575904 -0.00031859096 0.0004009946 0.00024938557 -0.00020557515 -9.108239e-05 0.00025895808 -0.000291551 -8.1202816e-05 3.8845217e-05 -6.993853e-05 -0.0004423382 0.00027273924 0.00028706013 -0.0004547376 0.0004309828 -0.00023843937 -3.4104894e-05 0.00021517211 -0.00029409092 -0.0004915987 4.0224942e-05 0.00014648282 0.0002516947 0.00016487294 0.00024324049 0.00040922474 -0.0002722915 -0.00034768786 -2.5375877e-05 -4.150375e-05 2.2062795e-05 0.00036236027 -0.00015328682 0.00016712281 -0.00018409279 -0.00036704028 -0.00011166523 -9.861381e-05 8.023282e-05 -2.0615693e-05 -7.8818026e-05 0.00032293855 0.00021550347 2.029656e-05 -0.0004486706 0.00024333847 -0.0003020773 1.3903548e-05 -8.9376204e-05 -0.00034693093 -0.00022890119 -6.1387254e-06 0.00039628748 -0.0003273817 -0.00042321457 -0.00037070148 0.00046597258 -0.0002065749 1.2207625e-05 -0.00048536572 -0.00012202457 0.00027841562 0.00022271043 -0.00026782832 -0.00016980394 -9.0690715e-05 -7.124846e-06 6.313424e-05 -2.378336e-05 -0.00013817714 -6.0775576e-05 -3.7477414e-05 -7.2871335e-05 -0.00037732453 -0.0003580044 2.5469656e-06 -1.0260367e-06 0.00039979766 0.00043300714 0.0002182168 -8.017646e-05 -0.00021258924 9.0947484e-05 0.00046104868 -0.00042012674 0.00017766535 -0.00021550147 -0.00013088343 -3.780047e-05 -0.00041368333 -0.00042322106 -0.0003841903 0.00016133502 0.00015953906 -0.00036338533 -0.00010472132 -0.0004947721 0.0001363063 -0.00021634388 0.00036814582 -0.0004963253 -0.00014479063 0.00040606296 0.0004186952 -0.0002536393 5.7057452e-05 -8.440672e-05 0.00037523618 -0.00017799462 6.8825e-05 0.0004343615 -6.0656952e-05 -0.00031150793 0.0003494404 -0.00016871652 1.5218036e-05 0.00046524455 -6.3362335e-05 1.2647018e-05 0.00037758984 -0.00041419457 0.0003791799 -0.0003109489 -0.00014777482 0.00028593405 -0.00013191387 1.7657067e-05 -0.00019143807 -0.00038092074 -0.00048627384 -0.00016462996 -0.0003222401 -1.11047675e-05 0.0001712917 -0.00047452643 0.00013246447 0.00012692616 0.000102457205 0.00046311057 2.3100441e-05 0.0002640597 -0.00016225394 5.625411e-05 0.00023744538 0.00034348384 -0.00015065845 3.9238566e-05 0.00038418552 -0.00045171645 0.0004028014 0.0004730758 0.0004296273 -0.00032941767 -4.782481e-05 0.000358021 -0.00015333119 -0.00047801502 -0.0003613503 0.00039158642 0.00010967288 7.915065e-05 0.00028475787 -0.0002483031 -0.00032009097 -0.00044102006 0.0002612041 0.00014731781 -0.0004420134 -1.5725489e-05 0.00018850729 5.7368296e-05 9.41554e-05 -0.00049597345 0.000374851 0.0003514825 0.00028147877 -6.191662e-05 -0.0004697835 0.00021768296 0.00034066173 -9.783048e-05 0.00021151893 -2.9364952e-07 0.00026685084 0.0002518938 -0.00048169773 -9.55641e-05 -0.0002958873 -0.00020438495 -0.00024612714 -0.00045390517 0.0003976187 -0.00011985344 0.00015321313 -0.00035428212 -0.00020475623 -0.00023847568 0.00023981358 -0.00023733053 -0.00023152001 0.0003558212 -0.0002364815 -0.0001551001 0.00027129916 0.00039963558 -0.0001887597 0.000114071256 0.0001624026 -0.00025939697 -0.000472389 -0.00013212978 -3.542689e-05 0.00021044064 0.0001319234 0.00035141982 0.000102165985 -0.0004653095 -0.00029101977 -0.00022461657 -0.00035187425 0.00027579445 -0.00039474975 4.217349e-05 -0.00048527872 -0.00026719322 0.00043095148 -0.0002957683 5.9026373e-05 -0.0002403351 -0.000350976 -0.00013311022 -0.0004478218 -0.00039956335 8.9894376e-05 0.00033070217 -0.00023826688 -0.00010255156 0.00021166932 -0.00040719574 -0.00034689895 3.0876274e-06 6.471999e-05 0.0003004031 -0.0003794768 -0.00010661882 0.00049179257 -0.0002602759 -0.00029798268 0.00043876623 -0.0001103037 -0.000116117866 -4.793933e-05 -0.00019497237 -0.0004901556 -0.00027300202 -0.0003146905 -0.00022904614 -0.00040772386 -0.00020893759 -0.00019764826 0.00041395935 -0.00024115632 4.59448e-05 0.0003851742 -0.00024243009 4.4124128e-05 -0.00043361983 0.00015274563 -0.00029632638 -3.9911898e-05 0.0003817559 -0.00048015988 -0.00037719138 0.0004924475 -0.00034023938 1.4987867e-05 0.00016038473 -0.0003808649 0.00016127653 0.00028590334 0.00037668043 -0.00046015173 -0.00030320347 -0.00043613417 -0.00045280633 0.00017094721 -0.00046620972 0.00038031905 2.2434844e-05 -0.0003256971 -0.00022670373 0.0004835061 0.00013298595 -0.00025824047 0.0003925175 0.000481521 -0.0002652429 -0.00049447466 -0.0004117844 -0.00037880574 -0.00024997018 0.00019935785 -0.00022493023 0.00011011968 2.2290076e-05 -4.5545097e-05 -1.8557834e-05 -0.0002275811 -0.00048952794 -0.00028766415 0.00022931845 -0.00021009748 0.00010016613 0.00045088658 4.1150437e-05 0.00033170675 -0.00040471082 0.0002310798 0.00044925135 -0.00045033524 8.0301026e-05 0.00022685055 0.00029575432 0.00037494343 -0.00046592264 0.0002576249 -0.000105717336 -0.00039802562 -0.00020859473 0.00047654894 -0.00037653671 3.1339172e-05 -3.0122258e-06 -0.0002734234 -0.0003349242 -0.00041157263 -1.575221e-05 -0.00046003534 -0.00049470057 -0.00029505702 0.00033749128 4.794393e-05 -0.00048283444 3.6007434e-05 -5.1757695e-05 -4.0135907e-05 0.00025564575 0.00028596414 -0.0003590254 0.0003113337 -0.00022180205 -0.00042302776 -0.00043292422 0.00016606058 -0.00031158258 0.00017924067 0.00021892459 0.0001519123 -0.00018375293 -9.205375e-05 0.00039596797 0.00019818298 -0.00018912237 0.00049822277 -0.0004897898 6.18067e-05 -0.00040226826 -0.0004300687 0.0003440561 -0.0003366718 -0.0002286858 -2.7959302e-06 0.00030919976 -9.9473626e-05 0.00023458789 -0.00038631549 -0.00048098995 0.00023345418 3.7908496e-05 -0.0001350344 0.0002857589 -0.0002761487 0.00026402733 -0.00034184367 -1.2553869e-05 -0.00032325016 0.00030863917 0.00034892396 0.00038045307 -0.00034530068 -8.7797285e-05 -6.872632e-05 0.00037945004 -0.00022219923 0.00015503335 0.00019165842 0.00035421023 -0.00036226743 0.00014422454 0.00013228248 0.00023704379 0.00014099893 -0.0004883498 0.0004925678 -0.00046689177 -0.00021436042 -0.0004179917 -0.00015774551 0.00039471942 0.00035168498 0.00026372584 0.00042681705 -0.0001504643 0.00039212173 -0.0002461385 -0.0004074767 -1.5421758e-05 0.0003210799 0.00027174628 -0.00034178107 -0.00035808387 -8.89288e-05 -0.00039811144 0.00042192006 3.382487e-05 -7.901424e-05 0.00046082935 -0.00044580785 0.0003771143 -0.0004863275 0.00043171275 0.00032917527 -0.00021056861 0.00014958072 0.00047617787 0.0003359488 0.00028202267 0.00018880755 -6.4252614e-05 -0.0003054305 0.00020710121 0.00025996967 -0.00039911206 9.44907e-05 0.00047395562 -0.00021578425 -0.0001857588 -0.00020803403 -0.00023600132 -0.00040051038 -0.00046445182 9.369471e-05 -0.0003632061 0.0002340637 -0.00030279256 -2.1806309e-05 -0.00047270025 0.00034721117 -0.0001197075 0.0004955929 0.00027454278 0.00043855121 -0.00033865153 -0.00047634426 -0.00016340805 -0.00028474527 -0.00025006186 -0.0004864276 0.00036850417 -2.4406954e-06 -0.00035240728 -0.00039052588 0.000497645 0.0002738058 -0.00045597958 0.0002987829 0.00032652644 -0.00025649185 -0.00041251126 9.094016e-05 3.6553618e-05 0.00027806306 0.0001903216 -0.00024352339 0.00020819878 -6.134451e-05 -0.00033800828 0.00033059047 -0.00021341228 0.0004784236 -0.00011965729 -1.7788601e-05 0.00010743173 0.00045303305 8.014757e-05 0.00010707175 0.00010656251 0.0004023536 -0.00037569416 -0.0002371587 0.00020852222 0.0002200107 3.3807486e-05 6.398172e-05 -0.00042999614 -8.350166e-05 -0.00038866716 0.00012138434 0.00044942368 -0.00022540684 -0.00023481913 0.00041733464 -0.00034484064 -0.000388972 -0.00032588252 0.00023549942 0.00024361296 0.00021783888 -0.00010991379 0.00018866904 -0.00021873426 0.00032763087 0.00016658581 -0.00010755807 -6.883531e-05 -0.00049662753 -0.0004540365 0.00040201843 0.0001522611 0.000443574 0.00014307848 -4.697591e-05 0.00045217466 -2.2254691e-05 0.00012633641 -0.00012453704 -0.00016428363 0.00049987517 0.00013551186 -0.00021848128 -0.00032945443 -0.00035978892 0.00023116298 0.00047051415 0.00013496802 -0.00028886797 -0.00045866508 0.00019220993 0.000153917 -0.00031505237 -0.00043605707 -0.00018676108 0.00048439333 -9.837085e-05 -0.000382801 -0.00014769603 -6.523468e-05 -0.00041103875 -1.9856761e-05 2.2221902e-06 0.0001379577 0.00037022517 5.1967578e-05 -0.00048273677 0.00020872663 -0.0002650058 -0.00028747207 0.00011877719 0.00033202532 -0.0004439913 -0.00039857798 -0.00036631373 0.00044377684 -0.00019516022 -4.9641327e-05 0.00038633205 0.00023978307 0.0004903026 0.00035743671 0.0003521574 -0.00044624117 0.00041746697 0.00044701717 -0.00031241178 0.0003207153 0.00035420334 0.00018947403 -0.0003390785 1.30367e-06 0.00049234665 0.00016445974 -9.419263e-05 0.00041201347 0.000118533404 0.00037037194 -0.00012141638 0.0001589903 2.5354298e-05 8.6522676e-05 -0.0003473339 -0.0003565368 -0.00015838158 0.0004821682 -5.4093207e-06 -7.666729e-05 -2.8800827e-05 0.00016893042 -0.00039587004 -0.00019485323 7.3395175e-05 0.0002519434 0.00041784218 5.281664e-05 -0.0003636061 -0.00021226172 0.00018259043 -4.9722163e-05 0.00024520856 -5.8207388e-05 0.00016559593 0.00028977127 -0.00029725875 -0.00010922167 -2.5580787e-06 0.00029738122 -0.00034358623 -0.00048346815 3.691953e-05 0.00010748392 -0.000387449 -1.44608985e-05 8.613716e-05 9.886386e-05 -0.0004210003 9.866089e-05 -7.8233825e-05 -0.00020050847 -0.00031770533 6.52583e-05 0.00032644093 -0.00021330098 0.00048668194 -0.00038770417 0.00021668975 -0.00021737111 -0.000236045 0.0004934462 -0.00012621583 0.00047462728 -0.00022322076 -0.00033404314 0.0003665943 0.00047060868 -0.00023213627 0.00025993775 3.449391e-05 0.00019521473 -8.3281e-05 -0.0001364995 3.0099969e-05 0.00030047854 -7.515058e-05 0.0003493589 -0.00015129615 0.0002528572 0.00025700167 6.529595e-06 -1.8626786e-05 2.4769317e-05 -0.00044565485 -0.00029766202 -4.2645734e-05 0.00027898088 -0.00036678088 0.00035169328 -0.00024743687 -0.00032958534 0.00028794925 0.00039024392 -0.00019710061 0.00030421393 0.00014058842 0.00028180788 -0.00039859072 0.00045652958 -0.00045510562 1.7827851e-06 -0.00029435448 4.95295e-05 -0.00027904974 -0.00048368904 0.00026656032 0.00026744205 -9.583728e-05 -0.00043196394 -0.00046896833 -0.00019473689 -0.00023453007 0.00028926024 -0.0003655328 0.00031137012 0.0001388888 -0.0004040697 0.00047995048 -0.00030514973 -0.0004945886 0.00026311542 0.00020617998 -8.979294e-05 0.00036047486 -0.00025109883 -0.0003752503 0.00010095793 -0.00017720499 -0.0001538919 0.00019040129 -0.00031376275 0.0004053356 0.00047370858 0.00022033368 0.00047785646 -0.00047736717 0.00015084438 -0.00013762368 0.00013006879 -0.0004433379 0.000112400805 -0.00017943769 -0.0002707111 -0.0002821314 -3.343213e-05 0.00032490166 -0.0002092123 2.942266e-05 0.00044903863 -0.00021567824 0.00014309931 -0.00020526318 0.000359142 -0.00028554816 -0.00013827828 6.546641e-05 -0.0004769456 -0.00043820016 7.844816e-05 0.000105762294 5.1613e-05 -9.740039e-06 0.00040085154 -0.0003315369 -0.0003686563 0.000333802 -0.00037925455 0.00014881628 0.0002295626 -0.00024742508
